{"learner":{"attributes":{"best_iteration":"89","best_score":"0.9217994793734695"},"feature_names":[],"feature_types":[],"gradient_booster":{"model":{"cats":{"enc":[],"feature_segments":[],"sorted_idx":[]},"gbtree_model_param":{"num_parallel_tree":"1","num_trees":"130"},"iteration_indptr":[0,1,2,3,4,5,6,7,8,9,10,11,12,13,14,15,16,17,18,19,20,21,22,23,24,25,26,27,28,29,30,31,32,33,34,35,36,37,38,39,40,41,42,43,44,45,46,47,48,49,50,51,52,53,54,55,56,57,58,59,60,61,62,63,64,65,66,67,68,69,70,71,72,73,74,75,76,77,78,79,80,81,82,83,84,85,86,87,88,89,90,91,92,93,94,95,96,97,98,99,100,101,102,103,104,105,106,107,108,109,110,111,112,113,114,115,116,117,118,119,120,121,122,123,124,125,126,127,128,129,130],"tree_info":[0,0,0,0,0,0,0,0,0,0,0,0,0,0,0,0,0,0,0,0,0,0,0,0,0,0,0,0,0,0,0,0,0,0,0,0,0,0,0,0,0,0,0,0,0,0,0,0,0,0,0,0,0,0,0,0,0,0,0,0,0,0,0,0,0,0,0,0,0,0,0,0,0,0,0,0,0,0,0,0,0,0,0,0,0,0,0,0,0,0,0,0,0,0,0,0,0,0,0,0,0,0,0,0,0,0,0,0,0,0,0,0,0,0,0,0,0,0,0,0,0,0,0,0,0,0,0,0,0,0],"trees":[{"base_weights":[-1.9286018E-3,-6.469306E-1,1.9975887E-1,3.2477447E-1,-1.2359657E0,7.894174E-1,-1.4818683E0,-6.9678867E-1,-1.6222732E0,-1.3763985E-1,1.2170024E-1,-3.0434016E-2,-1.881679E-1,-1.4856502E-1,-2.3899356E-2,-1.7737308E-1,-3.3124547E-2],"categories":[],"categories_nodes":[],"categories_segments":[],"categories_sizes":[],"default_left":[0,0,0,0,0,0,0,0,1,0,0,0,0,0,0,0,0],"id":0,"left_children":[1,3,-1,5,7,9,11,13,15,-1,-1,-1,-1,-1,-1,-1,-1],"loss_changes":[4.385888E3,1.4721208E3,0E0,8.1644806E2,3.3235327E2,7.176957E2,9.3128845E1,2.4162701E2,1.816543E2,0E0,0E0,0E0,0E0,0E0,0E0,0E0,0E0],"parents":[2147483647,0,0,1,1,3,3,4,4,5,5,6,6,7,7,8,8],"right_children":[2,4,-1,6,8,10,12,14,16,-1,-1,-1,-1,-1,-1,-1,-1],"split_conditions":[1.3E1,3E0,1.9975887E-1,2.021E3,2E0,2.014E3,2E0,2.015E3,1.406585E9,-1.3763985E-1,1.2170024E-1,-3.0434016E-2,-1.881679E-1,-1.4856502E-1,-2.3899356E-2,-1.7737308E-1,-3.3124547E-2],"split_indices":[17,17,0,2,30,2,30,2,24,0,0,0,0,0,0,0,0],"split_type":[0,0,0,0,0,0,0,0,0,0,0,0,0,0,0,0,0],"sum_hessian":[3.3987217E3,2.5702803E3,8.2844147E2,9.702125E2,1.6000676E3,7.7218146E2,1.9803108E2,6.690562E2,9.310114E2,1.2694698E2,6.4523444E2,5.064168E1,1.473894E2,2.4486517E2,4.2419104E2,8.329227E2,9.808867E1],"tree_param":{"num_deleted":"0","num_feature":"31","num_nodes":"17","size_leaf_vector":"1"}},{"base_weights":[-6.113768E-3,-5.7738113E-1,1.8166819E-1,3.0474764E-1,-1.1178105E0,7.295655E-1,-1.2917417E0,-1.4046882E0,-6.2496644E-1,-1.2948261E-1,1.1150523E-1,-2.783751E-2,-1.6620968E-1,-1.560874E-1,4.059081E-2,-1.5635863E-1,-1.1292757E-2],"categories":[],"categories_nodes":[],"categories_segments":[],"categories_sizes":[],"default_left":[0,0,0,0,1,0,0,1,0,0,0,0,0,0,0,0,0],"id":1,"left_children":[1,3,-1,5,7,9,11,13,15,-1,-1,-1,-1,-1,-1,-1,-1],"loss_changes":[3.5333452E3,1.2319717E3,0E0,6.671276E2,2.2565784E2,6.0737256E2,7.715134E1,2.8680005E2,2.8401074E2,0E0,0E0,0E0,0E0,0E0,0E0,0E0,0E0],"parents":[2147483647,0,0,1,1,3,3,4,4,5,5,6,6,7,7,8,8],"right_children":[2,4,-1,6,8,10,12,14,16,-1,-1,-1,-1,-1,-1,-1,-1],"split_conditions":[1.3E1,3E0,1.8166819E-1,2.021E3,4.36969E1,2.014E3,6E0,1.167E3,7.4E1,-1.2948261E-1,1.1150523E-1,-2.783751E-2,-1.6620968E-1,-1.560874E-1,4.059081E-2,-1.5635863E-1,-1.1292757E-2],"split_indices":[17,17,0,2,4,2,1,20,28,0,0,0,0,0,0,0,0],"split_type":[0,0,0,0,0,0,0,0,0,0,0,0,0,0,0,0,0],"sum_hessian":[3.3911865E3,2.5825073E3,8.0867914E2,9.8125946E2,1.6012479E3,7.7545715E2,2.0580226E2,1.01094226E3,5.9030566E2,1.2366566E2,6.517915E2,5.555209E1,1.5025018E2,9.307885E2,8.015378E1,2.0763527E2,3.826704E2],"tree_param":{"num_deleted":"0","num_feature":"31","num_nodes":"17","size_leaf_vector":"1"}},{"base_weights":[-1.4078904E-2,-5.8186877E-1,3.1854585E-1,-8.257415E-1,2.528829E-1,7.2939205E-1,-9.588487E-2,-3.2138968E-1,-1.3953539E0,6.867245E-1,-9.6652037E-1,-1.4496139E-1,1.0064971E0,6.7549855E-1,-1.6001805E0,-1.0728655E-1,2.7638103E-3,-7.7410676E-2,-1.6867974E-1,-1.0086328E-1,8.5472725E-2,-1.2770514E-1,1.1502161E-1,-1.5189607E-1,1.3670364E-2,1.0706314E-1,-1.7774467E-1,-2.5936073E-2,1.06584586E-1,-9.427231E-2,-1.6808043E-1],"categories":[],"categories_nodes":[],"categories_segments":[],"categories_sizes":[],"default_left":[1,0,0,0,0,0,0,0,0,0,0,0,0,0,0,0,0,0,0,0,0,0,0,0,0,0,0,0,0,0,0],"id":2,"left_children":[1,3,5,7,9,11,13,15,17,19,21,23,25,27,29,-1,-1,-1,-1,-1,-1,-1,-1,-1,-1,-1,-1,-1,-1,-1,-1],"loss_changes":[6.2583405E2,2.4940793E2,3.5586432E2,2.7178003E2,1.4748773E2,2.5441852E2,1.2092275E3,1.3219151E2,7.921179E1,5.933371E1,4.9614212E1,9.82885E1,1.4420972E2,2.5168457E2,1.7138367E1,0E0,0E0,0E0,0E0,0E0,0E0,0E0,0E0,0E0,0E0,0E0,0E0,0E0,0E0,0E0,0E0],"parents":[2147483647,0,0,1,1,2,2,3,3,4,4,5,5,6,6,7,7,8,8,9,9,10,10,11,11,12,12,13,13,14,14],"right_children":[2,4,6,8,10,12,14,16,18,20,22,24,26,28,30,-1,-1,-1,-1,-1,-1,-1,-1,-1,-1,-1,-1,-1,-1,-1,-1],"split_conditions":[1E-3,3E0,6E0,2E0,3E0,2.015E3,2.019E3,1.8E1,2.017E3,2E0,1.34E2,0E0,6E0,2.014E3,5.3E-3,-1.0728655E-1,2.7638103E-3,-7.7410676E-2,-1.6867974E-1,-1.0086328E-1,8.5472725E-2,-1.2770514E-1,1.1502161E-1,-1.5189607E-1,1.3670364E-2,1.0706314E-1,-1.7774467E-1,-2.5936073E-2,1.06584586E-1,-9.427231E-2,-1.6808043E-1],"split_indices":[7,30,1,30,29,2,2,0,2,29,26,16,29,2,7,0,0,0,0,0,0,0,0,0,0,0,0,0,0,0,0],"split_type":[0,0,0,0,0,0,0,0,0,0,0,0,0,0,0,0,0,0,0,0,0,0,0,0,0,0,0,0,0,0,0],"sum_hessian":[3.3117473E3,1.2231254E3,2.088622E3,9.465898E2,2.7653552E2,1.0484652E3,1.0401567E3,5.0288474E2,4.4370505E2,2.0428975E2,7.224575E1,2.5243394E2,7.960313E2,6.879406E2,3.5221613E2,1.5883357E2,3.4405118E2,1.428529E2,3.0085214E2,1.7967876E1,1.8632188E2,6.3348976E1,8.896777E0,4.219727E1,2.1023666E2,7.787075E2,1.7323795E1,2.0273576E2,4.8520486E2,3.9860588E1,3.1235553E2],"tree_param":{"num_deleted":"0","num_feature":"31","num_nodes":"31","size_leaf_vector":"1"}},{"base_weights":[-1.5820103E-2,-5.164038E-1,1.6520618E-1,4.6338207E-1,-9.302439E-1,-8.236278E-1,8.7057614E-1,-1.251303E0,-4.2523465E-1,2.9055534E-2,-1.18126355E-1,1.1188432E-1,-8.617904E-2,-1.3499391E-1,3.974963E-3,-9.997383E-2,3.225149E-2],"categories":[],"categories_nodes":[],"categories_segments":[],"categories_sizes":[],"default_left":[0,0,0,1,1,0,0,1,1,0,0,0,0,0,0,0,0],"id":3,"left_children":[1,3,-1,5,7,9,11,13,15,-1,-1,-1,-1,-1,-1,-1,-1],"loss_changes":[2.7360889E3,1.0224538E3,0E0,3.9331995E2,2.8684192E2,7.229494E1,2.459361E2,1.3797144E2,2.968977E2,0E0,0E0,0E0,0E0,0E0,0E0,0E0,0E0],"parents":[2147483647,0,0,1,1,3,3,4,4,5,5,6,6,7,7,8,8],"right_children":[2,4,-1,6,8,10,12,14,16,-1,-1,-1,-1,-1,-1,-1,-1],"split_conditions":[1.3E1,2E0,1.6520618E-1,2.30136E1,4.36969E1,-8.7455E0,2.021E3,1.167E3,5E0,2.9055534E-2,-1.18126355E-1,1.1188432E-1,-8.617904E-2,-1.3499391E-1,3.974963E-3,-9.997383E-2,3.225149E-2],"split_indices":[17,17,0,4,4,3,2,6,6,0,0,0,0,0,0,0,0],"split_type":[0,0,0,0,0,0,0,0,0,0,0,0,0,0,0,0,0],"sum_hessian":[3.2750664E3,2.5195583E3,7.555081E2,7.4815247E2,1.7714058E3,1.7956918E2,5.685833E2,1.0820292E3,6.893766E2,4.367891E1,1.3589027E2,4.9762268E2,7.096064E1,1.0051875E3,7.68417E1,3.896599E2,2.9971667E2],"tree_param":{"num_deleted":"0","num_feature":"31","num_nodes":"17","size_leaf_vector":"1"}},{"base_weights":[2.1070108E-2,-4.2708716E-1,1.5531777E-1,3.1874838E-1,-9.1166764E-1,-4.870523E-1,8.222404E-1,-4.7667077E-1,-1.2408358E0,-1.3309085E-1,2.4013763E-2,1.1195626E-1,-6.663193E-2,-1.08748436E-1,-7.019087E-3,-1.3792495E-1,-1.2368032E-2],"categories":[],"categories_nodes":[],"categories_segments":[],"categories_sizes":[],"default_left":[0,0,0,1,0,0,0,1,1,0,0,0,0,0,0,0,0],"id":4,"left_children":[1,3,-1,5,7,9,11,13,15,-1,-1,-1,-1,-1,-1,-1,-1],"loss_changes":[2.2357944E3,9.10819E2,0E0,4.0325E2,2.1811072E2,2.3501709E2,2.7137302E2,1.6368002E2,1.3417664E2,0E0,0E0,0E0,0E0,0E0,0E0,0E0,0E0],"parents":[2147483647,0,0,1,1,3,3,4,4,5,5,6,6,7,7,8,8],"right_children":[2,4,-1,6,8,10,12,14,16,-1,-1,-1,-1,-1,-1,-1,-1],"split_conditions":[1.3E1,3E0,1.5531777E-1,3.18E2,2E0,7.0545864E7,4.27E2,1E-3,1.406585E9,-1.3309085E-1,2.4013763E-2,1.1195626E-1,-6.663193E-2,-1.08748436E-1,-7.019087E-3,-1.3792495E-1,-1.2368032E-2],"split_indices":[17,17,0,5,30,24,12,7,24,0,0,0,0,0,0,0,0],"split_type":[0,0,0,0,0,0,0,0,0,0,0,0,0,0,0,0,0],"sum_hessian":[3.2542417E3,2.5183264E3,7.359153E2,9.91939E2,1.5263875E3,3.8146536E2,6.1047363E2,6.5855414E2,8.678333E2,1.7618454E2,2.0528084E2,5.090457E2,1.0142795E2,2.6246902E2,3.9608514E2,7.719549E2,9.587843E1],"tree_param":{"num_deleted":"0","num_feature":"31","num_nodes":"17","size_leaf_vector":"1"}},{"base_weights":[9.20176E-3,-3.9664105E-1,1.4722492E-1,1.5961562E-1,-8.852858E-1,-1.0059432E0,5.908141E-1,-4.6379307E-1,-1.2095568E0,-1.4055562E-1,-1.2029679E-2,8.672021E-2,-1.1487968E-1,-9.4736435E-2,1.900677E-2,-7.114567E-2,-1.3989745E-1],"categories":[],"categories_nodes":[],"categories_segments":[],"categories_sizes":[],"default_left":[0,0,0,1,0,0,0,1,0,0,0,0,0,0,0,0,0],"id":5,"left_children":[1,3,-1,5,7,9,11,13,15,-1,-1,-1,-1,-1,-1,-1,-1],"loss_changes":[1.8599995E3,6.667068E2,0E0,5.773932E2,1.7789172E2,1.0964792E2,4.0408997E2,1.8019843E2,6.856885E1,0E0,0E0,0E0,0E0,0E0,0E0,0E0,0E0],"parents":[2147483647,0,0,1,1,3,3,4,4,5,5,6,6,7,7,8,8],"right_children":[2,4,-1,6,8,10,12,14,16,-1,-1,-1,-1,-1,-1,-1,-1],"split_conditions":[1.3E1,4E0,1.4722492E-1,2.30136E1,2E0,7.0545864E7,2.021E3,5.01E2,1.2E1,-1.4055562E-1,-1.2029679E-2,8.672021E-2,-1.1487968E-1,-9.4736435E-2,1.900677E-2,-7.114567E-2,-1.3989745E-1],"split_indices":[17,17,0,4,30,24,2,5,20,0,0,0,0,0,0,0,0],"split_type":[0,0,0,0,0,0,0,0,0,0,0,0,0,0,0,0,0],"sum_hessian":[3.1305562E3,2.4513042E3,6.7925195E2,1.1466593E3,1.3046449E3,3.0929123E2,8.373681E2,5.6833905E2,7.363059E2,2.1272183E2,9.656939E1,7.2299994E2,1.1436816E2,3.2645563E2,2.418834E2,2.0416953E2,5.3213635E2],"tree_param":{"num_deleted":"0","num_feature":"31","num_nodes":"17","size_leaf_vector":"1"}},{"base_weights":[1.3546685E-2,-4.4047365E-1,2.8144237E-1,-1.886659E-1,-1.0025787E0,3.3928514E-1,-1.5930119E-1,4.9809754E-2,-9.3008655E-1,-4.820448E-2,-1.3652964E0,5.035628E-1,-2.8187332E-1,-1.5018614E-1,1.3023484E-2,1.4125972E-2,-1.08052395E-1,-1.21437244E-1,6.343619E-2,-1.426916E-1,-1.1292263E-1,5.532055E-2,-1.5124744E-1,-1.2720758E-1,1.9054245E-2],"categories":[],"categories_nodes":[],"categories_segments":[],"categories_sizes":[],"default_left":[1,0,0,0,0,0,0,1,0,0,0,0,0,0,0,0,0,0,0,0,0,0,0,0,0],"id":6,"left_children":[1,3,5,7,9,11,-1,13,15,17,19,21,23,-1,-1,-1,-1,-1,-1,-1,-1,-1,-1,-1,-1],"loss_changes":[3.701855E2,1.5967406E2,2.0807195E2,1.3817873E2,1.2081363E2,1.8969672E2,0E0,7.4081116E1,3.0804169E1,7.814166E1,2.0688171E0,1.479002E2,1.8229037E2,0E0,0E0,0E0,0E0,0E0,0E0,0E0,0E0,0E0,0E0,0E0,0E0],"parents":[2147483647,0,0,1,1,2,2,3,3,4,4,5,5,7,7,8,8,9,9,10,10,11,11,12,12],"right_children":[2,4,6,8,10,12,-1,14,16,18,20,22,24,-1,-1,-1,-1,-1,-1,-1,-1,-1,-1,-1,-1],"split_conditions":[1E-3,2.019E3,3.0352E2,2E0,2.3E1,1.7375E1,-1.5930119E-1,-3.7711E0,6E0,5E0,3.3E1,4.00616E1,8.52E2,-1.5018614E-1,1.3023484E-2,1.4125972E-2,-1.08052395E-1,-1.21437244E-1,6.343619E-2,-1.426916E-1,-1.1292263E-1,5.532055E-2,-1.5124744E-1,-1.2720758E-1,1.9054245E-2],"split_indices":[7,2,25,27,0,12,0,3,0,1,0,3,5,0,0,0,0,0,0,0,0,0,0,0,0],"split_type":[0,0,0,0,0,0,0,0,0,0,0,0,0,0,0,0,0,0,0,0,0,0,0,0,0],"sum_hessian":[3.0415166E3,1.1284368E3,1.9130798E3,7.802442E2,3.4819254E2,1.8566068E3,5.647303E1,5.9106335E2,1.8918086E2,9.620174E1,2.519908E2,1.4684384E3,3.881684E2,2.8255001E1,5.6280835E2,2.3301226E1,1.6587964E2,3.5230732E1,6.0971E1,1.9583026E2,5.616054E1,1.4338568E3,3.4581524E1,1.24829025E2,2.6333936E2],"tree_param":{"num_deleted":"0","num_feature":"31","num_nodes":"25","size_leaf_vector":"1"}},{"base_weights":[5.736504E-3,-3.8656968E-1,1.3922465E-1,3.4447673E-1,-6.9497514E-1,-3.628977E-1,8.272228E-1,-8.2707727E-1,1.7373982E-1,-1.1296746E-3,-1.2658428E-1,1.1159376E-1,-3.6463667E-2,-1.07956804E-1,-3.6948383E-2,4.948276E-2,-1.5099217E-1],"categories":[],"categories_nodes":[],"categories_segments":[],"categories_sizes":[],"default_left":[0,0,0,1,1,0,0,1,0,0,0,0,0,0,0,0,0],"id":7,"left_children":[1,3,-1,5,7,9,11,13,15,-1,-1,-1,-1,-1,-1,-1,-1],"loss_changes":[1.6379891E3,5.294444E2,0E0,2.383454E2,1.8962738E2,8.997621E1,1.4308698E2,1.6521045E2,1.190137E2,0E0,0E0,0E0,0E0,0E0,0E0,0E0,0E0],"parents":[2147483647,0,0,1,1,3,3,4,4,5,5,6,6,7,7,8,8],"right_children":[2,4,-1,6,8,10,12,14,16,-1,-1,-1,-1,-1,-1,-1,-1],"split_conditions":[1.3E1,2E0,1.3922465E-1,1.1E1,1.406585E9,2.017E3,1.13E2,9.71E2,2.018E3,-1.1296746E-3,-1.2658428E-1,1.1159376E-1,-3.6463667E-2,-1.07956804E-1,-3.6948383E-2,4.948276E-2,-1.5099217E-1],"split_indices":[17,17,0,6,24,2,9,5,2,0,0,0,0,0,0,0,0],"split_type":[0,0,0,0,0,0,0,0,0,0,0,0,0,0,0,0,0],"sum_hessian":[3.009372E3,2.346237E3,6.631351E2,6.96094E2,1.6501431E3,2.824558E2,4.1363815E2,1.4323752E3,2.177678E2,2.0402307E2,7.8432755E1,3.330292E2,8.060894E1,9.221773E2,5.101979E2,1.8348235E2,3.4285458E1],"tree_param":{"num_deleted":"0","num_feature":"31","num_nodes":"17","size_leaf_vector":"1"}},{"base_weights":[-2.6064152E-2,7.6572716E-2,-1.0497123E0,-2.2353001E-1,4.9238443E-1,-1.4342852E-1,-3.382982E-1,1.9204701E-1,-6.4582837E-1,7.2274184E-1,-5.407752E-1,-7.886555E-2,-1.4250876E-1,-3.8952332E-2,6.327187E-2,-1.5697224E-2,-1.2963371E-1,-1.1836852E-2,9.816639E-2,3.5434496E-2,-1.2070878E-1,4.8140965E-2,-5.4499578E-2],"categories":[],"categories_nodes":[],"categories_segments":[],"categories_sizes":[],"default_left":[0,0,1,0,0,0,0,0,0,0,0,1,0,0,0,0,0,0,0,0,0,0,0],"id":8,"left_children":[1,3,5,7,9,-1,11,13,15,17,19,21,-1,-1,-1,-1,-1,-1,-1,-1,-1,-1,-1],"loss_changes":[3.0200482E2,3.2614807E2,7.1180756E1,2.6656735E2,2.6112848E2,0E0,2.617183E1,1.9655014E2,2.393334E2,1.953027E2,1.1989708E2,2.0193346E1,0E0,0E0,0E0,0E0,0E0,0E0,0E0,0E0,0E0,0E0,0E0],"parents":[2147483647,0,0,1,1,2,2,3,3,4,4,6,6,7,7,8,8,9,9,10,10,11,11],"right_children":[2,4,6,8,10,-1,12,14,16,18,20,22,-1,-1,-1,-1,-1,-1,-1,-1,-1,-1,-1],"split_conditions":[2.7921E2,4.36969E1,9.06113E1,2.3E1,2.018E3,-1.4342852E-1,2.016E3,2.017E3,2.019E3,2.014E3,8.7E-3,2.2E1,-1.4250876E-1,-3.8952332E-2,6.327187E-2,-1.5697224E-2,-1.2963371E-1,-1.1836852E-2,9.816639E-2,3.5434496E-2,-1.2070878E-1,4.8140965E-2,-5.4499578E-2],"split_indices":[25,4,4,0,2,0,2,2,2,2,7,5,0,0,0,0,0,0,0,0,0,0,0],"split_type":[0,0,0,0,0,0,0,0,0,0,0,0,0,0,0,0,0,0,0,0,0,0,0],"sum_hessian":[2.8727183E3,2.611772E3,2.6094614E2,1.5172172E3,1.0945548E3,1.6872272E2,9.222342E1,7.649689E2,7.5224835E2,8.952474E2,1.9930751E2,7.5316765E1,1.6906654E1,3.298155E2,4.3515335E2,4.3019724E2,3.220511E2,2.1084814E2,6.8439923E2,8.52506E1,1.14056915E2,3.4189358E1,4.112741E1],"tree_param":{"num_deleted":"0","num_feature":"31","num_nodes":"23","size_leaf_vector":"1"}},{"base_weights":[1.1200188E-2,-1.2294532E0,9.333664E-2,-1.592171E-1,-1.3251112E0,2.7436584E-1,-3.4005722E-1,1.5698451E-1,-1.3320139E-1,-6.4522123E-1,-1.386214E0,-1.6189004E-1,5.5841136E-1,7.2320634E-1,-1.221466E0,-1.3346612E-1,3.7870638E-2,-9.827571E-2,-1.4225863E-1,1.0932298E-2,-8.666435E-2,6.2215067E-2,-1.5937708E-1,1.03648834E-1,-6.095138E-2,-6.8123415E-2,-1.268231E-1],"categories":[],"categories_nodes":[],"categories_segments":[],"categories_sizes":[],"default_left":[1,0,0,0,0,0,0,0,0,1,0,0,0,0,0,0,0,0,0,0,0,0,0,0,0,0,0],"id":9,"left_children":[1,3,5,7,9,11,13,-1,-1,15,17,19,21,23,25,-1,-1,-1,-1,-1,-1,-1,-1,-1,-1,-1,-1],"loss_changes":[2.9034293E2,1.7901276E1,2.0974347E2,3.3831013E1,5.8466187E0,2.3372432E2,7.3914355E2,0E0,0E0,1.1271912E1,7.739563E-1,1.4235402E2,1.5766852E2,1.4996613E2,1.0026855E1,0E0,0E0,0E0,0E0,0E0,0E0,0E0,0E0,0E0,0E0,0E0,0E0],"parents":[2147483647,0,0,1,1,2,2,3,3,4,4,5,5,6,6,9,9,10,10,11,11,12,12,13,13,14,14],"right_children":[2,4,6,8,10,12,14,-1,-1,16,18,20,22,24,26,-1,-1,-1,-1,-1,-1,-1,-1,-1,-1,-1,-1],"split_conditions":[-5.69471E1,2E0,2.021E3,-1.030132E2,3E0,2.015E3,6E0,1.5698451E-1,-1.3320139E-1,-6.69668E1,3E0,1.67E-1,2.7921E2,7.14E-1,-9.1158E0,-1.3346612E-1,3.7870638E-2,-9.827571E-2,-1.4225863E-1,1.0932298E-2,-8.666435E-2,6.2215067E-2,-1.5937708E-1,1.03648834E-1,-6.095138E-2,-6.8123415E-2,-1.268231E-1],"split_indices":[4,1,2,4,6,2,1,0,0,4,1,12,25,12,4,0,0,0,0,0,0,0,0,0,0,0,0],"split_type":[0,0,0,0,0,0,0,0,0,0,0,0,0,0,0,0,0,0,0,0,0,0,0,0,0,0,0],"sum_hessian":[2.8470862E3,1.7591779E2,2.6711685E3,1.4652113E1,1.6126567E2,1.8844133E3,7.86755E2,5.7848787E0,8.867234E0,1.4251323E1,1.4701434E2,7.4327405E2,1.1411393E3,3.5667242E2,4.300826E2,8.335391E0,5.915931E0,1.4474653E1,1.325397E2,5.373344E2,2.0593964E2,1.1090057E3,3.213352E1,2.889673E2,6.770514E1,3.5504086E1,3.9457852E2],"tree_param":{"num_deleted":"0","num_feature":"31","num_nodes":"27","size_leaf_vector":"1"}},{"base_weights":[2.2034701E-2,-3.364999E-1,1.3184053E-1,3.5687473E-1,-6.383182E-1,-2.8720963E-1,7.841541E-1,-9.26412E-1,-2.1223009E-1,-1.4342521E-1,-1.6133332E-3,-1.2355635E-1,8.920159E-2,-1.033566E-1,2.857176E-2,-7.815767E-2,4.425289E-2],"categories":[],"categories_nodes":[],"categories_segments":[],"categories_sizes":[],"default_left":[0,0,0,1,1,0,0,1,1,0,0,0,0,0,0,0,0],"id":10,"left_children":[1,3,-1,5,7,9,11,13,15,-1,-1,-1,-1,-1,-1,-1,-1],"loss_changes":[1.3071683E3,4.6128052E2,0E0,1.8427985E2,1.8826904E2,8.313949E1,8.8750885E1,1.1922937E2,2.3170732E2,0E0,0E0,0E0,0E0,0E0,0E0,0E0,0E0],"parents":[2147483647,0,0,1,1,3,3,4,4,5,5,6,6,7,7,8,8],"right_children":[2,4,-1,6,8,10,12,14,16,-1,-1,-1,-1,-1,-1,-1,-1],"split_conditions":[1.3E1,2E0,1.3184053E-1,1.1E1,2.3869E1,1E0,2.013E3,1.167E3,5E0,-1.4342521E-1,-1.6133332E-3,-1.2355635E-1,8.920159E-2,-1.033566E-1,2.857176E-2,-7.815767E-2,4.425289E-2],"split_indices":[17,17,0,20,3,27,2,20,20,0,0,0,0,0,0,0,0],"split_type":[0,0,0,0,0,0,0,0,0,0,0,0,0,0,0,0,0],"sum_hessian":[2.8104082E3,2.2021143E3,6.082939E2,6.677935E2,1.5343208E3,2.6645895E2,4.0133456E2,9.1469073E2,6.196301E2,5.011395E1,2.16345E2,1.98164E1,3.8151816E2,8.405337E2,7.415707E1,3.3132892E2,2.883012E2],"tree_param":{"num_deleted":"0","num_feature":"31","num_nodes":"17","size_leaf_vector":"1"}},{"base_weights":[1.8854574E-3,-3.2872143E-1,1.2809426E-1,3.0875885E-1,-6.055493E-1,5.263526E-1,-7.234643E-1,-2.3086536E-1,-9.2017037E-1,-7.8612156E-2,7.732027E-2,1.0699515E-2,-1.20608106E-1,-8.914694E-2,6.561795E-3,-1.1809795E-1,-5.1883735E-2],"categories":[],"categories_nodes":[],"categories_segments":[],"categories_sizes":[],"default_left":[0,0,0,0,0,0,0,0,1,0,0,0,0,0,0,0,0],"id":11,"left_children":[1,3,-1,5,7,9,11,13,15,-1,-1,-1,-1,-1,-1,-1,-1],"loss_changes":[1.1429098E3,3.7918964E2,0E0,1.4658002E2,1.7634686E2,1.7496654E2,4.5717693E1,1.3421227E2,8.456787E1,0E0,0E0,0E0,0E0,0E0,0E0,0E0,0E0],"parents":[2147483647,0,0,1,1,3,3,4,4,5,5,6,6,7,7,8,8],"right_children":[2,4,-1,6,8,10,12,14,16,-1,-1,-1,-1,-1,-1,-1,-1],"split_conditions":[1.3E1,2E0,1.2809426E-1,2.021E3,2E0,2.014E3,2E0,2.014E3,4.36969E1,-7.8612156E-2,7.732027E-2,1.0699515E-2,-1.20608106E-1,-8.914694E-2,6.561795E-3,-1.1809795E-1,-5.1883735E-2],"split_indices":[17,17,0,2,30,2,30,2,4,0,0,0,0,0,0,0,0],"split_type":[0,0,0,0,0,0,0,0,0,0,0,0,0,0,0,0,0],"sum_hessian":[2.7007805E3,2.146661E3,5.5411957E2,6.4991614E2,1.4967449E3,5.3717017E2,1.12745964E2,6.8395404E2,8.1279083E2,8.469132E1,4.5247885E2,4.1725456E1,7.102051E1,2.1125133E2,4.7270273E2,4.9146567E2,3.2132516E2],"tree_param":{"num_deleted":"0","num_feature":"31","num_nodes":"17","size_leaf_vector":"1"}},{"base_weights":[1.8118983E-2,-2.8635934E-1,1.2457557E-1,1.2721765E-1,-6.5580535E-1,-7.426936E-1,4.6084332E-1,-2.0569968E-1,-9.020956E-1,-1.0394903E-1,2.687633E-2,-3.5381325E-2,8.2703345E-2,-4.4583317E-2,5.3013057E-2,-1.0412004E-1,5.3423136E-2],"categories":[],"categories_nodes":[],"categories_segments":[],"categories_sizes":[],"default_left":[0,0,0,1,0,0,1,1,1,0,0,0,0,0,0,0,0],"id":12,"left_children":[1,3,-1,5,7,9,11,13,15,-1,-1,-1,-1,-1,-1,-1,-1],"loss_changes":[9.8247784E2,3.2188812E2,0E0,2.889857E2,1.2315097E2,8.3156876E1,2.1492574E2,6.999194E1,1.441731E2,0E0,0E0,0E0,0E0,0E0,0E0,0E0,0E0],"parents":[2147483647,0,0,1,1,3,3,4,4,5,5,6,6,7,7,8,8],"right_children":[2,4,-1,6,8,10,12,14,16,-1,-1,-1,-1,-1,-1,-1,-1],"split_conditions":[1.3E1,4E0,1.2457557E-1,2.30136E1,1.7E1,5E0,5E0,1.651E3,1.167E3,-1.0394903E-1,2.687633E-2,-3.5381325E-2,8.2703345E-2,-4.4583317E-2,5.3013057E-2,-1.0412004E-1,5.3423136E-2],"split_indices":[17,17,0,4,6,27,6,5,6,0,0,0,0,0,0,0,0],"split_type":[0,0,0,0,0,0,0,0,0,0,0,0,0,0,0,0,0],"sum_hessian":[2.6264763E3,2.1051292E3,5.2134717E2,9.935516E2,1.1115775E3,2.7507693E2,7.184747E2,3.937742E2,7.1780334E2,2.1265022E2,6.2426704E1,2.2281529E2,4.9565933E2,2.9718417E2,9.659003E1,6.546748E2,6.3128536E1],"tree_param":{"num_deleted":"0","num_feature":"31","num_nodes":"17","size_leaf_vector":"1"}},{"base_weights":[-8.0995625E-3,-2.8926367E-1,1.2171544E-1,-7.4963576E-1,1.6023971E-2,-1.1407714E0,-3.9912626E-1,-7.3794985E-1,3.1405398E-1,-7.9257146E-2,-1.2862043E-1,-1.7097143E-2,-1.21927015E-1,-2.0970827E-2,-1.12586856E-1,-7.6691285E-2,5.536107E-2],"categories":[],"categories_nodes":[],"categories_segments":[],"categories_sizes":[],"default_left":[0,1,0,1,1,0,0,0,0,0,0,0,0,0,0,0,0],"id":13,"left_children":[1,3,-1,5,7,9,11,13,15,-1,-1,-1,-1,-1,-1,-1,-1],"loss_changes":[8.608338E2,2.8565735E2,0E0,1.1064636E2,2.750504E2,1.8348328E1,8.005256E1,7.0823044E1,2.2758725E2,0E0,0E0,0E0,0E0,0E0,0E0,0E0,0E0],"parents":[2147483647,0,0,1,1,3,3,4,4,5,5,6,6,7,7,8,8],"right_children":[2,4,-1,6,8,10,12,14,16,-1,-1,-1,-1,-1,-1,-1,-1],"split_conditions":[1.3E1,4.1E-3,1.2171544E-1,1.2311E2,3.6973556E7,3E0,2.7921E2,2E0,2.014E3,-7.9257146E-2,-1.2862043E-1,-1.7097143E-2,-1.21927015E-1,-2.0970827E-2,-1.12586856E-1,-7.6691285E-2,5.536107E-2],"split_indices":[17,7,0,25,24,17,25,30,2,0,0,0,0,0,0,0,0],"split_type":[0,0,0,0,0,0,0,0,0,0,0,0,0,0,0,0,0],"sum_hessian":[2.4967883E3,2.0313988E3,4.653896E2,8.0938904E2,1.2220098E3,3.8146048E2,4.2792856E2,3.457741E2,8.762357E2,1.142851E2,2.6717535E2,3.3573837E2,9.2190186E1,1.4705927E2,1.9871483E2,1.5855893E2,7.1767676E2],"tree_param":{"num_deleted":"0","num_feature":"31","num_nodes":"17","size_leaf_vector":"1"}},{"base_weights":[-1.362888E-2,-2.873914E-1,1.1905056E-1,2.8555602E-1,-5.441766E-1,-6.183131E-1,4.896404E-1,1.0574739E-1,-7.0589936E-1,-1.01798885E-1,3.3664055E-2,6.476615E-2,-5.7775736E-2,-1.0030011E-1,4.958961E-2,-8.3622344E-2,1.4509339E-3],"categories":[],"categories_nodes":[],"categories_segments":[],"categories_sizes":[],"default_left":[0,0,0,0,0,0,0,0,1,0,0,0,0,0,0,0,0],"id":14,"left_children":[1,3,-1,5,7,9,11,13,15,-1,-1,-1,-1,-1,-1,-1,-1],"loss_changes":[8.027326E2,2.9205182E2,0E0,1.13687546E2,1.441081E2,4.3724693E1,8.504775E1,1.1898645E2,1.0304614E2,0E0,0E0,0E0,0E0,0E0,0E0,0E0,0E0],"parents":[2147483647,0,0,1,1,3,3,4,4,5,5,6,6,7,7,8,8],"right_children":[2,4,-1,6,8,10,12,14,16,-1,-1,-1,-1,-1,-1,-1,-1],"split_conditions":[1.3E1,2E0,1.1905056E-1,2.6571036E7,1.42E-2,1E0,2.021E3,3.01422E1,1.406585E9,-1.01798885E-1,3.3664055E-2,6.476615E-2,-5.7775736E-2,-1.0030011E-1,4.958961E-2,-8.3622344E-2,1.4509339E-3],"split_indices":[17,17,0,24,7,16,2,4,24,0,0,0,0,0,0,0,0],"split_type":[0,0,0,0,0,0,0,0,0,0,0,0,0,0,0,0,0],"sum_hessian":[2.433091E3,1.9830107E3,4.5008035E2,6.1366644E2,1.3693444E3,1.12663124E2,5.010033E2,2.7291452E2,1.0964299E3,7.937598E1,3.3287148E1,4.3674008E2,6.426321E1,7.062818E1,2.0228633E2,9.2833124E2,1.680986E2],"tree_param":{"num_deleted":"0","num_feature":"31","num_nodes":"17","size_leaf_vector":"1"}},{"base_weights":[1.233993E-2,7.968302E-2,-1.1688892E0,-5.37048E-1,1.8871094E-1,-1.2403582E0,-2.7120292E-1,7.5317174E-2,-1.0704194E0,5.359578E-1,-1.234567E-1,-3.8803887E-1,-1.3000767E-1,4.3519333E-2,-1.0897173E-1,5.8730673E-2,-1.1933936E-1,-1.19751506E-1,3.081351E-3,2.3544496E-2,8.955353E-2,-4.8374485E-2,3.4028728E-2,7.622497E-2,-1.1102455E-1],"categories":[],"categories_nodes":[],"categories_segments":[],"categories_sizes":[],"default_left":[0,0,1,0,0,0,0,0,0,1,1,0,0,0,0,0,0,0,0,0,0,0,0,0,0],"id":15,"left_children":[1,3,5,7,9,11,13,15,17,19,21,23,-1,-1,-1,-1,-1,-1,-1,-1,-1,-1,-1,-1,-1],"loss_changes":[1.8669087E2,1.493864E2,7.7848206E0,1.0910076E2,2.046554E2,5.4491425E0,6.611544E0,1.02241234E2,2.5015167E1,9.6356995E1,1.6636021E2,8.393092E0,0E0,0E0,0E0,0E0,0E0,0E0,0E0,0E0,0E0,0E0,0E0,0E0,0E0],"parents":[2147483647,0,0,1,1,2,2,3,3,4,4,5,5,6,6,7,7,8,8,9,9,10,10,11,11],"right_children":[2,4,6,8,10,12,14,16,18,20,22,24,-1,-1,-1,-1,-1,-1,-1,-1,-1,-1,-1,-1,-1],"split_conditions":[3.0352E2,2E0,-9.163E-1,2E0,3E0,8E0,-2.727E-1,2.6E1,3.6E1,5E0,2.027E-1,2.5E1,-1.3000767E-1,4.3519333E-2,-1.0897173E-1,5.8730673E-2,-1.1933936E-1,-1.19751506E-1,3.081351E-3,2.3544496E-2,8.955353E-2,-4.8374485E-2,3.4028728E-2,7.622497E-2,-1.1102455E-1],"split_indices":[25,29,23,30,29,0,23,28,0,20,7,28,0,0,0,0,0,0,0,0,0,0,0,0,0],"split_type":[0,0,0,0,0,0,0,0,0,0,0,0,0,0,0,0,0,0,0,0,0,0,0,0,0],"sum_hessian":[2.3447363E3,2.2191526E3,1.2558365E2,3.3278482E2,1.8863678E3,1.15969055E2,9.614589E0,1.5532013E2,1.7746469E2,8.926695E2,9.936983E2,8.084374E0,1.0788468E2,5.4121203E0,4.2024684E0,1.1104493E2,4.4275208E1,1.5902397E2,1.8440722E1,4.8717404E2,4.0549542E2,5.592035E2,4.3449484E2,3.0966947E0,4.98768E0],"tree_param":{"num_deleted":"0","num_feature":"31","num_nodes":"25","size_leaf_vector":"1"}},{"base_weights":[-1.5731438E-3,-2.4882802E-1,1.1679461E-1,1.076909E-1,-5.7822895E-1,3.1103706E-1,-7.969057E-1,-6.351531E-1,1.4075383E0,-7.5240664E-2,5.7237234E-2,-1.1326231E-1,8.879531E-3,-3.0913904E-2,-9.382605E-2,1.8343663E-1,-1.4619341E-1],"categories":[],"categories_nodes":[],"categories_segments":[],"categories_sizes":[],"default_left":[0,0,0,0,1,0,0,0,0,0,0,0,0,0,0,0,0],"id":16,"left_children":[1,3,-1,5,7,9,11,13,15,-1,-1,-1,-1,-1,-1,-1,-1],"loss_changes":[6.6766327E2,2.2389224E2,0E0,1.6876846E2,1.1289288E2,2.0851033E2,5.018081E1,9.495834E1,3.6879745E1,0E0,0E0,0E0,0E0,0E0,0E0,0E0,0E0],"parents":[2147483647,0,0,1,1,3,3,4,4,5,5,6,6,7,7,8,8],"right_children":[2,4,-1,6,8,10,12,14,16,-1,-1,-1,-1,-1,-1,-1,-1],"split_conditions":[1.3E1,4E0,1.1679461E-1,2.021E3,2E4,2.014E3,1.2057E5,2E0,3E1,-7.5240664E-2,5.7237234E-2,-1.1326231E-1,8.879531E-3,-3.0913904E-2,-9.382605E-2,1.8343663E-1,-1.4619341E-1],"split_indices":[17,17,0,2,6,2,22,30,0,0,0,0,0,0,0,0,0],"split_type":[0,0,0,0,0,0,0,0,0,0,0,0,0,0,0,0,0],"sum_hessian":[2.3068958E3,1.904947E3,4.019487E2,9.151405E2,9.898065E2,7.47716E2,1.6742448E2,9.628846E2,2.6921965E1,1.4712906E2,6.00587E2,1.21204254E2,4.6220226E1,4.6488583E2,4.9799875E2,2.374994E1,3.1720238E0],"tree_param":{"num_deleted":"0","num_feature":"31","num_nodes":"17","size_leaf_vector":"1"}},{"base_weights":[9.5653655E-3,1.7245759E-1,-3.8555345E-1,-6.273526E-1,2.630274E-1,-5.033419E-2,-6.9209987E-1,3.5836893E-1,-9.434218E-1,3.2420343E-1,-6.8225217E-1,-1.3292164E-1,1.5086935E-1,-3.2851496E-1,-1.0412216E0,-8.714162E-2,1.4732221E-1,-5.7228144E-2,-1.3030636E-1,7.37233E-2,2.0169428E-2,-1.20020226E-1,2.4536548E-2,-6.117135E-2,3.436608E-2,-1.333081E-1,-7.0805447E-3,-1.106918E-1,2.0283269E-2],"categories":[],"categories_nodes":[],"categories_segments":[],"categories_sizes":[],"default_left":[0,0,0,0,0,0,0,0,0,0,0,0,1,1,0,0,0,0,0,0,0,0,0,0,0,0,0,0,0],"id":17,"left_children":[1,3,5,7,9,11,13,15,17,19,21,-1,23,25,27,-1,-1,-1,-1,-1,-1,-1,-1,-1,-1,-1,-1,-1,-1],"loss_changes":[1.4266301E2,1.1385633E2,6.645741E1,5.0169632E1,8.1790535E1,8.000818E1,4.2550323E1,5.5519558E1,1.5456535E1,6.6920456E1,4.1642784E1,0E0,3.9742302E1,4.3135963E1,1.427565E1,0E0,0E0,0E0,0E0,0E0,0E0,0E0,0E0,0E0,0E0,0E0,0E0,0E0,0E0],"parents":[2147483647,0,0,1,1,2,2,3,3,4,4,5,5,6,6,7,7,8,8,9,9,10,10,12,12,13,13,14,14],"right_children":[2,4,6,8,10,12,14,16,18,20,22,-1,24,26,28,-1,-1,-1,-1,-1,-1,-1,-1,-1,-1,-1,-1,-1,-1],"split_conditions":[2.347E3,2E0,6E0,-6.219E0,2.7921E2,2.007E3,2.016E3,3.9E1,1.25E-1,1.39E-2,1.34E2,-1.3292164E-1,-1.45915E1,-1.8504E0,4.6E1,-8.714162E-2,1.4732221E-1,-5.7228144E-2,-1.3030636E-1,7.37233E-2,2.0169428E-2,-1.20020226E-1,2.4536548E-2,-6.117135E-2,3.436608E-2,-1.333081E-1,-7.0805447E-3,-1.106918E-1,2.0283269E-2],"split_indices":[19,29,1,3,25,2,2,0,12,7,26,0,4,4,0,0,0,0,0,0,0,0,0,0,0,0,0,0,0],"split_type":[0,0,0,0,0,0,0,0,0,0,0,0,0,0,0,0,0,0,0,0,0,0,0,0,0,0,0,0,0],"sum_hessian":[2.2145464E3,1.5684843E3,6.4606195E2,1.5894398E2,1.4095403E3,3.091547E2,3.369073E2,3.855842E1,1.2038556E2,1.3244805E3,8.505989E1,4.1264503E1,2.6789017E2,1.6598595E2,1.7092134E2,1.8437988E1,2.0120432E1,6.0520916E1,5.9864647E1,3.0183862E2,1.02264185E3,5.4394184E1,3.0665707E1,5.362088E1,2.142693E2,3.30362E1,1.3294975E2,1.6245271E2,8.468625E0],"tree_param":{"num_deleted":"0","num_feature":"31","num_nodes":"29","size_leaf_vector":"1"}},{"base_weights":[2.8703863E-2,-1.8828979E-1,1.14710145E-1,1.5768045E-1,-5.1575404E-1,-4.9166274E-1,4.0297684E-1,-1.5886778E-1,-7.2941756E-1,-7.2087936E-2,5.599417E-2,5.979876E-2,-6.365806E-2,-4.163547E-2,4.0877428E-2,-8.6573966E-2,4.8906736E-2],"categories":[],"categories_nodes":[],"categories_segments":[],"categories_sizes":[],"default_left":[0,0,0,0,0,1,1,0,1,0,0,0,0,0,0,0,0],"id":18,"left_children":[1,3,-1,5,7,9,11,13,15,-1,-1,-1,-1,-1,-1,-1,-1],"loss_changes":[5.38941E2,2.1080574E2,0E0,1.4438103E2,7.2766464E1,6.033821E1,1.3368512E2,5.267233E1,9.968527E1,0E0,0E0,0E0,0E0,0E0,0E0,0E0,0E0],"parents":[2147483647,0,0,1,1,3,3,4,4,5,5,6,6,7,7,8,8],"right_children":[2,4,-1,6,8,10,12,14,16,-1,-1,-1,-1,-1,-1,-1,-1],"split_conditions":[1.3E1,4E0,1.14710145E-1,3.6973556E7,1.7E1,-9.163E-1,1.5637E2,1.633E3,1.167E3,-7.2087936E-2,5.599417E-2,5.979876E-2,-6.365806E-2,-4.163547E-2,4.0877428E-2,-8.6573966E-2,4.8906736E-2],"split_indices":[17,17,0,24,20,23,25,5,20,0,0,0,0,0,0,0,0],"split_type":[0,0,0,0,0,0,0,0,0,0,0,0,0,0,0,0,0],"sum_hessian":[2.2188513E3,1.8589968E3,3.5985452E2,9.0420795E2,9.5478894E2,2.476445E2,6.565634E2,3.58209E2,5.965799E2,2.0358409E2,4.4060413E1,5.5321124E2,1.033522E2,2.4661089E2,1.1159813E2,5.3681177E2,5.9768127E1],"tree_param":{"num_deleted":"0","num_feature":"31","num_nodes":"17","size_leaf_vector":"1"}},{"base_weights":[4.2279385E-2,-5.2787983E-1,1.4124297E-1,4.1832903E-4,-1.012255E0,4.387987E-1,-1.22886926E-1,-1.1947669E0,4.2324018E-1,-1.0906304E0,-1.5212372E-1,1.6025256E-1,8.045031E-1,-4.447374E-1,2.949928E-1,6.1868407E-2,-1.3640437E-1,9.984912E-2,-8.538302E-2,-5.6231648E-2,-1.1262939E-1,1.19804814E-1,-1.4207403E-1,2.437435E-2,-4.7891803E-2,9.633446E-2,-2.6665611E-2,-9.990465E-3,-7.483791E-2,6.924219E-2,-1.8103821E-2],"categories":[],"categories_nodes":[],"categories_segments":[],"categories_sizes":[],"default_left":[0,0,0,0,0,1,1,0,0,0,0,0,0,0,0,0,0,0,0,0,0,0,0,0,0,0,0,0,0,0,0],"id":19,"left_children":[1,3,5,7,9,11,13,15,17,19,21,23,25,27,29,-1,-1,-1,-1,-1,-1,-1,-1,-1,-1,-1,-1,-1,-1,-1,-1],"loss_changes":[1.20443436E2,8.079154E1,1.4297864E2,7.732546E1,1.0937561E1,8.7004395E1,1.298055E2,1.3118614E1,8.388617E1,2.207779E0,2.7252623E1,2.6094624E1,6.313861E1,5.6996048E1,7.9603195E1,0E0,0E0,0E0,0E0,0E0,0E0,0E0,0E0,0E0,0E0,0E0,0E0,0E0,0E0,0E0,0E0],"parents":[2147483647,0,0,1,1,2,2,3,3,4,4,5,5,6,6,7,7,8,8,9,9,10,10,11,11,12,12,13,13,14,14],"right_children":[2,4,6,8,10,12,14,16,18,20,22,24,26,28,30,-1,-1,-1,-1,-1,-1,-1,-1,-1,-1,-1,-1,-1,-1,-1,-1],"split_conditions":[2E0,2E0,3E0,2.015E3,5E1,5E0,2.027E-1,3E0,2.6E1,2.6E-3,2.63E1,2.021E3,2.018E3,2.2E1,5.3E1,6.1868407E-2,-1.3640437E-1,9.984912E-2,-8.538302E-2,-5.6231648E-2,-1.1262939E-1,1.19804814E-1,-1.4207403E-1,2.437435E-2,-4.7891803E-2,9.633446E-2,-2.6665611E-2,-9.990465E-3,-7.483791E-2,6.924219E-2,-1.8103821E-2],"split_indices":[29,30,29,2,0,6,7,6,28,7,25,2,2,0,26,0,0,0,0,0,0,0,0,0,0,0,0,0,0,0,0],"split_type":[0,0,0,0,0,0,0,0,0,0,0,0,0,0,0,0,0,0,0,0,0,0,0,0,0,0,0,0,0,0,0],"sum_hessian":[2.1322544E3,3.1472046E2,1.8175339E3,1.510129E2,1.6370757E2,8.543754E2,9.6315857E2,3.898599E1,1.120269E2,1.497906E2,1.3916953E1,4.8579675E2,3.6857867E2,5.4405994E2,4.1909857E2,3.101795E0,3.5884193E1,7.738658E1,3.4640324E1,1.0532379E1,1.3925822E2,6.76872E0,7.148233E0,4.3021857E2,5.5578175E1,3.2106833E2,4.751034E1,2.5537294E2,2.88687E2,2.2815874E2,1.9093985E2],"tree_param":{"num_deleted":"0","num_feature":"31","num_nodes":"31","size_leaf_vector":"1"}},{"base_weights":[8.885128E-3,-2.0056842E-1,1.1305397E-1,7.0603624E-2,-5.462212E-1,-5.35789E-1,3.1786665E-1,-1.9992207E-1,-9.01994E-1,-1.0304816E-1,-1.4141283E-2,4.975292E-2,-7.499701E-2,-3.7392482E-2,1.175397E-1,-9.310389E-2,1.2973583E-1],"categories":[],"categories_nodes":[],"categories_segments":[],"categories_sizes":[],"default_left":[0,0,0,1,0,1,0,1,1,0,0,0,0,0,0,0,0],"id":20,"left_children":[1,3,-1,5,7,9,11,13,15,-1,-1,-1,-1,-1,-1,-1,-1],"loss_changes":[4.8260138E2,1.6228738E2,0E0,1.4574443E2,9.359079E1,5.4791702E1,1.3280722E2,9.304567E1,2.5171356E1,0E0,0E0,0E0,0E0,0E0,0E0,0E0,0E0],"parents":[2147483647,0,0,1,1,3,3,4,4,5,5,6,6,7,7,8,8],"right_children":[2,4,-1,6,8,10,12,14,16,-1,-1,-1,-1,-1,-1,-1,-1],"split_conditions":[1.3E1,5E0,1.1305397E-1,3.6973556E7,2E0,3.35E2,2.021E3,4.83E2,2.975E2,-1.0304816E-1,-1.4141283E-2,4.975292E-2,-7.499701E-2,-3.7392482E-2,1.175397E-1,-9.310389E-2,1.2973583E-1],"split_indices":[17,17,0,24,30,5,2,6,23,0,0,0,0,0,0,0,0],"split_type":[0,0,0,0,0,0,0,0,0,0,0,0,0,0,0,0,0],"sum_hessian":[2.0522302E3,1.7299979E3,3.2223215E2,9.6989233E2,7.6010565E2,2.805932E2,6.8929913E2,3.859727E2,3.7413297E2,1.2375103E2,1.5684218E2,5.904847E2,9.881444E1,3.4327084E2,4.270186E1,3.6982568E2,4.307288E0],"tree_param":{"num_deleted":"0","num_feature":"31","num_nodes":"17","size_leaf_vector":"1"}},{"base_weights":[-1.7282492E-2,-2.1555054E-1,1.1167212E-1,4.1812357E-1,-3.6864123E-1,5.1025766E-1,-1.1453134E-1,-7.744427E-1,-1.7539504E-1,-9.160414E-4,7.8438066E-2,-8.950599E-2,2.173818E-2,9.729414E-2,-3.1771567E-2],"categories":[],"categories_nodes":[],"categories_segments":[],"categories_sizes":[],"default_left":[0,0,0,0,0,1,0,1,0,0,0,0,0,0,0],"id":21,"left_children":[1,3,-1,5,7,9,-1,11,13,-1,-1,-1,-1,-1,-1],"loss_changes":[4.4811084E2,1.6471854E2,0E0,4.8199184E1,1.07049576E2,4.4552048E1,0E0,5.290741E1,1.5184178E2,0E0,0E0,0E0,0E0,0E0,0E0],"parents":[2147483647,0,0,1,1,3,3,4,4,5,5,7,7,8,8],"right_children":[2,4,-1,6,8,10,-1,12,14,-1,-1,-1,-1,-1,-1],"split_conditions":[1.3E1,1E0,1.1167212E-1,1.98457E5,7.4E1,3.18E2,-1.1453134E-1,6E-1,7.7E1,-9.160414E-4,7.8438066E-2,-8.950599E-2,2.173818E-2,9.729414E-2,-3.1771567E-2],"split_indices":[17,17,0,22,28,5,0,7,28,0,0,0,0,0,0],"split_type":[0,0,0,0,0,0,0,0,0,0,0,0,0,0,0],"sum_hessian":[1.9909797E3,1.6953724E3,2.956073E2,3.29553E2,1.3658195E3,3.118492E2,1.770379E1,4.3962814E2,9.261913E2,1.08059944E2,2.0378926E2,3.9204816E2,4.7579975E1,1.0148745E2,8.2470386E2],"tree_param":{"num_deleted":"0","num_feature":"31","num_nodes":"15","size_leaf_vector":"1"}},{"base_weights":[-1.9090392E-2,-2.0510381E-1,1.1034273E-1,-7.572827E-1,-3.3072356E-2,-9.3362206E-1,-1.877164E-1,2.4848509E-1,-6.4385164E-1,-1.0268598E-1,2.3296422E-4,-8.282241E-2,6.4875245E-2,-3.5479475E-2,4.5139488E-2,-1.0241666E-1,-2.463133E-2],"categories":[],"categories_nodes":[],"categories_segments":[],"categories_sizes":[],"default_left":[0,0,0,0,0,1,0,1,0,0,0,0,0,0,0,0,0],"id":22,"left_children":[1,3,-1,5,7,9,11,13,15,-1,-1,-1,-1,-1,-1,-1,-1],"loss_changes":[4.0122595E2,1.5655109E2,0E0,3.9145706E1,2.1646448E2,2.6068115E1,5.0795155E1,1.0563657E2,5.9793106E1,0E0,0E0,0E0,0E0,0E0,0E0,0E0,0E0],"parents":[2147483647,0,0,1,1,3,3,4,4,5,5,6,6,7,7,8,8],"right_children":[2,4,-1,6,8,10,12,14,16,-1,-1,-1,-1,-1,-1,-1,-1],"split_conditions":[1.3E1,5.3E1,1.1034273E-1,1.22E2,1.19E2,4.20565E1,5.82E2,2.30136E1,1.78E2,-1.0268598E-1,2.3296422E-4,-8.282241E-2,6.4875245E-2,-3.5479475E-2,4.5139488E-2,-1.0241666E-1,-2.463133E-2],"split_indices":[17,28,0,26,28,3,5,4,28,0,0,0,0,0,0,0,0],"split_type":[0,0,0,0,0,0,0,0,0,0,0,0,0,0,0,0,0],"sum_hessian":[1.9194657E3,1.6473064E3,2.7215936E2,3.9049878E2,1.2568076E3,2.97693E2,9.280579E1,8.606553E2,3.9615228E2,2.7063568E2,2.7057322E1,5.2565086E1,4.0240707E1,2.1642986E2,6.442254E2,2.016564E2,1.9449588E2],"tree_param":{"num_deleted":"0","num_feature":"31","num_nodes":"17","size_leaf_vector":"1"}},{"base_weights":[3.0681785E-2,8.111086E-2,-1.0046836E0,-1.1657257E0,1.16443306E-1,-5.0134444E-1,-1.1535695E0,-1.2167517E-1,-6.155926E-2,-4.1447738E-1,1.967931E-1,-1.1917175E-1,1.1131853E-1,-1.1810607E-1,-4.717609E-2,4.3894257E-3,-8.8939704E-2,4.3293554E-2,-2.1640032E-3,6.782352E-2,-9.7306326E-2],"categories":[],"categories_nodes":[],"categories_segments":[],"categories_sizes":[],"default_left":[0,0,0,1,0,0,1,0,0,0,0,0,0,0,0,0,0,0,0,0,0],"id":23,"left_children":[1,3,5,7,9,11,13,-1,-1,15,17,-1,19,-1,-1,-1,-1,-1,-1,-1,-1],"loss_changes":[9.8975105E1,7.974167E1,6.019623E0,6.513443E-1,7.508228E1,9.381491E0,7.0197296E-1,0E0,0E0,5.0417496E1,7.881053E1,0E0,8.3443365E0,0E0,0E0,0E0,0E0,0E0,0E0,0E0,0E0],"parents":[2147483647,0,0,1,1,2,2,3,3,4,4,5,5,6,6,9,9,10,10,12,12],"right_children":[2,4,6,8,10,12,14,-1,-1,16,18,-1,20,-1,-1,-1,-1,-1,-1,-1,-1],"split_conditions":[3.0352E2,1.648E1,1.4E1,1.879E3,2E0,1.0144E4,-2.736E-1,-1.2167517E-1,-6.155926E-2,2E0,3E0,-1.1917175E-1,1.17E2,-1.1810607E-1,-4.717609E-2,4.3894257E-3,-8.8939704E-2,4.3293554E-2,-2.1640032E-3,6.782352E-2,-9.7306326E-2],"split_indices":[25,25,0,6,29,19,23,0,0,30,29,0,28,0,0,0,0,0,0,0,0],"split_type":[0,0,0,0,0,0,0,0,0,0,0,0,0,0,0,0,0,0,0,0,0],"sum_hessian":[1.8930598E3,1.8060166E3,8.704317E1,4.888638E1,1.7571302E3,2.0866606E1,6.617656E1,4.3628044E1,5.258335E0,2.3042323E2,1.526707E3,9.366696E0,1.1499909E1,6.29078E1,3.2687583E0,1.1771625E2,1.1270698E2,7.3314294E2,7.93564E2,7.7977657E0,3.702144E0],"tree_param":{"num_deleted":"0","num_feature":"31","num_nodes":"21","size_leaf_vector":"1"}},{"base_weights":[2.5743704E-2,-1.44362E-1,1.09153025E-1,-5.051696E-1,8.625085E-2,-8.6553985E-1,-2.0881239E-1,-1.2529878E-1,1.9724712E-1,-9.7060966E-4,-1.0398529E-1,-9.543418E-3,-1.1936849E-1,5.0303828E-2,-1.8805098E-2],"categories":[],"categories_nodes":[],"categories_segments":[],"categories_sizes":[],"default_left":[0,1,0,1,1,0,0,0,0,0,0,0,0,0,0],"id":24,"left_children":[1,3,-1,5,7,9,11,-1,13,-1,-1,-1,-1,-1,-1],"loss_changes":[3.432013E2,1.3588873E2,0E0,6.782353E1,1.4843172E2,4.2809265E1,3.9049458E1,0E0,1.0865849E2,0E0,0E0,0E0,0E0,0E0,0E0],"parents":[2147483647,0,0,1,1,3,3,4,4,5,5,6,6,8,8],"right_children":[2,4,-1,6,8,10,12,-1,14,-1,-1,-1,-1,-1,-1],"split_conditions":[1.3E1,4.1E-3,1.09153025E-1,1.2923E2,1.5099727E7,3E0,3.0352E2,-1.2529878E-1,7.821E1,-9.7060966E-4,-1.0398529E-1,-9.543418E-3,-1.1936849E-1,5.0303828E-2,-1.8805098E-2],"split_indices":[17,7,0,25,24,1,25,0,25,0,0,0,0,0,0],"split_type":[0,0,0,0,0,0,0,0,0,0,0,0,0,0,0],"sum_hessian":[1.891171E3,1.6316196E3,2.5955142E2,6.35754E2,9.9586566E2,2.8602594E2,3.4972806E2,7.543287E1,9.2043274E2,4.85776E1,2.3744833E2,3.1460745E2,3.5120613E1,5.12992E2,4.0744077E2],"tree_param":{"num_deleted":"0","num_feature":"31","num_nodes":"15","size_leaf_vector":"1"}},{"base_weights":[-1.0442393E-2,-5.175417E-1,7.03094E-2,-2.8417991E-2,-1.0174098E0,3.1572062E-1,-1.5497075E-1,-1.1120627E0,3.9100164E-1,-7.898108E-1,-1.1081316E0,8.682496E-2,6.7458355E-1,-3.3085343E-1,6.0936624E-1,-2.264968E-3,-1.2271743E-1,-8.1521004E-2,8.998752E-2,-1.0095389E-1,-2.597419E-2,-1.1655134E-1,-7.672755E-2,1.7255275E-2,-8.60537E-2,-1.2239541E-1,7.933255E-2,-8.9492485E-2,-1.9810071E-2,7.232801E-2,-1.4578024E-1],"categories":[],"categories_nodes":[],"categories_segments":[],"categories_sizes":[],"default_left":[0,0,0,0,0,1,1,0,0,1,1,0,0,1,0,0,0,0,0,0,0,0,0,0,0,0,0,0,0,0,0],"id":25,"left_children":[1,3,5,7,9,11,13,15,17,19,21,23,25,27,29,-1,-1,-1,-1,-1,-1,-1,-1,-1,-1,-1,-1,-1,-1,-1,-1],"loss_changes":[7.424444E1,6.086493E1,8.652448E1,5.8115772E1,1.6675415E0,6.1461937E1,1.09925E2,4.445812E0,5.7349327E1,4.2310314E0,7.7936554E-1,3.73799E1,6.669072E1,4.9556137E1,3.7090466E1,0E0,0E0,0E0,0E0,0E0,0E0,0E0,0E0,0E0,0E0,0E0,0E0,0E0,0E0,0E0,0E0],"parents":[2147483647,0,0,1,1,2,2,3,3,4,4,5,5,6,6,7,7,8,8,9,9,10,10,11,11,12,12,13,13,14,14],"right_children":[2,4,6,8,10,12,14,16,18,20,22,24,26,28,30,-1,-1,-1,-1,-1,-1,-1,-1,-1,-1,-1,-1,-1,-1,-1,-1],"split_conditions":[2E0,2E0,3E0,2.015E3,2.2E1,6E0,2.8E2,6E0,1.9E1,1.725E3,2.6138E2,3.72023E1,2.38354E1,1.5099727E7,2.4425E2,-2.264968E-3,-1.2271743E-1,-8.1521004E-2,8.998752E-2,-1.0095389E-1,-2.597419E-2,-1.1655134E-1,-7.672755E-2,1.7255275E-2,-8.60537E-2,-1.2239541E-1,7.933255E-2,-8.9492485E-2,-1.9810071E-2,7.232801E-2,-1.4578024E-1],"split_indices":[29,30,29,2,6,6,6,6,0,5,25,3,3,24,11,0,0,0,0,0,0,0,0,0,0,0,0,0,0,0,0],"split_type":[0,0,0,0,0,0,0,0,0,0,0,0,0,0,0,0,0,0,0,0,0,0,0,0,0,0,0,0,0,0,0],"sum_hessian":[1.8111989E3,2.4805731E2,1.5631415E3,1.2591026E2,1.2214705E2,7.479515E2,8.1519006E2,3.467356E1,9.12367E1,3.7578278E1,8.456877E1,4.5742883E2,2.905226E2,6.631571E2,1.520329E2,3.4279854E0,3.1245577E1,2.6891727E1,6.434498E1,2.592649E1,1.1651785E1,7.0312584E1,1.4256182E1,4.202205E2,3.7208344E1,1.6552996E1,2.739696E2,1.25244995E2,5.379121E2,1.4470866E2,7.3242393E0],"tree_param":{"num_deleted":"0","num_feature":"31","num_nodes":"31","size_leaf_vector":"1"}},{"base_weights":[-1.6844658E-2,-1.6965556E-1,1.0822008E-1,7.366313E-2,-4.7870836E-1,2.529934E-1,-5.576489E-1,-1.0588985E-1,-9.4757617E-1,-6.2838994E-2,5.0922584E-2,-8.884128E-2,3.7077796E-2,-3.620406E-2,7.05256E-2,-1.00732684E-1,1.16499044E-1],"categories":[],"categories_nodes":[],"categories_segments":[],"categories_sizes":[],"default_left":[0,0,0,0,0,0,1,1,1,0,0,0,0,0,0,0,0],"id":26,"left_children":[1,3,-1,5,7,9,11,13,15,-1,-1,-1,-1,-1,-1,-1,-1],"loss_changes":[2.9536453E2,1.1613489E2,0E0,9.803536E1,1.1880463E2,1.5255577E2,5.9167374E1,7.922042E1,3.9189972E1,0E0,0E0,0E0,0E0,0E0,0E0,0E0,0E0],"parents":[2147483647,0,0,1,1,3,3,4,4,5,5,6,6,7,7,8,8],"right_children":[2,4,-1,6,8,10,12,14,16,-1,-1,-1,-1,-1,-1,-1,-1],"split_conditions":[1.3E1,5E0,1.0822008E-1,2.019E3,2E0,2.014E3,4.286E-1,2.974E-1,2E4,-6.2838994E-2,5.0922584E-2,-8.884128E-2,3.7077796E-2,-3.620406E-2,7.05256E-2,-1.00732684E-1,1.16499044E-1],"split_indices":[17,17,0,2,30,2,7,7,6,0,0,0,0,0,0,0,0],"split_type":[0,0,0,0,0,0,0,0,0,0,0,0,0,0,0,0,0],"sum_hessian":[1.7565929E3,1.5429125E3,2.1368039E2,8.6368835E2,6.792242E2,6.730899E2,1.9059842E2,3.790499E2,3.001743E2,1.512772E2,5.2181274E2,1.4056386E2,5.003456E1,2.8849887E2,9.0551025E1,2.924266E2,7.7476673E0],"tree_param":{"num_deleted":"0","num_feature":"31","num_nodes":"17","size_leaf_vector":"1"}},{"base_weights":[-8.1021E-4,-1.4738874E-1,1.07220665E-1,-4.268164E-1,3.364091E-2,-1.4647253E-1,-7.678513E-1,1.2200784E-1,-1.0091879E0,4.128616E-3,-1.1109493E-1,-9.6131966E-2,-2.9358675E-3,2.1150555E-2,-7.749504E-2,-1.2975441E-1,2.2613948E-2],"categories":[],"categories_nodes":[],"categories_segments":[],"categories_sizes":[],"default_left":[0,1,0,0,0,1,0,0,0,0,0,0,0,0,0,0,0],"id":27,"left_children":[1,3,-1,5,7,9,11,13,15,-1,-1,-1,-1,-1,-1,-1,-1],"loss_changes":[2.723724E2,7.708602E1,0E0,5.7164337E1,8.5412254E1,5.9811604E1,3.855519E1,6.872916E1,2.6086395E1,0E0,0E0,0E0,0E0,0E0,0E0,0E0,0E0],"parents":[2147483647,0,0,1,1,3,3,4,4,5,5,6,6,7,7,8,8],"right_children":[2,4,-1,6,8,10,12,14,16,-1,-1,-1,-1,-1,-1,-1,-1],"split_conditions":[1.3E1,4.1E-3,1.07220665E-1,5E0,1.25E2,1.594E3,1E0,2.2033E2,4.2E1,4.128616E-3,-1.1109493E-1,-9.6131966E-2,-2.9358675E-3,2.1150555E-2,-7.749504E-2,-1.2975441E-1,2.2613948E-2],"split_indices":[17,7,0,17,26,5,21,25,0,0,0,0,0,0,0,0,0],"split_type":[0,0,0,0,0,0,0,0,0,0,0,0,0,0,0,0,0],"sum_hessian":[1.7297494E3,1.5226163E3,2.0713304E2,5.9808563E2,9.245307E2,3.2903537E2,2.690503E2,8.5312213E2,7.140861E1,2.7621973E2,5.2815643E1,2.1295831E2,5.609197E1,7.764162E2,7.6705925E1,5.7853745E1,1.3554862E1],"tree_param":{"num_deleted":"0","num_feature":"31","num_nodes":"17","size_leaf_vector":"1"}},{"base_weights":[-1.4887605E-3,2.2747648E-1,-1.6046566E-1,-1.12273745E-1,3.043079E-1,-8.110616E-1,-6.160669E-2,2.2897713E-1,1.5549392E0,-5.5008805E-1,-1.2186861E-1,5.0975E-2,-4.9500665E-1,-2.9256647E-2,4.2733893E-2,-8.692103E-2,2.3443842E-1,-1.8309053E-2,-1.0756443E-1,-3.4297016E-2,2.0011768E-2,-2.0490084E-2,-1.2375148E-1],"categories":[],"categories_nodes":[],"categories_segments":[],"categories_sizes":[],"default_left":[0,0,1,0,0,0,0,1,0,0,0,0,0,0,0,0,0,0,0,0,0,0,0],"id":28,"left_children":[1,3,5,-1,7,9,11,13,15,17,-1,19,21,-1,-1,-1,-1,-1,-1,-1,-1,-1,-1],"loss_changes":[6.0870815E1,7.143282E1,6.3429474E1,0E0,6.0803944E1,1.31703415E1,4.1883034E1,6.3591385E1,7.228838E1,1.5454199E1,0E0,4.013188E1,3.787024E1,0E0,0E0,0E0,0E0,0E0,0E0,0E0,0E0,0E0,0E0],"parents":[2147483647,0,0,1,1,2,2,4,4,5,5,6,6,7,7,8,8,9,9,11,11,12,12],"right_children":[2,4,6,-1,8,10,12,14,16,18,-1,20,22,-1,-1,-1,-1,-1,-1,-1,-1,-1,-1],"split_conditions":[6.463E1,1.648E1,3.9929E0,-1.12273745E-1,6.278E1,1.25E-1,1.0571E1,2.5E2,1.8E1,6E0,-1.2186861E-1,1.4341E2,8.349125E7,-2.9256647E-2,4.2733893E-2,-8.692103E-2,2.3443842E-1,-1.8309053E-2,-1.0756443E-1,-3.4297016E-2,2.0011768E-2,-2.0490084E-2,-1.2375148E-1],"split_indices":[25,25,4,0,25,12,12,5,0,1,0,25,24,0,0,0,0,0,0,0,0,0,0],"split_type":[0,0,0,0,0,0,0,0,0,0,0,0,0,0,0,0,0,0,0,0,0,0,0],"sum_hessian":[1.6702639E3,6.8428986E2,9.8597406E2,3.6108906E1,6.481809E2,1.2910739E2,8.5686664E2,6.124722E2,3.5708683E1,8.0145386E1,4.8962006E1,6.8088074E2,1.759859E2,1.6862895E2,4.438433E2,8.7473E0,2.6961382E1,4.7985405E1,3.215998E1,1.8662645E2,4.942543E2,1.2746134E2,4.852455E1],"tree_param":{"num_deleted":"0","num_feature":"31","num_nodes":"23","size_leaf_vector":"1"}},{"base_weights":[-1.3013833E-2,-1.4759761E-1,1.06436744E-1,-5.870822E-1,-2.6993413E-2,4.8361838E-2,-8.900784E-1,1.7899123E-1,-3.9217412E-1,-5.6718417E-2,1.8205374E-1,-1.15338586E-1,-2.360708E-2,-3.0263016E-2,4.5897834E-2,1.2258082E-2,-9.159606E-2],"categories":[],"categories_nodes":[],"categories_segments":[],"categories_sizes":[],"default_left":[0,0,0,0,0,0,0,1,0,0,0,0,0,0,0,0,0],"id":29,"left_children":[1,3,-1,5,7,9,11,13,15,-1,-1,-1,-1,-1,-1,-1,-1],"loss_changes":[2.3827333E2,7.7407776E1,0E0,6.059397E1,8.636682E1,1.1283265E2,3.640764E1,9.914165E1,1.11749176E2,0E0,0E0,0E0,0E0,0E0,0E0,0E0,0E0],"parents":[2147483647,0,0,1,1,3,3,4,4,5,5,6,6,7,7,8,8],"right_children":[2,4,-1,6,8,10,12,14,16,-1,-1,-1,-1,-1,-1,-1,-1],"split_conditions":[1.3E1,2.014E3,1.06436744E-1,2.3E1,2.019E3,1.8E1,1.18E2,2.3869E1,6E0,-5.6718417E-2,1.8205374E-1,-1.15338586E-1,-2.360708E-2,-3.0263016E-2,4.5897834E-2,1.2258082E-2,-9.159606E-2],"split_indices":[17,2,0,5,2,5,26,3,1,0,0,0,0,0,0,0,0],"split_type":[0,0,0,0,0,0,0,0,0,0,0,0,0,0,0,0,0],"sum_hessian":[1.6412031E3,1.4597214E3,1.8148175E2,3.134897E2,1.1462317E3,1.0148841E2,2.1200125E2,7.331816E2,4.1305017E2,7.582973E1,2.5658684E1,1.506037E2,6.1397552E1,2.695069E2,4.6367468E2,2.087074E2,2.0434276E2],"tree_param":{"num_deleted":"0","num_feature":"31","num_nodes":"17","size_leaf_vector":"1"}},{"base_weights":[1.7302122E-2,-1.0376769E-1,1.05689324E-1,-5.512466E-1,1.3925118E-2,5.805694E-2,-8.551705E-1,-3.69866E-1,2.0402113E-1,-4.3523967E-2,1.4452799E-1,-1.1226431E-1,-2.2422595E-2,-7.6699965E-2,-2.8143366E-4,4.084022E-2,-2.1758113E-2],"categories":[],"categories_nodes":[],"categories_segments":[],"categories_sizes":[],"default_left":[0,0,0,0,0,0,0,1,0,0,0,0,0,0,0,0,0],"id":30,"left_children":[1,3,-1,5,7,9,11,13,15,-1,-1,-1,-1,-1,-1,-1,-1],"loss_changes":[2.0459464E2,7.669335E1,0E0,5.6205536E1,8.425745E1,7.033149E1,3.390358E1,5.5763313E1,6.663545E1,0E0,0E0,0E0,0E0,0E0,0E0,0E0,0E0],"parents":[2147483647,0,0,1,1,3,3,4,4,5,5,6,6,7,7,8,8],"right_children":[2,4,-1,6,8,10,12,14,16,-1,-1,-1,-1,-1,-1,-1,-1],"split_conditions":[1.3E1,2.014E3,1.05689324E-1,2.3E1,3.6973556E7,1.8E1,1.18E2,9.71E2,2.019E3,-4.3523967E-2,1.4452799E-1,-1.1226431E-1,-2.2422595E-2,-7.6699965E-2,-2.8143366E-4,4.084022E-2,-2.1758113E-2],"split_indices":[17,2,0,5,24,5,26,5,2,0,0,0,0,0,0,0,0],"split_type":[0,0,0,0,0,0,0,0,0,0,0,0,0,0,0,0,0],"sum_hessian":[1.6236616E3,1.4551019E3,1.6855963E2,3.0224707E2,1.1528549E3,1.0085764E2,2.013894E2,3.8156168E2,7.712932E2,7.4906975E1,2.5950674E1,1.4088539E2,6.0504025E1,1.8274744E2,1.9881425E2,5.194901E2,2.5180309E2],"tree_param":{"num_deleted":"0","num_feature":"31","num_nodes":"17","size_leaf_vector":"1"}},{"base_weights":[3.597635E-2,-4.640296E-1,1.09647915E-1,-5.976399E-1,8.496395E-1,3.161099E-1,-8.199336E-2,3.1944156E-2,-8.405013E-1,1.522978E0,-9.280369E-2,3.5267144E-1,-1.2621887E-1,2.119206E-1,-4.5723352E-1,-6.848023E-2,1.0559084E-1,-5.6913115E-2,-1.2053602E-1,9.913443E-2,1.7553708E-1,3.905033E-2,-9.155896E-2,3.8331166E-2,-6.0289767E-2,-1.4951646E-2,-1.11200295E-1],"categories":[],"categories_nodes":[],"categories_segments":[],"categories_sizes":[],"default_left":[0,0,0,1,0,0,0,0,0,0,0,0,0,0,0,0,0,0,0,0,0,0,0,0,0,0,0],"id":31,"left_children":[1,3,5,7,9,11,13,15,17,19,-1,21,-1,23,25,-1,-1,-1,-1,-1,-1,-1,-1,-1,-1,-1,-1],"loss_changes":[5.874226E1,3.6454792E1,5.5003883E1,2.8540451E1,2.4539013E1,3.9055176E1,7.965999E1,3.9528843E1,1.2641846E1,3.7815094E-2,0E0,3.1771706E1,0E0,5.6822067E1,6.3740974E1,0E0,0E0,0E0,0E0,0E0,0E0,0E0,0E0,0E0,0E0,0E0,0E0],"parents":[2147483647,0,0,1,1,2,2,3,3,4,4,5,5,6,6,7,7,8,8,9,9,11,11,13,13,14,14],"right_children":[2,4,6,8,10,12,14,16,18,20,-1,22,-1,24,26,-1,-1,-1,-1,-1,-1,-1,-1,-1,-1,-1,-1],"split_conditions":[2E0,1.41851E5,3E0,-3.7711E0,1.98457E5,1.19E2,2.3E1,3.9E1,1.25E-1,2.38E2,-9.280369E-2,4.00616E1,-1.2621887E-1,2.96587E1,1E0,-6.848023E-2,1.0559084E-1,-5.6913115E-2,-1.2053602E-1,9.913443E-2,1.7553708E-1,3.905033E-2,-9.155896E-2,3.8331166E-2,-6.0289767E-2,-1.4951646E-2,-1.11200295E-1],"split_indices":[29,22,29,3,22,28,0,0,12,9,0,3,0,4,27,0,0,0,0,0,0,0,0,0,0,0,0],"split_type":[0,0,0,0,0,0,0,0,0,0,0,0,0,0,0,0,0,0,0,0,0,0,0,0,0,0,0],"sum_hessian":[1.5923062E3,2.0380324E2,1.3885029E3,1.8548322E2,1.832002E1,6.68093E2,7.2041E2,5.1874443E1,1.3360876E2,1.3391092E1,4.928928E0,6.537259E2,1.4367121E1,4.0422684E2,3.161831E2,3.070972E1,2.1164722E1,7.808876E1,5.552001E1,5.6748433E0,7.7162485E0,6.3546234E2,1.8263546E1,3.3441473E2,6.981212E1,2.1593167E2,1.0025143E2],"tree_param":{"num_deleted":"0","num_feature":"31","num_nodes":"27","size_leaf_vector":"1"}},{"base_weights":[-2.5481623E-2,-9.18537E-1,2.2352787E-2,4.1550082E-1,-1.1310278E0,1.2857816E-1,-3.4845507E-1,-1.02373734E-1,1.5753628E-1,-1.1763451E-1,-4.292469E-2,-2.0699978E-1,2.88211E-1,-9.057332E-1,1.2548386E-1,2.0854881E-2,-3.5287194E-2,-1.556089E-2,4.138639E-2,-1.0929891E-1,-2.3983479E-2,3.2468524E-2,-5.843961E-2],"categories":[],"categories_nodes":[],"categories_segments":[],"categories_sizes":[],"default_left":[1,0,0,1,0,0,0,0,0,0,0,0,0,1,0,0,0,0,0,0,0,0,0],"id":32,"left_children":[1,3,5,7,9,11,13,-1,-1,-1,-1,15,17,19,21,-1,-1,-1,-1,-1,-1,-1,-1],"loss_changes":[6.521364E1,2.2470108E1,5.7139038E1,2.063435E1,1.6326828E0,6.0456257E1,8.5433815E1,0E0,0E0,0E0,0E0,2.2139309E1,4.269455E1,1.8265877E1,2.500027E1,0E0,0E0,0E0,0E0,0E0,0E0,0E0,0E0],"parents":[2147483647,0,0,1,1,2,2,3,3,4,4,5,5,6,6,11,11,12,12,13,13,14,14],"right_children":[2,4,6,8,10,12,14,-1,-1,-1,-1,16,18,20,22,-1,-1,-1,-1,-1,-1,-1,-1],"split_conditions":[-5.69471E1,6E0,1.19E2,4.50128E1,1.35E2,5.3E1,1.78E2,-1.02373734E-1,1.5753628E-1,-1.1763451E-1,-4.292469E-2,1.63E-2,1.5099727E7,7.9E1,9.2E1,2.0854881E-2,-3.5287194E-2,-1.556089E-2,4.138639E-2,-1.0929891E-1,-2.3983479E-2,3.2468524E-2,-5.843961E-2],"split_indices":[4,0,28,3,26,28,28,0,0,0,0,7,24,20,26,0,0,0,0,0,0,0,0],"split_type":[0,0,0,0,0,0,0,0,0,0,0,0,0,0,0,0,0,0,0,0,0,0,0],"sum_hessian":[1.5250995E3,7.660996E1,1.4484895E3,1.039483E1,6.621513E1,1.1264489E3,3.2204068E2,4.691121E0,5.703709E0,6.1563465E1,4.6516647E0,3.6301886E2,7.6342993E2,1.4758853E2,1.7445215E2,9.421038E1,2.6880847E2,1.6839648E2,5.9503345E2,1.1469424E2,3.2894295E1,1.3664925E2,3.7802906E1],"tree_param":{"num_deleted":"0","num_feature":"31","num_nodes":"23","size_leaf_vector":"1"}},{"base_weights":[-1.771454E-2,-1.3793953E-1,1.05001174E-1,3.5842326E-1,-2.597437E-1,1.8526247E-1,1.0103878E0,-3.657078E-2,-5.232239E-1,-1.2140022E-2,6.266235E-2,-5.8460772E-2,1.114244E-1,1.080452E-2,-5.8758326E-2,-9.4782084E-2,-3.2528654E-2],"categories":[],"categories_nodes":[],"categories_segments":[],"categories_sizes":[],"default_left":[0,0,0,1,0,0,0,0,0,0,0,0,0,0,0,0,0],"id":33,"left_children":[1,3,-1,5,7,9,11,13,15,-1,-1,-1,-1,-1,-1,-1,-1],"loss_changes":[1.9538535E2,8.2795586E1,0E0,3.0289207E1,6.460122E1,2.9111956E1,9.998711E0,4.7560917E1,4.2040558E1,0E0,0E0,0E0,0E0,0E0,0E0,0E0,0E0],"parents":[2147483647,0,0,1,1,3,3,4,4,5,5,6,6,7,7,8,8],"right_children":[2,4,-1,6,8,10,12,14,16,-1,-1,-1,-1,-1,-1,-1,-1],"split_conditions":[1.3E1,1E0,1.05001174E-1,2.8E2,2E0,1.414E0,2.4E1,6.133E3,7.6E1,-1.2140022E-2,6.266235E-2,-5.8460772E-2,1.114244E-1,1.080452E-2,-5.8758326E-2,-9.4782084E-2,-3.2528654E-2],"split_indices":[17,17,0,6,30,13,26,5,28,0,0,0,0,0,0,0,0],"split_type":[0,0,0,0,0,0,0,0,0,0,0,0,0,0,0,0,0],"sum_hessian":[1.5199509E3,1.366909E3,1.5304189E2,2.6895416E2,1.0979548E3,2.1352612E2,5.5428055E1,5.9506335E2,5.0289154E2,1.2641586E2,8.711025E1,3.1055074E0,5.2322548E1,4.719909E2,1.23072464E2,1.5869188E2,3.4419965E2],"tree_param":{"num_deleted":"0","num_feature":"31","num_nodes":"17","size_leaf_vector":"1"}},{"base_weights":[1.8357132E-2,-8.621978E-2,1.0434344E-1,-4.687525E-2,-1.12804845E-1,1.298515E-1,-2.7390987E-1,-3.4241334E-2,3.0730844E-2,-3.3728426E-4,-6.704396E-2],"categories":[],"categories_nodes":[],"categories_segments":[],"categories_sizes":[],"default_left":[0,0,0,0,0,0,0,0,0,0,0],"id":34,"left_children":[1,3,-1,5,-1,7,9,-1,-1,-1,-1],"loss_changes":[1.6151085E2,5.5994133E1,0E0,5.2942307E1,0E0,6.230083E1,6.1947346E1,0E0,0E0,0E0,0E0],"parents":[2147483647,0,0,1,1,3,3,5,5,6,6],"right_children":[2,4,-1,6,-1,8,10,-1,-1,-1,-1],"split_conditions":[1.3E1,3.0352E2,1.0434344E-1,5E0,-1.12804845E-1,3.6973556E7,2E0,-3.4241334E-2,3.0730844E-2,-3.3728426E-4,-6.704396E-2],"split_indices":[17,25,0,17,0,24,30,0,0,0,0],"split_type":[0,0,0,0,0,0,0,0,0,0,0],"sum_hessian":[1.5047998E3,1.3663252E3,1.3847464E2,1.3176108E3,4.8714413E1,7.4113196E2,5.764789E2,2.0216968E2,5.389623E2,3.4328033E2,2.3319852E2],"tree_param":{"num_deleted":"0","num_feature":"31","num_nodes":"11","size_leaf_vector":"1"}},{"base_weights":[2.6056548E-3,-9.720025E-2,1.03749946E-1,1.4143261E-1,-2.7740437E-1,-1.910616E-2,8.660452E-1,-5.026769E-1,1.24099486E-1,-7.44402E-2,1.7670201E-2,1.0251709E-1,-1.0467831E-1,-2.4258414E-2,-8.546706E-2,3.2021645E-2,-6.390715E-2],"categories":[],"categories_nodes":[],"categories_segments":[],"categories_sizes":[],"default_left":[0,0,0,1,1,0,0,0,0,0,0,0,0,0,0,0,0],"id":35,"left_children":[1,3,-1,5,7,9,11,13,15,-1,-1,-1,-1,-1,-1,-1,-1],"loss_changes":[1.5218402E2,5.7826817E1,0E0,6.735176E1,6.9343414E1,6.756674E1,3.303443E1,4.4732536E1,4.1529587E1,0E0,0E0,0E0,0E0,0E0,0E0,0E0,0E0],"parents":[2147483647,0,0,1,1,3,3,4,4,5,5,6,6,7,7,8,8],"right_children":[2,4,-1,6,8,10,12,14,16,-1,-1,-1,-1,-1,-1,-1,-1],"split_conditions":[1.3E1,6.496E1,1.03749946E-1,5.918E-1,1.060232E2,1.04E2,5.3E1,2E0,8.5E1,-7.44402E-2,1.7670201E-2,1.0251709E-1,-1.0467831E-1,-2.4258414E-2,-8.546706E-2,3.2021645E-2,-6.390715E-2],"split_indices":[17,25,0,7,4,28,26,30,28,0,0,0,0,0,0,0,0],"split_type":[0,0,0,0,0,0,0,0,0,0,0,0,0,0,0,0,0],"sum_hessian":[1.4714113E3,1.3428153E3,1.2859601E2,5.778372E2,7.64978E2,4.7383267E2,1.04004555E2,4.8987238E2,2.7510565E2,1.001317E2,3.73701E2,9.644544E1,7.559115E0,2.8268323E2,2.0718916E2,2.1932475E2,5.5780888E1],"tree_param":{"num_deleted":"0","num_feature":"31","num_nodes":"17","size_leaf_vector":"1"}},{"base_weights":[-1.1225383E-3,-9.280284E-2,1.0331913E-1,-1.693644E-1,4.955531E-1,-4.5236668E-1,7.8061685E-2,8.4802973E-1,1.2302075E-2,-4.4668817E-5,-6.487577E-2,2.3293383E-2,-8.598092E-2,3.7858598E-2,1.2546808E-1,7.025217E-2,-1.0749779E-1],"categories":[],"categories_nodes":[],"categories_segments":[],"categories_sizes":[],"default_left":[0,1,0,1,0,1,0,0,0,0,0,0,0,0,0,0,0],"id":36,"left_children":[1,3,-1,5,7,9,11,13,15,-1,-1,-1,-1,-1,-1,-1,-1],"loss_changes":[1.3575795E2,5.932192E1,0E0,8.156866E1,2.5825573E1,4.8218826E1,9.0560074E1,1.6265285E1,4.9525032E1,0E0,0E0,0E0,0E0,0E0,0E0,0E0,0E0],"parents":[2147483647,0,0,1,1,3,3,4,4,5,5,6,6,7,7,8,8],"right_children":[2,4,-1,6,8,10,12,14,16,-1,-1,-1,-1,-1,-1,-1,-1],"split_conditions":[1.3E1,2.8E2,1.0331913E-1,4.36969E1,6E0,-9.1158E0,2.018E3,5E0,2.019E3,-4.4668817E-5,-6.487577E-2,2.3293383E-2,-8.598092E-2,3.7858598E-2,1.2546808E-1,7.025217E-2,-1.0749779E-1],"split_indices":[17,6,0,4,1,4,2,17,2,0,0,0,0,0,0,0,0],"split_type":[0,0,0,0,0,0,0,0,0,0,0,0,0,0,0,0,0],"sum_hessian":[1.429639E3,1.3140717E3,1.15567406E2,1.1633937E3,1.506779E2,5.4229565E2,6.210981E2,8.669149E1,6.398642E1,1.6457964E2,3.77716E2,5.3371625E2,8.7381805E1,4.11353E1,4.5556187E1,3.9356358E1,2.4630062E1],"tree_param":{"num_deleted":"0","num_feature":"31","num_nodes":"17","size_leaf_vector":"1"}},{"base_weights":[-3.8624942E-2,-1.248139E-1,1.02731906E-1,2.97952E-1,-2.242513E-1,-4.9979252E-1,4.6192992E-1,-7.9914343E-1,-1.5041299E-1,-1.45694E-1,3.3858344E-2,5.466947E-2,-1.0237731E-1,-1.1444812E-1,1.4538444E-2,-4.5226447E-2,-1.9352603E-3],"categories":[],"categories_nodes":[],"categories_segments":[],"categories_sizes":[],"default_left":[0,0,0,0,0,0,0,0,1,0,0,0,0,0,0,0,0],"id":37,"left_children":[1,3,-1,5,7,9,11,13,15,-1,-1,-1,-1,-1,-1,-1,-1],"loss_changes":[1.2648212E2,5.359571E1,0E0,3.2004467E1,4.3662983E1,3.4111805E1,2.5998543E1,3.838344E1,3.619979E1,0E0,0E0,0E0,0E0,0E0,0E0,0E0,0E0],"parents":[2147483647,0,0,1,1,3,3,4,4,5,5,6,6,7,7,8,8],"right_children":[2,4,-1,6,8,10,12,14,16,-1,-1,-1,-1,-1,-1,-1,-1],"split_conditions":[1.3E1,1E0,1.02731906E-1,2.015E3,2E0,1.03E2,1.98457E5,4E1,1.9E1,-1.45694E-1,3.3858344E-2,5.466947E-2,-1.0237731E-1,-1.1444812E-1,1.4538444E-2,-4.5226447E-2,-1.9352603E-3],"split_indices":[17,17,0,2,29,26,22,0,5,0,0,0,0,0,0,0,0],"split_type":[0,0,0,0,0,0,0,0,0,0,0,0,0,0,0,0,0],"sum_hessian":[1.3743164E3,1.2723232E3,1.0199323E2,2.4189427E2,1.030429E3,4.089486E1,2.0099942E2,1.16165085E2,9.1426385E2,1.8750355E1,2.2144505E1,1.9074855E2,1.0250869E1,8.4909E1,3.1256083E1,2.7604364E2,6.382202E2],"tree_param":{"num_deleted":"0","num_feature":"31","num_nodes":"17","size_leaf_vector":"1"}},{"base_weights":[-8.2243085E-3,-9.0166825E-1,3.5257775E-2,3.5886288E-1,-1.1240784E0,5.535689E-1,-2.1617752E-2,1.3445841E-1,-9.895804E-2,-1.1509589E-1,-5.5178236E-2,1.8210392E-1,1.4789221E0,-9.695956E-1,2.694061E-2,7.604485E-2,-2.6452094E-2,-1.0176325E-1,2.1772654E-1,-1.0916755E-1,-6.413628E-2,1.0996646E-2,-2.9299034E-2],"categories":[],"categories_nodes":[],"categories_segments":[],"categories_sizes":[],"default_left":[1,0,0,0,0,0,0,0,0,0,0,0,0,0,0,0,0,0,0,0,0,0,0],"id":38,"left_children":[1,3,5,7,9,11,13,-1,-1,-1,-1,15,17,19,21,-1,-1,-1,-1,-1,-1,-1,-1],"loss_changes":[5.3452038E1,1.8305214E1,3.8695377E1,1.5067468E1,2.0362854E-1,4.4345257E1,5.450223E1,0E0,0E0,0E0,0E0,2.4418377E1,6.6789505E1,1.6116066E0,2.9961327E1,0E0,0E0,0E0,0E0,0E0,0E0,0E0,0E0],"parents":[2147483647,0,0,1,1,2,2,3,3,4,4,5,5,6,6,11,11,12,12,13,13,14,14],"right_children":[2,4,6,8,10,12,14,-1,-1,-1,-1,16,18,20,22,-1,-1,-1,-1,-1,-1,-1,-1],"split_conditions":[-5.69471E1,6E0,-9.1158E0,-1.030132E2,1.35E2,-1.09094E1,3.9929E0,1.3445841E-1,-9.895804E-2,-1.1509589E-1,-5.5178236E-2,1.5E1,1.8E1,2.783E3,6.133E3,7.604485E-2,-2.6452094E-2,-1.0176325E-1,2.1772654E-1,-1.0916755E-1,-6.413628E-2,1.0996646E-2,-2.9299034E-2],"split_indices":[4,0,4,4,26,4,4,0,0,0,0,0,0,5,5,0,0,0,0,0,0,0,0],"split_type":[0,0,0,0,0,0,0,0,0,0,0,0,0,0,0,0,0,0,0,0,0,0,0],"sum_hessian":[1.3740807E3,6.2854168E1,1.3112266E3,9.334793E0,5.3519375E1,1.2879298E2,1.1824336E3,5.394349E0,3.9404438E0,5.01526E1,3.3667743E0,9.2755066E1,3.6037918E1,5.6692368E1,1.1257412E3,4.0111336E1,5.2643726E1,7.7772603E0,2.8260658E1,3.962769E1,1.706468E1,8.943128E2,2.3142844E2],"tree_param":{"num_deleted":"0","num_feature":"31","num_nodes":"23","size_leaf_vector":"1"}},{"base_weights":[-2.3112552E-2,-1.03271745E-1,1.0231252E-1,-6.314185E-1,-3.913251E-2,-9.9497044E-1,1.0289976E-1,-7.1455687E-3,-1.1144602E-1,-1.1053474E-1,1.7104771E-2,7.7957734E-2,-8.125733E-2,3.642025E-3,-6.630244E-2],"categories":[],"categories_nodes":[],"categories_segments":[],"categories_sizes":[],"default_left":[0,0,0,0,0,0,0,0,0,0,0,0,0,0,0],"id":39,"left_children":[1,3,-1,5,7,9,11,13,-1,-1,-1,-1,-1,-1,-1],"loss_changes":[1.1364044E2,4.2601444E1,0E0,3.646291E1,3.8624004E1,1.192569E1,2.9134611E1,3.1218296E1,0E0,0E0,0E0,0E0,0E0,0E0,0E0],"parents":[2147483647,0,0,1,1,3,3,4,4,5,5,6,6,7,7],"right_children":[2,4,-1,6,8,10,12,14,-1,-1,-1,-1,-1,-1,-1],"split_conditions":[1.3E1,2E0,1.0231252E-1,1E0,3.0352E2,1E0,2E0,4.7E1,-1.1144602E-1,-1.1053474E-1,1.7104771E-2,7.7957734E-2,-8.125733E-2,3.642025E-3,-6.630244E-2],"split_indices":[17,29,0,21,25,16,30,0,0,0,0,0,0,0,0],"split_type":[0,0,0,0,0,0,0,0,0,0,0,0,0,0,0],"sum_hessian":[1.352771E3,1.2573392E3,9.5431786E1,1.3520073E2,1.1221384E3,9.019255E1,4.5008175E1,1.0907009E3,3.143759E1,8.2440636E1,7.751915E0,2.596467E1,1.9043505E1,1.0236508E3,6.705008E1],"tree_param":{"num_deleted":"0","num_feature":"31","num_nodes":"15","size_leaf_vector":"1"}},{"base_weights":[3.0914988E-2,1.4874862E-1,-3.665382E-1,-1.1360717E-1,1.8155926E-1,-8.20391E-1,-2.351436E-2,-1.05575174E-1,2.9246593E-1,-1.0885189E0,-5.5302553E-2,1.8725626E-1,-6.9945544E-1,-2.9729292E-2,4.2931315E-2,3.3424508E-2,-1.0604687E-1,-6.855229E-2,-1.17788926E-1,-1.4411744E-1,4.8753228E-2,-1.4732343E-2,9.943984E-2,2.4559746E-2,-1.0203502E-1],"categories":[],"categories_nodes":[],"categories_segments":[],"categories_sizes":[],"default_left":[0,0,0,0,0,1,0,0,1,0,0,0,0,0,0,0,0,0,0,0,0,0,0,0,0],"id":40,"left_children":[1,3,5,-1,7,9,11,13,15,17,19,21,23,-1,-1,-1,-1,-1,-1,-1,-1,-1,-1,-1,-1],"loss_changes":[6.412625E1,4.4720394E1,4.8730347E1,0E0,3.2847645E1,2.7585243E1,2.5685902E1,2.9647745E1,4.238855E1,2.7846527E0,2.7804619E1,3.7285473E1,1.3244743E1,0E0,0E0,0E0,0E0,0E0,0E0,0E0,0E0,0E0,0E0,0E0,0E0],"parents":[2147483647,0,0,1,1,2,2,4,4,5,5,6,6,7,7,8,8,9,9,10,10,11,11,12,12],"right_children":[2,4,6,-1,8,10,12,14,16,18,20,22,24,-1,-1,-1,-1,-1,-1,-1,-1,-1,-1,-1,-1],"split_conditions":[1.19E2,-6.14594E1,1.78E2,-1.1360717E-1,5.1E1,7.9E1,6E0,1.22E2,2.7921E2,1.5E1,5E0,1.9E1,2.009E3,-2.9729292E-2,4.2931315E-2,3.3424508E-2,-1.0604687E-1,-6.855229E-2,-1.17788926E-1,-1.4411744E-1,4.8753228E-2,-1.4732343E-2,9.943984E-2,2.4559746E-2,-1.0203502E-1],"split_indices":[28,4,28,0,28,6,1,26,25,0,1,0,2,0,0,0,0,0,0,0,0,0,0,0,0],"split_type":[0,0,0,0,0,0,0,0,0,0,0,0,0,0,0,0,0,0,0,0,0,0,0,0,0],"sum_hessian":[1.3670791E3,1.0549438E3,3.1213525E2,2.5432098E1,1.0295117E3,1.3376282E2,1.7837244E2,2.8686746E2,7.426442E2,9.8737274E1,3.5025547E1,1.3652458E2,4.1847862E1,2.1150339E2,7.536406E1,7.211285E2,2.1515787E1,1.9495813E1,7.924146E1,9.392173E0,2.5633373E1,9.709419E1,3.943039E1,1.0667152E1,3.1180708E1],"tree_param":{"num_deleted":"0","num_feature":"31","num_nodes":"25","size_leaf_vector":"1"}},{"base_weights":[1.9792171E-2,-5.187008E-2,1.01958E-1,-2.4100736E-1,1.3515814E-1,2.1998396E-2,-6.2621635E-1,-9.3273675E-1,2.2518776E-1,-1.6722558E-2,7.656964E-2,7.049172E-2,-7.492772E-2,2.826468E-2,-1.3355862E-1,3.469549E-2,-5.1041007E-2],"categories":[],"categories_nodes":[],"categories_segments":[],"categories_sizes":[],"default_left":[0,0,0,0,0,1,0,0,0,0,0,0,0,0,0,0,0],"id":41,"left_children":[1,3,-1,5,7,9,11,13,15,-1,-1,-1,-1,-1,-1,-1,-1],"loss_changes":[9.5170876E1,4.3887463E1,0E0,6.249891E1,6.020186E1,5.1842094E1,4.1526077E1,2.4226845E1,5.179547E1,0E0,0E0,0E0,0E0,0E0,0E0,0E0,0E0],"parents":[2147483647,0,0,1,1,3,3,4,4,5,5,6,6,7,7,8,8],"right_children":[2,4,-1,6,8,10,12,14,16,-1,-1,-1,-1,-1,-1,-1,-1],"split_conditions":[1.3E1,4.36969E1,1.01958E-1,7.821E1,1.8E1,8.571E-1,3E0,9E0,2.018E3,-1.6722558E-2,7.656964E-2,7.049172E-2,-7.492772E-2,2.826468E-2,-1.3355862E-1,3.469549E-2,-5.1041007E-2],"split_indices":[17,4,0,25,5,7,5,0,2,0,0,0,0,0,0,0,0],"split_type":[0,0,0,0,0,0,0,0,0,0,0,0,0,0,0,0,0],"sum_hessian":[1.3265913E3,1.238749E3,8.784226E1,6.1575836E2,6.2299066E2,3.6648172E2,2.4927661E2,4.771028E1,5.752804E2,2.927664E2,7.371534E1,2.0694841E1,2.2858177E2,1.1951466E1,3.5758816E1,4.9402957E2,8.125082E1],"tree_param":{"num_deleted":"0","num_feature":"31","num_nodes":"17","size_leaf_vector":"1"}},{"base_weights":[2.1502623E-2,-4.210904E-2,1.0151769E-1,-1.2803873E-2,-1.0805593E-1,-3.5146585E-1,7.8619614E-2,2.1054303E-2,-6.816969E-2,-8.1232116E-2,1.299178E-2],"categories":[],"categories_nodes":[],"categories_segments":[],"categories_sizes":[],"default_left":[0,0,0,0,0,0,0,0,0,0,0],"id":42,"left_children":[1,3,-1,5,-1,7,9,-1,-1,-1,-1],"loss_changes":[8.360121E1,3.7824028E1,0E0,3.7498882E1,0E0,4.7923573E1,4.369773E1,0E0,0E0,0E0,0E0],"parents":[2147483647,0,0,1,1,3,3,5,5,6,6],"right_children":[2,4,-1,6,-1,8,10,-1,-1,-1,-1],"split_conditions":[1.3E1,3.0352E2,1.0151769E-1,2.014E3,-1.0805593E-1,2.3E1,1.913E1,2.1054303E-2,-6.816969E-2,-8.1232116E-2,1.299178E-2],"split_indices":[17,25,0,2,0,5,25,0,0,0,0],"split_type":[0,0,0,0,0,0,0,0,0,0,0],"sum_hessian":[1.3209335E3,1.2423595E3,7.857402E1,1.2092468E3,3.3112732E1,2.564456E2,9.528012E2,9.504841E1,1.6139717E2,5.1065556E1,9.0173566E2],"tree_param":{"num_deleted":"0","num_feature":"31","num_nodes":"11","size_leaf_vector":"1"}},{"base_weights":[-6.7816516E-3,-6.9420554E-2,1.01150684E-1,-4.9533048E-1,3.6518633E-2,8.980713E-2,-8.335044E-1,-1.7954332E-1,2.3420386E-1,1.628354E-1,-4.8981804E-2,-1.2862636E-1,-5.8223587E-2,-4.693712E-2,3.1559378E-2,3.8136248E-2,-4.1640442E-2],"categories":[],"categories_nodes":[],"categories_segments":[],"categories_sizes":[],"default_left":[0,0,0,0,0,0,0,1,0,0,0,0,0,0,0,0,0],"id":43,"left_children":[1,3,-1,5,7,9,11,13,15,-1,-1,-1,-1,-1,-1,-1,-1],"loss_changes":[8.257283E1,5.5039894E1,0E0,4.815319E1,4.1792023E1,8.096255E1,1.6779427E1,6.7249985E1,4.9071457E1,0E0,0E0,0E0,0E0,0E0,0E0,0E0,0E0],"parents":[2147483647,0,0,1,1,3,3,4,4,5,5,6,6,7,7,8,8],"right_children":[2,4,-1,6,8,10,12,14,16,-1,-1,-1,-1,-1,-1,-1,-1],"split_conditions":[1.3E1,2.014E3,1.01150684E-1,2.006E3,2.3869E1,1.2E1,4E0,2.692E-1,2.018E3,1.628354E-1,-4.8981804E-2,-1.2862636E-1,-5.8223587E-2,-4.693712E-2,3.1559378E-2,3.8136248E-2,-4.1640442E-2],"split_indices":[17,2,0,2,3,0,17,7,2,0,0,0,0,0,0,0,0],"split_type":[0,0,0,0,0,0,0,0,0,0,0,0,0,0,0,0,0],"sum_hessian":[1.2924591E3,1.21844E3,7.401917E1,2.4196927E2,9.7647064E2,8.8893135E1,1.5307614E2,4.6659402E2,5.0987662E2,2.3829966E1,6.506316E1,5.3162983E1,9.9913155E1,2.9434918E2,1.7224486E2,4.1616064E2,9.371596E1],"tree_param":{"num_deleted":"0","num_feature":"31","num_nodes":"17","size_leaf_vector":"1"}},{"base_weights":[5.098344E-2,1.4592615E-1,-2.6768607E-1,-1.1065654E-1,1.6707394E-1,-7.6457226E-1,6.453494E-2,1.8783548E-1,-8.696854E-1,-1.102205E0,1.0293472E-1,-8.6119866E-1,2.2592539E-1,1.0506792E-2,4.3229986E-2,-4.0002655E-2,-9.4791204E-2,-1.2059821E-1,-8.650957E-2,-1.2592669E-1,5.7726707E-2,-9.655421E-2,-3.4713652E-2,3.931456E-2,-3.759888E-2],"categories":[],"categories_nodes":[],"categories_segments":[],"categories_sizes":[],"default_left":[0,0,0,0,1,1,1,0,0,0,1,1,0,0,0,0,0,0,0,0,0,0,0,0,0],"id":44,"left_children":[1,3,5,-1,7,9,11,13,15,17,19,21,23,-1,-1,-1,-1,-1,-1,-1,-1,-1,-1,-1,-1],"loss_changes":[3.8980137E1,2.6467943E1,4.8878178E1,0E0,2.118608E1,3.4851982E1,2.6817495E1,1.9345062E1,3.318014E-1,1.0595932E0,2.2787537E1,1.0949345E0,1.5500476E1,0E0,0E0,0E0,0E0,0E0,0E0,0E0,0E0,0E0,0E0,0E0,0E0],"parents":[2147483647,0,0,1,1,2,2,4,4,5,5,6,6,7,7,8,8,9,9,10,10,11,11,12,12],"right_children":[2,4,6,-1,8,10,12,14,16,18,20,22,24,-1,-1,-1,-1,-1,-1,-1,-1,-1,-1,-1,-1],"split_conditions":[1.19E2,1E1,1.78E2,-1.1065654E-1,3.0352E2,7.9E1,1.5099727E7,3.6E1,1.1E1,1.115E3,2.358E-1,2.857E-1,2.4E1,1.0506792E-2,4.3229986E-2,-4.0002655E-2,-9.4791204E-2,-1.2059821E-1,-8.650957E-2,-1.2592669E-1,5.7726707E-2,-9.655421E-2,-3.4713652E-2,3.931456E-2,-3.759888E-2],"split_indices":[28,28,28,0,25,6,24,0,28,19,7,7,0,0,0,0,0,0,0,0,0,0,0,0,0],"split_type":[0,0,0,0,0,0,0,0,0,0,0,0,0,0,0,0,0,0,0,0,0,0,0,0,0],"sum_hessian":[1.2860808E3,9.912848E2,2.9479605E2,1.560729E1,9.756775E2,1.17602516E2,1.7719354E2,9.5732544E2,1.8352028E1,8.4460175E1,3.3142345E1,2.5661777E1,1.5153175E2,7.16255E2,2.410705E2,3.4931931E0,1.4858834E1,5.590549E1,2.855468E1,8.132467E0,2.5009878E1,2.06018E1,5.059977E0,1.1885814E2,3.267362E1],"tree_param":{"num_deleted":"0","num_feature":"31","num_nodes":"25","size_leaf_vector":"1"}},{"base_weights":[1.3032309E-2,-4.4577286E-2,1.00790575E-1,1.3217719E-1,-2.7691594E-1,-2.052593E-1,3.3826151E-1,2.8806955E-1,-4.863482E-1,2.1532087E-2,-8.09553E-2,1.4244807E-2,1.05043106E-1,5.8785785E-2,-5.577607E-2,-8.789965E-2,-1.2227539E-2],"categories":[],"categories_nodes":[],"categories_segments":[],"categories_sizes":[],"default_left":[0,0,0,0,0,0,0,0,1,0,0,0,0,0,0,0,0],"id":45,"left_children":[1,3,-1,5,7,9,11,13,15,-1,-1,-1,-1,-1,-1,-1,-1],"loss_changes":[7.233064E1,4.9035145E1,0E0,4.7238926E1,6.1177013E1,6.569818E1,5.8628418E1,3.586062E1,5.374363E1,0E0,0E0,0E0,0E0,0E0,0E0,0E0,0E0],"parents":[2147483647,0,0,1,1,3,3,4,4,5,5,6,6,7,7,8,8],"right_children":[2,4,-1,6,8,10,12,14,16,-1,-1,-1,-1,-1,-1,-1,-1],"split_conditions":[1.3E1,2E0,1.00790575E-1,1.8E1,2.63E1,6E1,2.021E3,2.018E3,7.1619864E7,2.1532087E-2,-8.09553E-2,1.4244807E-2,1.05043106E-1,5.8785785E-2,-5.577607E-2,-8.789965E-2,-1.2227539E-2],"split_indices":[17,30,0,0,25,26,2,2,24,0,0,0,0,0,0,0,0],"split_type":[0,0,0,0,0,0,0,0,0,0,0,0,0,0,0,0,0],"sum_hessian":[1.2602172E3,1.1921396E3,6.807739E1,6.773037E2,5.14836E2,2.568117E2,4.20492E2,1.3912985E2,3.7570612E2,1.5180275E2,1.05008965E2,3.3075092E2,8.974109E1,1.0294719E2,3.6182667E1,1.8007884E2,1.9562727E2],"tree_param":{"num_deleted":"0","num_feature":"31","num_nodes":"17","size_leaf_vector":"1"}},{"base_weights":[1.587465E-2,-3.476988E-2,1.0036937E-1,-2.0669876E-1,1.6177301E-1,1.6349956E-2,-5.3327084E-1,-6.877383E-1,2.5600055E-1,-1.3662385E-2,6.9530524E-2,1.3206417E-2,-7.60498E-2,5.352773E-2,-1.1912797E-1,3.8841866E-2,-3.4795634E-2],"categories":[],"categories_nodes":[],"categories_segments":[],"categories_sizes":[],"default_left":[0,0,0,0,0,0,0,0,0,0,0,0,0,0,0,0,0],"id":46,"left_children":[1,3,-1,5,7,9,11,13,15,-1,-1,-1,-1,-1,-1,-1,-1],"loss_changes":[6.1785793E1,3.9741886E1,0E0,4.5697823E1,4.411126E1,3.890442E1,3.8588142E1,3.4553543E1,3.9706078E1,0E0,0E0,0E0,0E0,0E0,0E0,0E0,0E0],"parents":[2147483647,0,0,1,1,3,3,4,4,5,5,6,6,7,7,8,8],"right_children":[2,4,-1,6,8,10,12,14,16,-1,-1,-1,-1,-1,-1,-1,-1],"split_conditions":[1.3E1,2.3869E1,1.0036937E-1,7.821E1,2.014E3,6.216E1,1.2E1,3E0,2.018E3,-1.3662385E-2,6.9530524E-2,1.3206417E-2,-7.60498E-2,5.352773E-2,-1.1912797E-1,3.8841866E-2,-3.4795634E-2],"split_indices":[17,3,0,25,2,25,28,1,2,0,0,0,0,0,0,0,0],"split_type":[0,0,0,0,0,0,0,0,0,0,0,0,0,0,0,0,0],"sum_hessian":[1.2333357E3,1.1741052E3,5.9230442E1,6.2624036E2,5.478649E2,3.7266208E2,2.5357826E2,5.407265E1,4.937923E2,3.0478946E2,6.787262E1,6.466219E1,1.8891606E2,1.5751626E1,3.8321026E1,4.0528915E2,8.850313E1],"tree_param":{"num_deleted":"0","num_feature":"31","num_nodes":"17","size_leaf_vector":"1"}},{"base_weights":[-1.0064953E-2,-5.669702E-2,9.992987E-2,9.517145E-2,-2.547567E-1,-2.990193E-1,2.2646813E-1,2.4719451E-1,-4.3927255E-1,2.9040223E-2,-9.307117E-2,2.9636905E-2,-7.862665E-2,-6.2244505E-2,5.1323153E-2,-8.40349E-2,-1.2486529E-2],"categories":[],"categories_nodes":[],"categories_segments":[],"categories_sizes":[],"default_left":[0,0,0,0,0,0,0,1,1,0,0,0,0,0,0,0,0],"id":47,"left_children":[1,3,-1,5,7,9,11,13,15,-1,-1,-1,-1,-1,-1,-1,-1],"loss_changes":[5.6406544E1,3.4472633E1,0E0,3.3654633E1,4.6168888E1,6.0802383E1,3.4734673E1,3.1393726E1,4.579615E1,0E0,0E0,0E0,0E0,0E0,0E0,0E0,0E0],"parents":[2147483647,0,0,1,1,3,3,4,4,5,5,6,6,7,7,8,8],"right_children":[2,4,-1,6,8,10,12,14,16,-1,-1,-1,-1,-1,-1,-1,-1],"split_conditions":[1.3E1,2E0,9.992987E-2,1.5E1,2.63E1,4.8E1,3E0,4E0,6.872034E7,2.9040223E-2,-9.307117E-2,2.9636905E-2,-7.862665E-2,-6.2244505E-2,5.1323153E-2,-8.40349E-2,-1.2486529E-2],"split_indices":[17,30,0,0,25,26,27,6,24,0,0,0,0,0,0,0,0],"split_type":[0,0,0,0,0,0,0,0,0,0,0,0,0,0,0,0,0],"sum_hessian":[1.1961836E3,1.1442631E3,5.1920517E1,6.4794806E2,4.96315E2,1.6157515E2,4.863729E2,1.3331348E2,3.6300153E2,8.3863655E1,7.771149E1,4.5563168E2,3.0741228E1,3.0915413E1,1.0239806E2,1.5877983E2,2.0422171E2],"tree_param":{"num_deleted":"0","num_feature":"31","num_nodes":"17","size_leaf_vector":"1"}},{"base_weights":[2.0148994E-2,-2.3187522E-2,9.967757E-2,-7.431663E-1,6.075959E-3,-1.1201125E-1,1.5908682E-1,3.106432E-1,-6.8695076E-2,-7.985436E-2,9.210875E-2,1.5423301E-2,9.061933E-2,1.4027021E-2,-2.185497E-2],"categories":[],"categories_nodes":[],"categories_segments":[],"categories_sizes":[],"default_left":[0,0,0,1,0,0,0,1,0,0,0,0,0,0,0],"id":48,"left_children":[1,3,-1,5,7,-1,9,11,13,-1,-1,-1,-1,-1,-1],"loss_changes":[5.0607773E1,2.4136707E1,0E0,1.5395618E1,2.5108776E1,0E0,1.099566E1,2.0104027E1,2.7753796E1,0E0,0E0,0E0,0E0,0E0,0E0],"parents":[2147483647,0,0,1,1,3,3,4,4,6,6,7,7,8,8],"right_children":[2,4,-1,6,8,-1,10,12,14,-1,-1,-1,-1,-1,-1],"split_conditions":[1.3E1,1.6E1,9.967757E-2,4.4E4,1E0,-1.1201125E-1,6E0,2.15E2,1.7E1,-7.985436E-2,9.210875E-2,1.5423301E-2,9.061933E-2,1.4027021E-2,-2.185497E-2],"split_indices":[17,26,0,6,17,0,17,6,6,0,0,0,0,0,0],"split_type":[0,0,0,0,0,0,0,0,0,0,0,0,0,0,0],"sum_hessian":[1.1941881E3,1.1443839E3,4.980426E1,4.3743866E1,1.10064E3,3.06834E1,1.3060465E1,2.1632439E2,8.843156E2,5.7660856E0,7.2943797E0,1.723253E2,4.3999073E1,3.693451E2,5.149705E2],"tree_param":{"num_deleted":"0","num_feature":"31","num_nodes":"15","size_leaf_vector":"1"}},{"base_weights":[9.072613E-3,-3.0358955E-2,9.931442E-2,5.2960243E-2,-3.1500965E-1,-3.124324E-1,1.6380008E-1,-5.346697E-1,4.600871E-1,-6.5285645E-2,3.811221E-2,-4.9717665E-2,2.2773502E-2,9.108961E-2,-6.1936665E-2,-8.2747996E-2,9.0248965E-2],"categories":[],"categories_nodes":[],"categories_segments":[],"categories_sizes":[],"default_left":[0,0,0,0,1,0,0,0,0,0,0,0,0,0,0,0,0],"id":49,"left_children":[1,3,-1,5,7,9,11,13,15,-1,-1,-1,-1,-1,-1,-1,-1],"loss_changes":[4.6224983E1,2.7186428E1,0E0,3.5976707E1,4.443445E1,4.907447E1,2.8902525E1,2.538058E1,3.369847E1,0E0,0E0,0E0,0E0,0E0,0E0,0E0,0E0],"parents":[2147483647,0,0,1,1,3,3,4,4,5,5,6,6,7,7,8,8],"right_children":[2,4,-1,6,8,10,12,14,16,-1,-1,-1,-1,-1,-1,-1,-1],"split_conditions":[1.3E1,1.19E2,9.931442E-2,3.6E1,4.83E2,1.22E2,8E0,-1.030132E2,5E0,-6.5285645E-2,3.811221E-2,-4.9717665E-2,2.2773502E-2,9.108961E-2,-6.1936665E-2,-8.2747996E-2,9.0248965E-2],"split_indices":[17,28,0,28,6,26,0,4,17,0,0,0,0,0,0,0,0],"split_type":[0,0,0,0,0,0,0,0,0,0,0,0,0,0,0,0,0],"sum_hessian":[1.1894816E3,1.1445874E3,4.4894257E1,8.8604877E2,2.5853857E2,2.0579845E2,6.802503E2,2.0169034E2,5.684823E1,1.3808134E2,6.77171E1,5.9398304E1,6.2085205E2,1.0623251E1,1.910671E2,1.4315122E1,4.2533108E1],"tree_param":{"num_deleted":"0","num_feature":"31","num_nodes":"17","size_leaf_vector":"1"}},{"base_weights":[-2.0725818E-2,-5.715166E-2,9.880363E-2,7.529681E-2,-2.2515494E-1,-1.4289577E0,1.1808753E-1,-1.01410136E-1,-7.529073E-1,-1.0669273E-1,-2.0191406E-1,-3.1288456E-2,2.5722338E-2,-9.3752675E-2,-1.6886899E-3,-1.10505305E-1,-4.1279208E-2],"categories":[],"categories_nodes":[],"categories_segments":[],"categories_sizes":[],"default_left":[0,0,0,0,0,1,0,0,1,0,0,0,0,0,0,0,0],"id":50,"left_children":[1,3,-1,5,7,9,11,13,15,-1,-1,-1,-1,-1,-1,-1,-1],"loss_changes":[4.2168976E1,2.4651394E1,0E0,4.0063644E1,3.1811872E1,1.5249329E0,3.627294E1,2.8019192E1,1.0633202E1,0E0,0E0,0E0,0E0,0E0,0E0,0E0,0E0],"parents":[2147483647,0,0,1,1,3,3,4,4,5,5,6,6,7,7,8,8],"right_children":[2,4,-1,6,8,10,12,14,16,-1,-1,-1,-1,-1,-1,-1,-1],"split_conditions":[1.3E1,5E0,9.880363E-2,1.6E1,1.1E2,1.68E2,3.2740678E7,2E0,3.4343E1,-1.0669273E-1,-2.0191406E-1,-3.1288456E-2,2.5722338E-2,-9.3752675E-2,-1.6886899E-3,-1.10505305E-1,-4.1279208E-2],"split_indices":[17,17,0,26,26,6,24,29,4,0,0,0,0,0,0,0,0],"split_type":[0,0,0,0,0,0,0,0,0,0,0,0,0,0,0,0,0],"sum_hessian":[1.1450741E3,1.1060775E3,3.8996502E1,6.187927E2,4.8728482E2,1.621958E1,6.025732E2,3.9569608E2,9.158873E1,1.1793186E1,4.4263926E0,1.4675427E2,4.5581888E2,3.5402023E1,3.6029407E2,4.389354E1,4.7695194E1],"tree_param":{"num_deleted":"0","num_feature":"31","num_nodes":"17","size_leaf_vector":"1"}},{"base_weights":[-4.711603E-3,-3.934122E-2,9.861421E-2,1.9777577E-1,-1.09260984E-1,-1.3080788E-2,9.968552E-1,5.002627E-2,-3.0908284E-1,-9.0093866E-2,2.5041072E-2,2.7405277E-1,6.546442E-2,-6.1119616E-2,1.0938245E-2,-1.3521364E-1,-2.0974545E-2],"categories":[],"categories_nodes":[],"categories_segments":[],"categories_sizes":[],"default_left":[0,0,0,0,0,0,0,0,0,0,0,0,0,0,0,0,0],"id":51,"left_children":[1,3,-1,5,7,9,11,13,15,-1,-1,-1,-1,-1,-1,-1,-1],"loss_changes":[3.8859596E1,1.8161415E1,0E0,4.2054386E1,2.6930647E1,4.6642014E1,2.9298706E1,1.8567934E1,3.8594814E1,0E0,0E0,0E0,0E0,0E0,0E0,0E0,0E0],"parents":[2147483647,0,0,1,1,3,3,4,4,5,5,6,6,7,7,8,8],"right_children":[2,4,-1,6,8,10,12,14,16,-1,-1,-1,-1,-1,-1,-1,-1],"split_conditions":[1.3E1,1.85E-2,9.861421E-2,1.22E-2,6E0,2.3869E1,1.25E-2,1.1E1,6E0,-9.0093866E-2,2.5041072E-2,2.7405277E-1,6.546442E-2,-6.1119616E-2,1.0938245E-2,-1.3521364E-1,-2.0974545E-2],"split_indices":[17,7,0,7,1,3,7,28,20,0,0,0,0,0,0,0,0],"split_type":[0,0,0,0,0,0,0,0,0,0,0,0,0,0,0,0,0],"sum_hessian":[1.1303768E3,1.0931329E3,3.7243908E1,2.4851662E2,8.4461633E2,1.9740906E2,5.1107555E1,4.7039352E2,3.7422278E2,4.4624302E1,1.5278476E2,7.234945E0,4.3872612E1,3.7981865E1,4.3241165E2,3.1444155E1,3.4277863E2],"tree_param":{"num_deleted":"0","num_feature":"31","num_nodes":"17","size_leaf_vector":"1"}},{"base_weights":[6.0435597E-2,3.3429384E-2,9.810417E-2,-2.9797837E-1,1.1654689E-1,2.9454193E-1,-7.036918E-1,2.7163786E-1,-8.346574E-2,1.6162522E-1,-3.4669846E-2,-1.0102024E-1,9.161555E-3,-4.7788497E-2,3.790713E-2,-1.1319324E-1,2.9741535E-3],"categories":[],"categories_nodes":[],"categories_segments":[],"categories_sizes":[],"default_left":[0,0,0,0,0,0,1,0,0,0,0,0,0,0,0,0,0],"id":52,"left_children":[1,3,-1,5,7,9,11,13,15,-1,-1,-1,-1,-1,-1,-1,-1],"loss_changes":[2.8975014E1,3.1286324E1,0E0,5.4961487E1,2.8181637E1,7.961618E1,3.31214E1,4.1371853E1,4.7182426E1,0E0,0E0,0E0,0E0,0E0,0E0,0E0,0E0],"parents":[2147483647,0,0,1,1,3,3,4,4,5,5,6,6,7,7,8,8],"right_children":[2,4,-1,6,8,10,12,14,16,-1,-1,-1,-1,-1,-1,-1,-1],"split_conditions":[1.3E1,2.014E3,9.810417E-2,2.006E3,2E0,1.2E1,1.060428E2,1.3E1,3.5E1,1.6162522E-1,-3.4669846E-2,-1.0102024E-1,9.161555E-3,-4.7788497E-2,3.790713E-2,-1.1319324E-1,2.9741535E-3],"split_indices":[17,2,0,2,30,0,4,0,28,0,0,0,0,0,0,0,0],"split_type":[0,0,0,0,0,0,0,0,0,0,0,0,0,0,0,0,0],"sum_hessian":[1.165749E3,1.1335328E3,3.2216156E1,2.267692E2,9.067636E2,9.2277466E1,1.3449173E2,5.1053427E2,3.9622937E2,2.9647728E1,6.2629738E1,9.6882935E1,3.7608795E1,6.3571518E1,4.4696274E2,3.773634E1,3.5849304E2],"tree_param":{"num_deleted":"0","num_feature":"31","num_nodes":"17","size_leaf_vector":"1"}},{"base_weights":[-4.0153144E-3,-3.1479593E-2,9.77517E-2,-8.8861704E-1,-4.2441664E-3,-2.1394007E-1,-2.1233974E-1,3.2386917E-1,-8.43109E-2,5.041486E-2,-1.1676496E-1,-5.529036E-2,5.4168917E-2,6.2562055E-3,-2.7651448E-2],"categories":[],"categories_nodes":[],"categories_segments":[],"categories_sizes":[],"default_left":[0,0,0,0,0,0,0,0,0,0,0,0,0,0,0],"id":53,"left_children":[1,3,-1,5,7,-1,9,11,13,-1,-1,-1,-1,-1,-1],"loss_changes":[3.0542078E1,2.5722065E1,0E0,2.824885E1,2.8112947E1,0E0,1.642373E1,4.03881E1,2.4299303E1,0E0,0E0,0E0,0E0,0E0,0E0],"parents":[2147483647,0,0,1,1,3,3,4,4,6,6,7,7,8,8],"right_children":[2,4,-1,6,8,-1,10,12,14,-1,-1,-1,-1,-1,-1],"split_conditions":[1.3E1,1.2E-3,9.77517E-2,1.975E3,1.63E-2,-2.1394007E-1,2.2E1,1.3E1,6E0,5.041486E-2,-1.1676496E-1,-5.529036E-2,5.4168917E-2,6.2562055E-3,-2.7651448E-2],"split_indices":[17,7,0,5,7,0,0,0,1,0,0,0,0,0,0],"split_type":[0,0,0,0,0,0,0,0,0,0,0,0,0,0,0],"sum_hessian":[1.1308478E3,1.1010084E3,2.9839413E1,3.2933E1,1.0680754E3,1.07981615E1,2.2134836E1,2.0891148E2,8.5916394E2,1.29183E1,9.216537E0,4.1266495E1,1.6764499E2,4.8739444E2,3.7176947E2],"tree_param":{"num_deleted":"0","num_feature":"31","num_nodes":"15","size_leaf_vector":"1"}},{"base_weights":[-3.8472578E-2,1.4900461E-1,-1.9674625E-1,-7.261319E-1,2.2736795E-1,-3.874181E-1,8.891559E-2,1.2495459E-1,-1.0121099E-1,-7.27417E-1,2.8656104E-1,-1.0476089E0,-2.4122466E-1,1.6223766E-1,-1.5178023E-1,1.0056736E-1,-8.4210835E-2,9.7711734E-2,-1.0938519E-1,1.8974436E-2,8.523187E-2,-3.1606436E-2,-1.258917E-1,5.085894E-3,-5.4512925E-2,2.2523103E-2,-1.5017502E-1],"categories":[],"categories_nodes":[],"categories_segments":[],"categories_sizes":[],"default_left":[1,0,0,0,0,0,1,0,0,0,1,0,0,1,0,0,0,0,0,0,0,0,0,0,0,0,0],"id":54,"left_children":[1,3,5,7,9,11,13,15,-1,17,19,21,23,25,-1,-1,-1,-1,-1,-1,-1,-1,-1,-1,-1,-1,-1],"loss_changes":[3.218197E1,3.4220955E1,3.2060402E1,1.01179905E1,2.6010841E1,3.3798412E1,2.8069702E1,1.0398564E1,0E0,1.7892054E1,2.3424858E1,9.443138E0,2.5782326E1,2.4108585E1,0E0,0E0,0E0,0E0,0E0,0E0,0E0,0E0,0E0,0E0,0E0,0E0,0E0],"parents":[2147483647,0,0,1,1,2,2,3,3,4,4,5,5,6,6,7,7,9,9,10,10,11,11,12,12,13,13],"right_children":[2,4,6,8,10,12,14,16,-1,18,20,22,24,26,-1,-1,-1,-1,-1,-1,-1,-1,-1,-1,-1,-1,-1],"split_conditions":[7.821E1,1.773E1,1.060232E2,5E0,-6.53178E1,1.3E1,6.818E-1,1.2E1,-1.0121099E-1,6E0,8.571E-1,1E1,2.6E1,1.594E3,-1.5178023E-1,1.0056736E-1,-8.4210835E-2,9.7711734E-2,-1.0938519E-1,1.8974436E-2,8.523187E-2,-3.1606436E-2,-1.258917E-1,5.085894E-3,-5.4512925E-2,2.2523103E-2,-1.5017502E-1],"split_indices":[25,25,4,6,4,0,7,0,0,0,7,5,0,5,0,0,0,0,0,0,0,0,0,0,0,0,0],"split_type":[0,0,0,0,0,0,0,0,0,0,0,0,0,0,0,0,0,0,0,0,0,0,0,0,0,0,0],"sum_hessian":[1.0825768E3,4.9559583E2,5.86981E2,4.005116E1,4.5554465E2,3.5180447E2,2.3517654E2,1.0214698E1,2.983646E1,2.5934366E1,4.296103E2,6.2662544E1,2.891419E2,2.2577252E2,9.404034E0,5.3251114E0,4.889587E0,4.2939196E0,2.1640446E1,3.6797504E2,6.163526E1,1.4603E1,4.8059547E1,1.4786299E2,1.4127893E2,2.1837035E2,7.402175E0],"tree_param":{"num_deleted":"0","num_feature":"31","num_nodes":"27","size_leaf_vector":"1"}},{"base_weights":[2.4251759E-2,-5.4860266E-4,9.7420536E-2,-8.111185E-1,2.7263293E-2,5.783358E-2,-1.09893225E-1,4.7122493E-2,-1.0351036E0,3.6180742E-2,-2.5028202E-3,2.4995305E-2,-1.2853532E-1],"categories":[],"categories_nodes":[],"categories_segments":[],"categories_sizes":[],"default_left":[0,0,0,0,0,0,0,0,0,0,0,0,0],"id":55,"left_children":[1,3,-1,5,7,-1,-1,9,11,-1,-1,-1,-1],"loss_changes":[2.6363876E1,2.4629549E1,0E0,1.5129269E1,2.2334568E1,0E0,0E0,2.3573936E1,6.5687714E0,0E0,0E0,0E0,0E0],"parents":[2147483647,0,0,1,1,3,3,4,4,7,7,8,8],"right_children":[2,4,-1,6,8,-1,-1,10,12,-1,-1,-1,-1],"split_conditions":[1.3E1,-5.69471E1,9.7420536E-2,5E0,1.659E3,5.783358E-2,-1.09893225E-1,1E0,-1.02397E1,3.6180742E-2,-2.5028202E-3,2.4995305E-2,-1.2853532E-1],"split_indices":[17,4,0,0,11,0,0,17,3,0,0,0,0],"split_type":[0,0,0,0,0,0,0,0,0,0,0,0,0],"sum_hessian":[1.1180256E3,1.0905541E3,2.7471586E1,3.5242977E1,1.0553112E3,5.8743706E0,2.9368608E1,1.0368839E3,1.8427197E1,1.9264575E2,8.4423816E2,3.0037627E0,1.5423433E1],"tree_param":{"num_deleted":"0","num_feature":"31","num_nodes":"13","size_leaf_vector":"1"}},{"base_weights":[8.518081E-3,-1.4831209E-2,9.7042456E-2,-7.156334E-1,1.1731958E-2,-1.3753884E0,-2.3017955E-1,-9.822503E-2,1.7861862E-1,-1.0444126E-1,-1.8308021E-1,-1.0243385E-1,7.592407E-2,-4.071374E-2,7.3309103E-3,2.4793651E-2,-5.3819098E-2],"categories":[],"categories_nodes":[],"categories_segments":[],"categories_sizes":[],"default_left":[0,0,0,0,0,1,1,0,0,0,0,0,0,0,0,0,0],"id":56,"left_children":[1,3,-1,5,7,9,11,13,15,-1,-1,-1,-1,-1,-1,-1,-1],"loss_changes":[2.4908058E1,2.0170532E1,0E0,1.2356903E1,1.918471E1,5.859051E-1,1.9633728E1,3.3428665E1,2.0764517E1,0E0,0E0,0E0,0E0,0E0,0E0,0E0,0E0],"parents":[2147483647,0,0,1,1,3,3,4,4,5,5,6,6,7,7,8,8],"right_children":[2,4,-1,6,8,10,12,14,16,-1,-1,-1,-1,-1,-1,-1,-1],"split_conditions":[1.3E1,1.6E1,9.7042456E-2,5E0,2.667E0,1.68E2,4.4E4,1.8E1,1E3,-1.0444126E-1,-1.8308021E-1,-1.0243385E-1,7.592407E-2,-4.071374E-2,7.3309103E-3,2.4793651E-2,-5.3819098E-2],"split_indices":[17,26,0,17,12,6,6,0,12,0,0,0,0,0,0,0,0],"split_type":[0,0,0,0,0,0,0,0,0,0,0,0,0,0,0,0,0],"sum_hessian":[1.1073638E3,1.0820819E3,2.5281843E1,3.856996E1,1.043512E3,1.5572705E1,2.2997255E1,6.2929706E2,4.142149E2,1.09256935E1,4.6470118E0,1.2737887E1,1.0259367E1,2.2418796E2,4.0510907E2,3.7828738E2,3.592754E1],"tree_param":{"num_deleted":"0","num_feature":"31","num_nodes":"17","size_leaf_vector":"1"}},{"base_weights":[6.918159E-3,3.9679717E-2,-5.872343E-1,1.6111928E-1,-1.232621E-1,4.0400884E-1,-1.0837386E0,-1.3615985E-1,3.0994484E-1,4.062384E-1,-2.521088E-1,-1.13613605E-1,1.5042161E0,-1.144797E-1,-3.8224548E-2,2.9961703E-2,-9.1104075E-2,-1.2269881E-2,5.014178E-2,-1.03138566E-1,6.5482356E-2,-3.3185452E-3,-6.035737E-2,2.1249643E-1,5.9241183E-2],"categories":[],"categories_nodes":[],"categories_segments":[],"categories_sizes":[],"default_left":[1,0,0,0,0,0,0,0,0,0,0,0,0,0,0,0,0,0,0,0,0,0,0,0,0],"id":57,"left_children":[1,3,5,7,9,11,13,15,17,19,21,-1,23,-1,-1,-1,-1,-1,-1,-1,-1,-1,-1,-1,-1],"loss_changes":[2.1252474E1,2.049122E1,2.8518826E1,2.6287092E1,3.0281727E1,3.5208874E1,1.2023201E0,6.733314E1,3.2833557E1,3.1751377E1,2.7402502E1,0E0,5.5118484E0,0E0,0E0,0E0,0E0,0E0,0E0,0E0,0E0,0E0,0E0,0E0,0E0],"parents":[2147483647,0,0,1,1,2,2,3,3,4,4,5,5,6,6,7,7,8,8,9,9,10,10,12,12],"right_children":[2,4,6,8,10,12,14,16,18,20,22,-1,24,-1,-1,-1,-1,-1,-1,-1,-1,-1,-1,-1,-1],"split_conditions":[2.7921E2,2E0,2.005E3,1.7E1,1.09E-2,2E0,1.2E1,6E1,5.2E1,1.12E2,7E0,-1.13613605E-1,1.1E1,-1.144797E-1,-3.8224548E-2,2.9961703E-2,-9.1104075E-2,-1.2269881E-2,5.014178E-2,-1.03138566E-1,6.5482356E-2,-3.3185452E-3,-6.035737E-2,2.1249643E-1,5.9241183E-2],"split_indices":[25,30,2,0,7,30,17,26,26,28,1,0,28,0,0,0,0,0,0,0,0,0,0,0,0],"split_type":[0,0,0,0,0,0,0,0,0,0,0,0,0,0,0,0,0,0,0,0,0,0,0,0,0],"sum_hessian":[1.0896129E3,1.0335559E3,5.6057037E1,5.922023E2,4.413536E2,1.8770021E1,3.7287014E1,1.9759377E2,3.946085E2,8.595702E1,3.5539658E2,7.807665E0,1.0962357E1,3.3720055E1,3.5669603E0,1.2686235E2,7.073141E1,1.21172295E2,2.7343622E2,1.220776E1,7.374927E1,2.1966452E2,1.3573206E2,5.730547E0,5.2318096E0],"tree_param":{"num_deleted":"0","num_feature":"31","num_nodes":"25","size_leaf_vector":"1"}},{"base_weights":[-1.4245334E-2,-7.784033E-1,1.1548591E-2,-4.569151E-1,-1.313128E-1,8.072501E-2,-2.329363E-1,-8.316893E-1,3.960881E-1,-1.0439849E-1,1.0205604E-1,-7.5080985E-1,8.4395535E-2,-4.419966E-3,-1.0258223E-1,5.264723E-2,1.9065017E-2,1.596058E-2,-2.7542654E-2,-8.775208E-2,6.269319E-2,2.2924503E-2,-1.1410735E-1],"categories":[],"categories_nodes":[],"categories_segments":[],"categories_sizes":[],"default_left":[0,0,0,0,0,0,0,0,0,0,1,1,0,0,0,0,0,0,0,0,0,0,0],"id":58,"left_children":[1,3,5,7,-1,9,11,13,15,-1,17,19,21,-1,-1,-1,-1,-1,-1,-1,-1,-1,-1],"loss_changes":[2.0783613E1,5.3187504E0,1.7278961E1,7.6935954E0,0E0,1.9208742E1,3.7094368E1,2.4506683E0,1.0611963E-1,0E0,1.7038826E1,1.5513977E1,2.522265E1,0E0,0E0,0E0,0E0,0E0,0E0,0E0,0E0,0E0,0E0],"parents":[2147483647,0,0,1,1,2,2,3,3,5,5,6,6,7,7,8,8,10,10,11,11,12,12],"right_children":[2,4,6,8,-1,10,12,14,16,-1,18,20,22,-1,-1,-1,-1,-1,-1,-1,-1,-1,-1],"split_conditions":[1.6E1,1E0,1.19E2,1E0,-1.313128E-1,-6.53178E1,1.78E2,1.6E1,1.9E1,-1.0439849E-1,2.102E3,5.55938E1,2.35594E1,-4.419966E-3,-1.0258223E-1,5.264723E-2,1.9065017E-2,1.596058E-2,-2.7542654E-2,-8.775208E-2,6.269319E-2,2.2924503E-2,-1.1410735E-1],"split_indices":[26,18,28,22,0,4,28,0,0,0,19,7,4,0,0,0,0,0,0,0,0,0,0],"split_type":[0,0,0,0,0,0,0,0,0,0,0,0,0,0,0,0,0,0,0,0,0,0,0],"sum_hessian":[1.0529806E3,3.342975E1,1.01955084E3,2.2035818E1,1.139393E1,7.952161E2,2.243347E2,1.5326832E1,6.7089863E0,1.3908864E1,7.8130725E2,8.471577E1,1.3961894E2,3.2739427E0,1.2052889E1,3.1482322E0,3.560754E0,6.784502E2,1.028571E2,7.791316E1,6.802604E0,1.25587524E2,1.4031414E1],"tree_param":{"num_deleted":"0","num_feature":"31","num_nodes":"23","size_leaf_vector":"1"}},{"base_weights":[-7.266319E-3,2.3097129E-1,-7.755525E-2,-4.4190583E-1,4.0634263E-1,-1.3687974E-1,3.1183E-1,-1.5531578E0,4.8539105E-1,-2.3722704E-1,7.226318E-1,-5.245184E-2,-5.060851E-1,5.081305E-1,-4.4064233E-1,-2.28964E-1,-7.891383E-2,-1.3093197E-1,7.8894615E-2,-7.23635E-4,-1.8526827E-1,2.4429058E-1,5.9742082E-2,8.109297E-2,-9.928212E-3,-6.48869E-2,8.008619E-2,8.7587245E-2,-5.583255E-3,8.1729434E-2,-1.3821213E-1],"categories":[],"categories_nodes":[],"categories_segments":[],"categories_sizes":[],"default_left":[0,0,1,0,0,0,0,0,0,0,0,1,0,0,0,0,0,0,0,0,0,0,0,0,0,0,0,0,0,0,0],"id":59,"left_children":[1,3,5,7,9,11,13,15,17,19,21,23,25,27,29,-1,-1,-1,-1,-1,-1,-1,-1,-1,-1,-1,-1,-1,-1,-1,-1],"loss_changes":[1.7711983E1,2.8615826E1,1.8907827E1,5.258623E1,3.9188324E1,2.2086075E1,1.6217726E1,1.1201744E1,1.6386072E1,2.3733175E1,2.6276031E1,2.3469807E1,2.5136017E1,1.7955164E1,2.8295815E1,0E0,0E0,0E0,0E0,0E0,0E0,0E0,0E0,0E0,0E0,0E0,0E0,0E0,0E0,0E0,0E0],"parents":[2147483647,0,0,1,1,2,2,3,3,4,4,5,5,6,6,7,7,8,8,9,9,10,10,11,11,12,12,13,13,14,14],"right_children":[2,4,6,8,10,12,14,16,18,20,22,24,26,28,30,-1,-1,-1,-1,-1,-1,-1,-1,-1,-1,-1,-1,-1,-1,-1,-1],"split_conditions":[1.63E-2,1.4E1,2.8E2,4.143E0,4.5E-3,2.018E3,3E1,1.942E1,4E0,1E1,1.65E2,4.571189E6,3.3E1,1E0,3.7E2,-2.28964E-1,-7.891383E-2,-1.3093197E-1,7.8894615E-2,-7.23635E-4,-1.8526827E-1,2.4429058E-1,5.9742082E-2,8.109297E-2,-9.928212E-3,-6.48869E-2,8.008619E-2,8.7587245E-2,-5.583255E-3,8.1729434E-2,-1.3821213E-1],"split_indices":[7,0,6,12,7,2,0,25,6,1,5,24,0,18,6,0,0,0,0,0,0,0,0,0,0,0,0,0,0,0,0],"split_type":[0,0,0,0,0,0,0,0,0,0,0,0,0,0,0,0,0,0,0,0,0,0,0,0,0,0,0,0,0,0,0],"sum_hessian":[1.0556483E3,2.399784E2,8.156699E2,4.9300175E1,1.9067822E2,7.0839185E2,1.0727803E2,2.2118692E1,2.718148E1,6.2913967E1,1.2776426E2,5.774791E2,1.3091277E2,8.5339806E1,2.1938221E1,1.0245569E1,1.1873123E1,3.4529998E0,2.372848E1,5.595254E1,6.961424E0,7.412578E0,1.20351685E2,2.887175E1,5.4860736E2,1.1847311E2,1.2439656E1,5.1321598E1,3.401821E1,9.4473095E0,1.2490912E1],"tree_param":{"num_deleted":"0","num_feature":"31","num_nodes":"31","size_leaf_vector":"1"}},{"base_weights":[-1.0923365E-2,-3.4229502E-2,9.6790984E-2,-1.2256552E-2,-1.03780665E-1,-8.071133E-2,2.5085357E-1,-8.89951E-2,-2.2321737E-3,8.696776E-2,-1.4075503E-3],"categories":[],"categories_nodes":[],"categories_segments":[],"categories_sizes":[],"default_left":[0,0,0,0,0,0,0,0,0,0,0],"id":60,"left_children":[1,3,-1,5,-1,7,9,-1,-1,-1,-1],"loss_changes":[2.4467314E1,2.3078098E1,0E0,1.8494379E1,0E0,3.847545E1,3.4770153E1,0E0,0E0,0E0,0E0],"parents":[2147483647,0,0,1,1,3,3,5,5,6,6],"right_children":[2,4,-1,6,-1,8,10,-1,-1,-1,-1],"split_conditions":[1.3E1,3.0352E2,9.6790984E-2,3.9E1,-1.03780665E-1,2E0,1.4074E0,-8.89951E-2,-2.2321737E-3,8.696776E-2,-1.4075503E-3],"split_indices":[17,25,0,0,0,29,3,0,0,0,0],"split_type":[0,0,0,0,0,0,0,0,0,0,0],"sum_hessian":[1.0700724E3,1.0461289E3,2.3943428E1,1.0247057E3,2.1423336E1,8.136954E2,2.1101027E2,5.380153E1,7.5989386E2,6.257178E1,1.4843849E2],"tree_param":{"num_deleted":"0","num_feature":"31","num_nodes":"11","size_leaf_vector":"1"}},{"base_weights":[4.3126058E-2,-3.1542763E-1,1.12582445E-1,-8.238549E-2,-1.1586349E0,8.976109E-1,7.96538E-2,-1.0648637E-1,4.714484E-2,-5.6198783E-2,-1.1980939E-1,-4.3209028E-1,1.3648076E0,1.2428173E-1,-3.130331E-1,1.305987E-1,-2.4459435E-2,5.7126135E-2,-1.1499008E-1,1.7614895E-1,7.283674E-2,6.605952E-5,3.4568463E-2,5.3643235E-3,-1.1496937E-1],"categories":[],"categories_nodes":[],"categories_segments":[],"categories_sizes":[],"default_left":[0,1,1,0,0,0,0,0,0,0,0,1,1,0,0,0,0,0,0,0,0,0,0,0,0],"id":61,"left_children":[1,3,5,7,9,11,13,-1,15,-1,-1,17,19,21,23,-1,-1,-1,-1,-1,-1,-1,-1,-1,-1],"loss_changes":[2.6836512E1,3.4273415E1,2.3252281E1,1.7625832E1,2.1650696E-1,2.3094296E1,1.5233797E1,0E0,4.5483418E1,0E0,0E0,7.9874644E0,5.5455093E0,2.1328838E1,2.7293823E1,0E0,0E0,0E0,0E0,0E0,0E0,0E0,0E0,0E0,0E0],"parents":[2147483647,0,0,1,1,2,2,3,3,4,4,5,5,6,6,8,8,11,11,12,12,13,13,14,14],"right_children":[2,4,6,8,10,12,14,-1,16,-1,-1,18,20,22,24,-1,-1,-1,-1,-1,-1,-1,-1,-1,-1],"split_conditions":[1.5099727E7,2.3E-3,1.6950796E7,9.71E2,3E0,1.8E1,2.3849E2,-1.0648637E-1,1.148E3,-5.6198783E-2,-1.1980939E-1,7E0,9E0,2.75E0,1.125E0,1.305987E-1,-2.4459435E-2,5.7126135E-2,-1.1499008E-1,1.7614895E-1,7.283674E-2,6.605952E-5,3.4568463E-2,5.3643235E-3,-1.1496937E-1],"split_indices":[24,7,24,19,1,0,25,0,19,0,0,19,19,12,12,0,0,0,0,0,0,0,0,0,0],"split_type":[0,0,0,0,0,0,0,0,0,0,0,0,0,0,0,0,0,0,0,0,0,0,0,0,0],"sum_hessian":[1.0751792E3,1.7390266E2,9.012765E2,1.3710724E2,3.679543E1,3.5225727E1,8.660508E2,1.5129571E1,1.2197766E2,3.2280135E0,3.3567413E1,9.17829E0,2.6047438E1,7.782842E2,8.776662E1,2.229578E1,9.9681885E1,3.9129505E0,5.26534E0,1.4957173E1,1.1090263E1,5.0007077E2,2.782134E2,6.167341E1,2.609321E1],"tree_param":{"num_deleted":"0","num_feature":"31","num_nodes":"25","size_leaf_vector":"1"}},{"base_weights":[4.412482E-2,2.448846E-2,9.624222E-2,1.3536905E-1,-1.2344593E-1,2.3594777E-1,-2.894304E-1,5.757272E-2,-6.412211E-1,9.265469E-2,1.708336E-2,-1.2158451E-1,-3.735418E-4,-7.803244E-2,1.3396479E-2,2.785568E-2,-8.495187E-2],"categories":[],"categories_nodes":[],"categories_segments":[],"categories_sizes":[],"default_left":[0,0,0,0,0,0,0,1,0,0,0,0,0,0,0,0,0],"id":62,"left_children":[1,3,-1,5,7,9,11,13,15,-1,-1,-1,-1,-1,-1,-1,-1],"loss_changes":[1.9167274E1,1.7125256E1,0E0,2.5560385E1,4.1967133E1,2.155996E1,3.0345678E1,2.1380749E1,2.2455044E1,0E0,0E0,0E0,0E0,0E0,0E0,0E0,0E0],"parents":[2147483647,0,0,1,1,3,3,4,4,5,5,6,6,7,7,8,8],"right_children":[2,4,-1,6,8,10,12,14,16,-1,-1,-1,-1,-1,-1,-1,-1],"split_conditions":[1.3E1,5E0,9.624222E-2,1.19E2,8.8E4,2.006E3,2.016E3,1.1513149E7,5.513282E6,9.265469E-2,1.708336E-2,-1.2158451E-1,-3.735418E-4,-7.803244E-2,1.3396479E-2,2.785568E-2,-8.495187E-2],"split_indices":[17,17,0,28,6,2,2,24,24,0,0,0,0,0,0,0,0],"split_type":[0,0,0,0,0,0,0,0,0,0,0,0,0,0,0,0,0],"sum_hessian":[1.0632649E3,1.0420099E3,2.1255089E1,5.956442E2,4.463656E2,4.819732E2,1.1367104E2,3.3139566E2,1.14969955E2,4.038815E1,4.4158505E2,2.6024954E1,8.764609E1,2.6919344E1,3.044763E2,2.1166765E1,9.380319E1],"tree_param":{"num_deleted":"0","num_feature":"31","num_nodes":"17","size_leaf_vector":"1"}},{"base_weights":[8.260858E-3,-3.7362868E-1,5.613238E-2,-1.0969616E0,1.4251204E-1,1.69473E-1,-1.0243849E-1,-1.17575444E-1,-4.018565E-2,5.841012E-1,-8.880703E-1,-3.789528E-1,2.5656205E-1,-7.2613424E-1,1.4261167E-1,-9.549468E-2,8.222409E-2,4.1282024E-2,-1.6714987E-1,3.7811913E-2,-8.49222E-2,4.8675068E-2,8.365976E-3,-3.4577888E-2,-1.07748985E-1,4.9527597E-2,-4.086211E-3],"categories":[],"categories_nodes":[],"categories_segments":[],"categories_sizes":[],"default_left":[0,0,0,0,0,0,1,0,0,0,0,0,1,0,0,0,0,0,0,0,0,0,0,0,0,0,0],"id":63,"left_children":[1,3,5,7,9,11,13,-1,-1,15,17,19,21,23,25,-1,-1,-1,-1,-1,-1,-1,-1,-1,-1,-1,-1],"loss_changes":[1.9124477E1,4.3661575E1,1.6721504E1,2.1914978E0,3.1869827E1,2.6002857E1,5.9409622E1,0E0,0E0,1.8681313E1,2.2154068E1,2.692754E1,1.8612011E1,1.4276859E1,1.8099798E1,0E0,0E0,0E0,0E0,0E0,0E0,0E0,0E0,0E0,0E0,0E0,0E0],"parents":[2147483647,0,0,1,1,2,2,3,3,4,4,5,5,6,6,9,9,10,10,11,11,12,12,13,13,14,14],"right_children":[2,4,6,8,10,12,14,-1,-1,16,18,20,22,24,26,-1,-1,-1,-1,-1,-1,-1,-1,-1,-1,-1,-1],"split_conditions":[1.1513149E7,1E0,2E0,1.2E1,1.1E1,1.3E1,1.03488E1,-1.17575444E-1,-4.018565E-2,9.3E1,1E1,3.126E1,1.15039E1,3E1,6.463E1,-9.549468E-2,8.222409E-2,4.1282024E-2,-1.6714987E-1,3.7811913E-2,-8.49222E-2,4.8675068E-2,8.365976E-3,-3.4577888E-2,-1.07748985E-1,4.9527597E-2,-4.086211E-3],"split_indices":[24,21,30,17,22,0,3,0,0,26,0,25,3,26,25,0,0,0,0,0,0,0,0,0,0,0,0],"split_type":[0,0,0,0,0,0,0,0,0,0,0,0,0,0,0,0,0,0,0,0,0,0,0,0,0,0,0],"sum_hessian":[1.043956E3,1.15529335E2,9.2842676E2,4.764004E1,6.78893E1,5.4139136E2,3.870354E2,4.216859E1,5.471448E0,4.782866E1,2.0060637E1,7.3731384E1,4.6765997E2,1.0861864E2,2.7841675E2,6.0056095E0,4.182305E1,7.7179556E0,1.2342682E1,2.8326069E1,4.540532E1,1.9982004E2,2.6783994E2,5.3109634E1,5.5509003E1,9.469645E1,1.837203E2],"tree_param":{"num_deleted":"0","num_feature":"31","num_nodes":"27","size_leaf_vector":"1"}},{"base_weights":[3.605257E-3,-1.00922816E-1,2.0947555E-2,4.7996793E-2,-5.905074E-1,6.2293388E-2,-9.098417E-2,4.762932E-2,-1.2249713E0,3.3127204E-2,1.5198316E-3,-7.050472E-2,7.304671E-2,-8.41524E-4,-1.4154693E-1],"categories":[],"categories_nodes":[],"categories_segments":[],"categories_sizes":[],"default_left":[1,0,0,0,0,0,0,0,0,0,0,0,0,0,0],"id":64,"left_children":[1,-1,3,5,7,9,-1,11,13,-1,-1,-1,-1,-1,-1],"loss_changes":[1.8549423E1,0E0,1.719741E1,1.3682309E1,1.7893663E1,1.242594E1,0E0,1.22973175E1,5.1159935E0,0E0,0E0,0E0,0E0,0E0,0E0],"parents":[2147483647,0,0,2,2,3,3,4,4,5,5,7,7,8,8],"right_children":[2,-1,4,6,8,10,-1,12,14,-1,-1,-1,-1,-1,-1],"split_conditions":[1.648E1,-1.00922816E-1,7.672E2,3.0352E2,5.086E1,6.8E-3,-9.098417E-2,8.52E2,9.208163E6,3.3127204E-2,1.5198316E-3,-7.050472E-2,7.304671E-2,-8.41524E-4,-1.4154693E-1],"split_indices":[25,0,12,25,25,7,0,8,24,0,0,0,0,0,0],"split_type":[0,0,0,0,0,0,0,0,0,0,0,0,0,0,0],"sum_hessian":[1.0538495E3,1.6777996E1,1.0370714E3,9.9401996E2,4.305146E1,9.8032275E2,1.3697227E1,2.1924736E1,2.1126724E1,1.4516928E2,8.3515344E2,1.041357E1,1.1511165E1,3.0016692E0,1.8125053E1],"tree_param":{"num_deleted":"0","num_feature":"31","num_nodes":"15","size_leaf_vector":"1"}},{"base_weights":[2.667723E-2,-7.2186744E-1,5.192739E-2,5.729265E-2,-1.0597654E-1,4.4350305E-1,2.8432044E-3,1.3193436E0,2.3510997E-1,-1.0251884E0,4.3707773E-2,5.494953E-2,2.3880744E-1,-7.855402E-3,9.847671E-2,-1.1040914E-1,-3.2913975E-2,2.3349847E-3,8.844674E-2],"categories":[],"categories_nodes":[],"categories_segments":[],"categories_sizes":[],"default_left":[1,0,0,0,0,1,0,0,0,0,1,0,0,0,0,0,0,0,0],"id":65,"left_children":[1,3,5,-1,-1,7,9,11,13,15,17,-1,-1,-1,-1,-1,-1,-1,-1],"loss_changes":[1.9424484E1,1.5280304E1,1.9087864E1,0E0,0E0,1.9880436E1,3.716322E1,1.6002808E1,2.1375662E1,1.4940033E0,1.4540712E1,0E0,0E0,0E0,0E0,0E0,0E0,0E0,0E0],"parents":[2147483647,0,0,1,1,2,2,5,5,6,6,7,7,8,8,9,9,10,10],"right_children":[2,4,6,-1,-1,8,10,12,14,16,18,-1,-1,-1,-1,-1,-1,-1,-1],"split_conditions":[-5.69471E1,2E0,-9.1158E0,5.729265E-2,-1.0597654E-1,3E0,3.9929E0,2E0,1.75E1,1.2E1,6.9E1,5.494953E-2,2.3880744E-1,-7.855402E-3,9.847671E-2,-1.1040914E-1,-3.2913975E-2,2.3349847E-3,8.844674E-2],"split_indices":[4,1,4,0,0,19,4,30,13,17,23,0,0,0,0,0,0,0,0],"split_type":[0,0,0,0,0,0,0,0,0,0,0,0,0,0,0,0,0,0,0],"sum_hessian":[1.0247197E3,3.2537975E1,9.921817E2,6.5900264E0,2.5947948E1,1.09622E2,8.8255975E2,2.004505E1,8.957695E1,3.2819927E1,8.497398E2,1.2531954E1,7.5130954E0,6.3784214E1,2.5792736E1,2.8951775E1,3.8681538E0,8.306543E2,1.9085468E1],"tree_param":{"num_deleted":"0","num_feature":"31","num_nodes":"19","size_leaf_vector":"1"}},{"base_weights":[7.905009E-3,-1.2232963E-2,9.598119E-2,-1.9846003E-1,7.983908E-2,-3.831764E-1,3.338827E-1,-1.0429827E-1,1.15111716E-1,-5.9836823E-2,3.2379474E-2,6.363066E-2,-3.3263586E-2,-6.0078032E-2,1.5807174E-2],"categories":[],"categories_nodes":[],"categories_segments":[],"categories_sizes":[],"default_left":[0,0,0,1,0,0,0,0,0,0,0,0,0,0,0],"id":66,"left_children":[1,3,-1,5,7,9,11,-1,13,-1,-1,-1,-1,-1,-1],"loss_changes":[1.9679129E1,1.7259996E1,0E0,3.287393E1,2.6801598E1,3.7876495E1,1.7611172E1,0E0,2.0210865E1,0E0,0E0,0E0,0E0,0E0,0E0],"parents":[2147483647,0,0,1,1,3,3,4,4,5,5,6,6,8,8],"right_children":[2,4,-1,6,8,10,12,-1,14,-1,-1,-1,-1,-1,-1],"split_conditions":[1.3E1,1.03488E1,9.598119E-2,2.8E2,2.3E1,3.9E1,2.4E1,-1.0429827E-1,2E0,-5.9836823E-2,3.2379474E-2,6.363066E-2,-3.3263586E-2,-6.0078032E-2,1.5807174E-2],"split_indices":[17,3,0,6,26,0,0,0,29,0,0,0,0,0,0],"split_type":[0,0,0,0,0,0,0,0,0,0,0,0,0,0,0],"sum_hessian":[1.0249742E3,1.0047064E3,2.026782E1,3.3201324E2,6.726932E2,2.4669376E2,8.531948E1,1.9618393E1,6.530748E2,1.8924416E2,5.7449596E1,5.872096E1,2.659852E1,3.6236694E1,6.1683813E2],"tree_param":{"num_deleted":"0","num_feature":"31","num_nodes":"15","size_leaf_vector":"1"}},{"base_weights":[4.3907043E-4,7.385187E-2,-2.7661324E-1,-1.0310451E-1,9.362367E-2,-7.1011007E-1,-7.080283E-4,7.3588175E-1,4.7864392E-2,-8.595372E-1,6.23643E-2,2.1956553E-1,-8.19458E-1,1.685816E-1,1.0514001E-2,-1.0612511E-1,8.341427E-3,-1.1399948E-1,-5.1020987E-2,-1.15574645E-2,1.2935917E-1,-1.0070812E-1,4.5052253E-2],"categories":[],"categories_nodes":[],"categories_segments":[],"categories_sizes":[],"default_left":[0,0,0,0,1,1,0,1,0,1,0,1,0,0,0,0,0,0,0,0,0,0,0],"id":67,"left_children":[1,3,5,-1,7,9,11,13,15,17,-1,19,21,-1,-1,-1,-1,-1,-1,-1,-1,-1,-1],"loss_changes":[2.0586119E1,1.75758E1,2.5357464E1,0E0,2.3093271E1,1.6969757E1,2.372599E1,3.1141615E1,2.9096375E1,6.724163E0,0E0,3.7464947E1,7.099222E0,0E0,0E0,0E0,0E0,0E0,0E0,0E0,0E0,0E0,0E0],"parents":[2147483647,0,0,1,1,2,2,4,4,5,5,6,6,7,7,8,8,9,9,11,11,12,12],"right_children":[2,4,6,-1,8,10,12,14,16,18,-1,20,22,-1,-1,-1,-1,-1,-1,-1,-1,-1,-1],"split_conditions":[1.19E2,-6.14594E1,1.78E2,-1.0310451E-1,-9.1158E0,5.55938E1,9.756E1,7E0,3.9929E0,4.69892E1,6.23643E-2,8.571E-1,1E0,1.685816E-1,