{"learner":{"attributes":{"best_iteration":"441","best_score":"0.9281050735821633"},"feature_names":[],"feature_types":[],"gradient_booster":{"model":{"cats":{"enc":[],"feature_segments":[],"sorted_idx":[]},"gbtree_model_param":{"num_parallel_tree":"1","num_trees":"502"},"iteration_indptr":[0,1,2,3,4,5,6,7,8,9,10,11,12,13,14,15,16,17,18,19,20,21,22,23,24,25,26,27,28,29,30,31,32,33,34,35,36,37,38,39,40,41,42,43,44,45,46,47,48,49,50,51,52,53,54,55,56,57,58,59,60,61,62,63,64,65,66,67,68,69,70,71,72,73,74,75,76,77,78,79,80,81,82,83,84,85,86,87,88,89,90,91,92,93,94,95,96,97,98,99,100,101,102,103,104,105,106,107,108,109,110,111,112,113,114,115,116,117,118,119,120,121,122,123,124,125,126,127,128,129,130,131,132,133,134,135,136,137,138,139,140,141,142,143,144,145,146,147,148,149,150,151,152,153,154,155,156,157,158,159,160,161,162,163,164,165,166,167,168,169,170,171,172,173,174,175,176,177,178,179,180,181,182,183,184,185,186,187,188,189,190,191,192,193,194,195,196,197,198,199,200,201,202,203,204,205,206,207,208,209,210,211,212,213,214,215,216,217,218,219,220,221,222,223,224,225,226,227,228,229,230,231,232,233,234,235,236,237,238,239,240,241,242,243,244,245,246,247,248,249,250,251,252,253,254,255,256,257,258,259,260,261,262,263,264,265,266,267,268,269,270,271,272,273,274,275,276,277,278,279,280,281,282,283,284,285,286,287,288,289,290,291,292,293,294,295,296,297,298,299,300,301,302,303,304,305,306,307,308,309,310,311,312,313,314,315,316,317,318,319,320,321,322,323,324,325,326,327,328,329,330,331,332,333,334,335,336,337,338,339,340,341,342,343,344,345,346,347,348,349,350,351,352,353,354,355,356,357,358,359,360,361,362,363,364,365,366,367,368,369,370,371,372,373,374,375,376,377,378,379,380,381,382,383,384,385,386,387,388,389,390,391,392,393,394,395,396,397,398,399,400,401,402,403,404,405,406,407,408,409,410,411,412,413,414,415,416,417,418,419,420,421,422,423,424,425,426,427,428,429,430,431,432,433,434,435,436,437,438,439,440,441,442,443,444,445,446,447,448,449,450,451,452,453,454,455,456,457,458,459,460,461,462,463,464,465,466,467,468,469,470,471,472,473,474,475,476,477,478,479,480,481,482,483,484,485,486,487,488,489,490,491,492,493,494,495,496,497,498,499,500,501,502],"tree_info":[0,0,0,0,0,0,0,0,0,0,0,0,0,0,0,0,0,0,0,0,0,0,0,0,0,0,0,0,0,0,0,0,0,0,0,0,0,0,0,0,0,0,0,0,0,0,0,0,0,0,0,0,0,0,0,0,0,0,0,0,0,0,0,0,0,0,0,0,0,0,0,0,0,0,0,0,0,0,0,0,0,0,0,0,0,0,0,0,0,0,0,0,0,0,0,0,0,0,0,0,0,0,0,0,0,0,0,0,0,0,0,0,0,0,0,0,0,0,0,0,0,0,0,0,0,0,0,0,0,0,0,0,0,0,0,0,0,0,0,0,0,0,0,0,0,0,0,0,0,0,0,0,0,0,0,0,0,0,0,0,0,0,0,0,0,0,0,0,0,0,0,0,0,0,0,0,0,0,0,0,0,0,0,0,0,0,0,0,0,0,0,0,0,0,0,0,0,0,0,0,0,0,0,0,0,0,0,0,0,0,0,0,0,0,0,0,0,0,0,0,0,0,0,0,0,0,0,0,0,0,0,0,0,0,0,0,0,0,0,0,0,0,0,0,0,0,0,0,0,0,0,0,0,0,0,0,0,0,0,0,0,0,0,0,0,0,0,0,0,0,0,0,0,0,0,0,0,0,0,0,0,0,0,0,0,0,0,0,0,0,0,0,0,0,0,0,0,0,0,0,0,0,0,0,0,0,0,0,0,0,0,0,0,0,0,0,0,0,0,0,0,0,0,0,0,0,0,0,0,0,0,0,0,0,0,0,0,0,0,0,0,0,0,0,0,0,0,0,0,0,0,0,0,0,0,0,0,0,0,0,0,0,0,0,0,0,0,0,0,0,0,0,0,0,0,0,0,0,0,0,0,0,0,0,0,0,0,0,0,0,0,0,0,0,0,0,0,0,0,0,0,0,0,0,0,0,0,0,0,0,0,0,0,0,0,0,0,0,0,0,0,0,0,0,0,0,0,0,0,0,0,0,0,0,0,0,0,0,0,0,0,0,0,0,0,0,0,0,0,0,0,0,0,0,0,0,0,0,0,0,0,0,0,0,0,0,0,0,0,0,0,0,0,0,0,0,0,0,0,0,0,0,0,0,0,0,0,0,0,0,0,0,0,0,0,0,0,0,0,0,0,0],"trees":[{"base_weights":[-1.928532E-3,-6.4693326E-1,9.9878125E-2,3.2477385E-1,-1.2359757E0,3.947067E-2,-7.409415E-2,-3.4839593E-2,-8.111453E-2],"categories":[],"categories_nodes":[],"categories_segments":[],"categories_sizes":[],"default_left":[0,0,0,0,0,0,0,0,0],"id":0,"left_children":[1,3,-1,5,7,-1,-1,-1,-1],"loss_changes":[4.385907E3,1.4721558E3,0E0,8.16461E2,3.32365E2,0E0,0E0,0E0,0E0],"parents":[2147483647,0,0,1,1,3,3,4,4],"right_children":[2,4,-1,6,8,-1,-1,-1,-1],"split_conditions":[1.3E1,3E0,9.9878125E-2,2.021E3,2E0,3.947067E-2,-7.409415E-2,-3.4839593E-2,-8.111453E-2],"split_indices":[17,17,0,2,30,0,0,0,0],"split_type":[0,0,0,0,0,0,0,0,0],"sum_hessian":[3.3987666E3,2.5703032E3,8.284635E2,9.702275E2,1.6000757E3,7.7219574E2,1.9803175E2,6.69062E2,9.3101373E2],"tree_param":{"num_deleted":"0","num_feature":"31","num_nodes":"9","size_leaf_vector":"1"}},{"base_weights":[-6.346039E-3,-6.06764E-1,9.512942E-2,3.203524E-1,-1.1747326E0,3.838733E-2,-6.790211E-2,-7.3528685E-2,-3.3282366E-2],"categories":[],"categories_nodes":[],"categories_segments":[],"categories_sizes":[],"default_left":[0,0,0,0,1,0,0,0,0],"id":1,"left_children":[1,3,-1,5,7,-1,-1,-1,-1],"loss_changes":[3.9076428E3,1.3660808E3,0E0,7.4147797E2,2.4127637E2,0E0,0E0,0E0,0E0],"parents":[2147483647,0,0,1,1,3,3,4,4],"right_children":[2,4,-1,6,8,-1,-1,-1,-1],"split_conditions":[1.3E1,3E0,9.512942E-2,2.021E3,4.36969E1,3.838733E-2,-6.790211E-2,-7.3528685E-2,-3.3282366E-2],"split_indices":[17,17,0,2,4,0,0,0,0],"split_type":[0,0,0,0,0,0,0,0,0],"sum_hessian":[3.4073313E3,2.592571E3,8.147603E2,9.850586E2,1.6075123E3,7.7817126E2,2.0688736E2,1.0154957E3,5.9201666E2],"tree_param":{"num_deleted":"0","num_feature":"31","num_nodes":"9","size_leaf_vector":"1"}},{"base_weights":[-1.6308043E-2,-6.0620916E-1,3.2978842E-1,-8.6743283E-1,2.859348E-1,7.706225E-1,-1.1998083E-1,-1.5473287E-2,-7.4745156E-2,3.725253E-2,-5.025819E-2,-1.2175373E-2,5.4949608E-2,3.592944E-2,-8.6582415E-2],"categories":[],"categories_nodes":[],"categories_segments":[],"categories_sizes":[],"default_left":[1,0,0,0,0,0,0,0,0,0,0,0,0,0,0],"id":2,"left_children":[1,3,5,7,9,11,13,-1,-1,-1,-1,-1,-1,-1,-1],"loss_changes":[6.8781537E2,2.905581E2,4.210819E2,3.3697626E2,1.6843504E2,3.5739465E2,1.4228168E3,0E0,0E0,0E0,0E0,0E0,0E0,0E0,0E0],"parents":[2147483647,0,0,1,1,2,2,3,3,4,4,5,5,6,6],"right_children":[2,4,6,8,10,12,14,-1,-1,-1,-1,-1,-1,-1,-1],"split_conditions":[1E-3,3E0,2.3E1,2E0,3E0,2.015E3,2.019E3,-1.5473287E-2,-7.4745156E-2,3.725253E-2,-5.025819E-2,-1.2175373E-2,5.4949608E-2,3.592944E-2,-8.6582415E-2],"split_indices":[7,30,0,30,29,2,2,0,0,0,0,0,0,0,0],"split_type":[0,0,0,0,0,0,0,0,0,0,0,0,0,0,0],"sum_hessian":[3.366978E3,1.2447031E3,2.122275E3,9.6281445E2,2.8188867E2,1.0714232E3,1.0508516E3,5.1042285E2,4.523916E2,2.0825568E2,7.363298E1,2.621287E2,8.0929456E2,6.915724E2,3.592792E2],"tree_param":{"num_deleted":"0","num_feature":"31","num_nodes":"15","size_leaf_vector":"1"}},{"base_weights":[-1.8748866E-2,-5.712961E-1,9.012102E-2,3.2536784E-1,-1.1344113E0,3.624394E-2,-6.0813304E-2,-3.3652417E-2,-7.3082924E-2],"categories":[],"categories_nodes":[],"categories_segments":[],"categories_sizes":[],"default_left":[0,0,0,0,0,0,0,0,0],"id":3,"left_children":[1,3,-1,5,7,-1,-1,-1,-1],"loss_changes":[3.3845312E3,1.3033044E3,0E0,6.144387E2,2.3835803E2,0E0,0E0,0E0,0E0],"parents":[2147483647,0,0,1,1,3,3,4,4],"right_children":[2,4,-1,6,8,-1,-1,-1,-1],"split_conditions":[1.3E1,3E0,9.012102E-2,2.021E3,2E0,3.624394E-2,-6.0813304E-2,-3.3652417E-2,-7.3082924E-2],"split_indices":[17,17,0,2,30,0,0,0,0],"split_type":[0,0,0,0,0,0,0,0,0],"sum_hessian":[3.361379E3,2.579453E3,7.819261E2,9.9519635E2,1.5842566E3,7.907937E2,2.0440266E2,6.5868256E2,9.25574E2],"tree_param":{"num_deleted":"0","num_feature":"31","num_nodes":"9","size_leaf_vector":"1"}},{"base_weights":[2.0774592E-2,-4.944092E-1,8.668196E-2,3.6707428E-1,-1.0534579E0,-2.9291702E-2,4.796688E-2,-3.004616E-2,-6.9395706E-2],"categories":[],"categories_nodes":[],"categories_segments":[],"categories_sizes":[],"default_left":[0,0,0,1,0,0,0,0,0],"id":4,"left_children":[1,3,-1,5,7,-1,-1,-1,-1],"loss_changes":[2.996699E3,1.2577423E3,0E0,5.8084424E2,2.3883899E2,0E0,0E0,0E0,0E0],"parents":[2147483647,0,0,1,1,3,3,4,4],"right_children":[2,4,-1,6,8,-1,-1,-1,-1],"split_conditions":[1.3E1,3E0,8.668196E-2,3.18E2,2E0,-2.9291702E-2,4.796688E-2,-3.004616E-2,-6.9395706E-2],"split_indices":[17,17,0,5,30,0,0,0,0],"split_type":[0,0,0,0,0,0,0,0,0],"sum_hessian":[3.393952E3,2.6097273E3,7.8422473E2,1.0271901E3,1.5825371E3,3.9372546E2,6.3346466E2,6.7373663E2,9.0880054E2],"tree_param":{"num_deleted":"0","num_feature":"31","num_nodes":"9","size_leaf_vector":"1"}},{"base_weights":[8.911692E-3,-4.750924E-1,8.359041E-2,1.8802136E-1,-1.0542784E0,-5.8580425E-2,3.4556143E-2,-5.6919295E-2,4.4276074E-2],"categories":[],"categories_nodes":[],"categories_segments":[],"categories_sizes":[],"default_left":[0,0,0,1,1,0,0,0,0],"id":5,"left_children":[1,3,-1,5,7,-1,-1,-1,-1],"loss_changes":[2.6808953E3,9.9109265E2,0E0,8.2418066E2,2.2571838E2,0E0,0E0,0E0,0E0],"parents":[2147483647,0,0,1,1,3,3,4,4],"right_children":[2,4,-1,6,8,-1,-1,-1,-1],"split_conditions":[1.3E1,4E0,8.359041E-2,2.30136E1,1.7E3,-5.8580425E-2,3.4556143E-2,-5.6919295E-2,4.4276074E-2],"split_indices":[17,17,0,4,20,0,0,0,0],"split_type":[0,0,0,0,0,0,0,0,0],"sum_hessian":[3.328944E3,2.5790095E3,7.499345E2,1.2027028E3,1.3763069E3,3.2447675E2,8.78226E2,1.3195076E3,5.6799255E1],"tree_param":{"num_deleted":"0","num_feature":"31","num_nodes":"9","size_leaf_vector":"1"}},{"base_weights":[1.1952315E-2,-5.23045E-1,3.30861E-1,-2.1631618E-1,-1.1735771E0,6.014617E-1,-2.0859158E-1,3.1504114E-3,-5.4616798E-2,3.3228179E-3,-8.1142485E-2,-1.404374E-2,5.0733563E-2,5.4743268E-2,-7.6810166E-2],"categories":[],"categories_nodes":[],"categories_segments":[],"categories_sizes":[],"default_left":[1,0,0,0,0,0,0,0,0,0,0,0,0,0,0],"id":6,"left_children":[1,3,5,7,9,11,13,-1,-1,-1,-1,-1,-1,-1,-1],"loss_changes":[5.6492096E2,2.4649338E2,3.0294824E2,2.0600061E2,2.2072986E2,5.0405423E2,1.2021609E3,0E0,0E0,0E0,0E0,0E0,0E0,0E0,0E0],"parents":[2147483647,0,0,1,1,2,2,3,3,4,4,5,5,6,6],"right_children":[2,4,6,8,10,12,14,-1,-1,-1,-1,-1,-1,-1,-1],"split_conditions":[1E-3,2.019E3,2.021E3,2E0,2.3E1,2.014E3,2.3E1,3.1504114E-3,-5.4616798E-2,3.3228179E-3,-8.1142485E-2,-1.404374E-2,5.0733563E-2,5.4743268E-2,-7.6810166E-2],"split_indices":[7,2,2,27,0,2,0,0,0,0,0,0,0,0,0],"split_type":[0,0,0,0,0,0,0,0,0,0,0,0,0,0,0],"sum_hessian":[3.309066E3,1.2355994E3,2.0734663E3,8.4058997E2,3.9500943E2,1.3807423E3,6.9272406E2,6.380665E2,2.0252344E2,1.0527976E2,2.8972968E2,4.4048474E2,9.402576E2,3.496303E2,3.4309378E2],"tree_param":{"num_deleted":"0","num_feature":"31","num_nodes":"15","size_leaf_vector":"1"}},{"base_weights":[5.2042524E-3,-4.831278E-1,8.028894E-2,4.2900455E-1,-8.6823833E-1,3.8320333E-2,-5.3534664E-2,-5.1208135E-2,1.093819E-2],"categories":[],"categories_nodes":[],"categories_segments":[],"categories_sizes":[],"default_left":[0,0,0,0,1,0,0,0,0],"id":7,"left_children":[1,3,-1,5,7,-1,-1,-1,-1],"loss_changes":[2.5802542E3,8.889041E2,0E0,3.811257E2,3.017268E2,0E0,0E0,0E0,0E0],"parents":[2147483647,0,0,1,1,3,3,4,4],"right_children":[2,4,-1,6,8,-1,-1,-1,-1],"split_conditions":[1.3E1,2E0,8.028894E-2,2.021E3,1.406585E9,3.8320333E-2,-5.3534664E-2,-5.1208135E-2,1.093819E-2],"split_indices":[17,17,0,2,24,0,0,0,0],"split_type":[0,0,0,0,0,0,0,0,0],"sum_hessian":[3.2992039E3,2.5284707E3,7.7073315E2,7.505894E2,1.7778812E3,6.131352E2,1.3745424E2,1.5548977E3,2.2298349E2],"tree_param":{"num_deleted":"0","num_feature":"31","num_nodes":"9","size_leaf_vector":"1"}},{"base_weights":[-2.6446903E-2,-5.2915984E-1,2.8629014E-1,6.2367175E-2,-1.1438197E0,5.6561404E-1,-5.8149266E-1,-2.1470137E-2,4.2045306E-2,-3.777195E-2,-7.5192526E-2,-1.330367E-2,4.8189297E-2,4.3351706E-2,-7.7742465E-2],"categories":[],"categories_nodes":[],"categories_segments":[],"categories_sizes":[],"default_left":[1,0,0,0,0,0,0,0,0,0,0,0,0,0,0],"id":8,"left_children":[1,3,5,7,9,11,13,-1,-1,-1,-1,-1,-1,-1,-1],"loss_changes":[5.0615143E2,4.489882E2,4.8142853E2,2.416143E2,8.353815E1,4.9765024E2,6.834692E2,0E0,0E0,0E0,0E0,0E0,0E0,0E0,0E0],"parents":[2147483647,0,0,1,1,2,2,3,3,4,4,5,5,6,6],"right_children":[2,4,6,8,10,12,14,-1,-1,-1,-1,-1,-1,-1,-1],"split_conditions":[2.30136E1,6E0,2.021E3,2.021E3,2.018E3,2.014E3,2.3E1,-2.1470137E-2,4.2045306E-2,-3.777195E-2,-7.5192526E-2,-1.330367E-2,4.8189297E-2,4.3351706E-2,-7.7742465E-2],"split_indices":[4,1,2,2,2,2,0,0,0,0,0,0,0,0,0],"split_type":[0,0,0,0,0,0,0,0,0,0,0,0,0,0,0],"sum_hessian":[3.217482E3,1.2336862E3,1.9837958E3,6.29131E2,6.045551E2,1.5009989E3,4.827968E2,3.8585272E2,2.4327829E2,2.9231775E2,3.1223737E2,4.8606183E2,1.01493713E3,1.9408026E2,2.8871655E2],"tree_param":{"num_deleted":"0","num_feature":"31","num_nodes":"15","size_leaf_vector":"1"}},{"base_weights":[1.1355761E-2,-1.4485443E0,1.11411914E-1,-3.2831264E-1,-1.5409966E0,3.5471693E-1,-4.3362546E-1,8.946716E-2,-7.900151E-2,-3.437988E-2,-8.0882296E-2,-9.928844E-3,3.605449E-2,4.355563E-2,-7.244152E-2],"categories":[],"categories_nodes":[],"categories_segments":[],"categories_sizes":[],"default_left":[1,0,0,0,0,0,0,0,0,0,0,0,0,0,0],"id":9,"left_children":[1,3,5,7,9,11,13,-1,-1,-1,-1,-1,-1,-1,-1],"loss_changes":[4.7268225E2,2.0990234E1,4.0173682E2,4.813925E1,1.1411652E1,4.246675E2,1.2398313E3,0E0,0E0,0E0,0E0,0E0,0E0,0E0,0E0],"parents":[2147483647,0,0,1,1,2,2,3,3,4,4,5,5,6,6],"right_children":[2,4,6,8,10,12,14,-1,-1,-1,-1,-1,-1,-1,-1],"split_conditions":[-5.69471E1,2E0,2.021E3,-1.030132E2,3E0,2.015E3,6E0,8.946716E-2,-7.900151E-2,-3.437988E-2,-8.0882296E-2,-9.928844E-3,3.605449E-2,4.355563E-2,-7.244152E-2],"split_indices":[4,1,2,4,6,2,1,0,0,0,0,0,0,0,0],"split_type":[0,0,0,0,0,0,0,0,0,0,0,0,0,0,0],"sum_hessian":[3.2338494E3,2.0655583E2,3.0272937E3,1.6094322E1,1.904615E2,2.0932256E3,9.3406805E2,5.8194556E0,1.0274866E1,1.6518484E1,1.7394302E2,8.3407263E2,1.259153E3,4.0880942E2,5.252586E2],"tree_param":{"num_deleted":"0","num_feature":"31","num_nodes":"15","size_leaf_vector":"1"}},{"base_weights":[2.7063789E-2,-4.3714687E-1,7.701137E-2,4.5082125E-1,-8.2409513E-1,-1.9514505E-2,4.9270187E-2,-5.807668E-2,-1.5623833E-2],"categories":[],"categories_nodes":[],"categories_segments":[],"categories_sizes":[],"default_left":[0,0,0,1,1,0,0,0,0],"id":10,"left_children":[1,3,-1,5,7,-1,-1,-1,-1],"loss_changes":[2.2806218E3,8.540758E2,0E0,3.3975092E2,2.9845227E2,0E0,0E0,0E0,0E0],"parents":[2147483647,0,0,1,1,3,3,4,4],"right_children":[2,4,-1,6,8,-1,-1,-1,-1],"split_conditions":[1.3E1,2E0,7.701137E-2,1.1E1,2.3869E1,-1.9514505E-2,4.9270187E-2,-5.807668E-2,-1.5623833E-2],"split_indices":[17,17,0,20,3,0,0,0,0],"split_type":[0,0,0,0,0,0,0,0,0],"sum_hessian":[3.2448174E3,2.4836042E3,7.6121295E2,7.537455E2,1.7298589E3,2.9300372E2,4.607418E2,1.0416001E3,6.882587E2],"tree_param":{"num_deleted":"0","num_feature":"31","num_nodes":"9","size_leaf_vector":"1"}},{"base_weights":[7.280775E-4,-4.4203204E-1,7.512574E-2,3.989648E-1,-8.0642784E-1,3.5512526E-2,-4.9930293E-2,2.3863262E-3,-4.9826067E-2],"categories":[],"categories_nodes":[],"categories_segments":[],"categories_sizes":[],"default_left":[0,0,0,0,0,0,0,0,0],"id":11,"left_children":[1,3,-1,5,7,-1,-1,-1,-1],"loss_changes":[2.120576E3,7.5512683E2,0E0,3.249257E2,2.791223E2,0E0,0E0,0E0,0E0],"parents":[2147483647,0,0,1,1,3,3,4,4],"right_children":[2,4,-1,6,8,-1,-1,-1,-1],"split_conditions":[1.3E1,2E0,7.512574E-2,2.021E3,1.42E-2,3.5512526E-2,-4.9930293E-2,2.3863262E-3,-4.9826067E-2],"split_indices":[17,17,0,2,7,0,0,0,0],"split_type":[0,0,0,0,0,0,0,0,0],"sum_hessian":[3.1871667E3,2.4620156E3,7.251513E2,7.4425006E2,1.7177655E3,6.0907947E2,1.3517056E2,3.1283615E2,1.4049293E3],"tree_param":{"num_deleted":"0","num_feature":"31","num_nodes":"9","size_leaf_vector":"1"}},{"base_weights":[1.5808517E-2,-4.0618512E-1,7.32288E-2,3.939267E-1,-7.54151E-1,-2.8351903E-2,4.5193445E-2,6.8072877E-3,-4.7635846E-2],"categories":[],"categories_nodes":[],"categories_segments":[],"categories_sizes":[],"default_left":[0,0,0,1,0,0,0,0,0],"id":12,"left_children":[1,3,-1,5,7,-1,-1,-1,-1],"loss_changes":[1.9469263E3,6.869191E2,0E0,3.6712372E2,3.0403345E2,0E0,0E0,0E0,0E0],"parents":[2147483647,0,0,1,1,3,3,4,4],"right_children":[2,4,-1,6,8,-1,-1,-1,-1],"split_conditions":[1.3E1,2E0,7.32288E-2,3.18E2,1.42E-2,-2.8351903E-2,4.5193445E-2,6.8072877E-3,-4.7635846E-2],"split_indices":[17,17,0,5,7,0,0,0,0],"split_type":[0,0,0,0,0,0,0,0,0],"sum_hessian":[3.1825542E3,2.4652124E3,7.173418E2,7.4713043E2,1.718082E3,2.5898047E2,4.8814993E2,3.133682E2,1.4047137E3],"tree_param":{"num_deleted":"0","num_feature":"31","num_nodes":"9","size_leaf_vector":"1"}},{"base_weights":[-5.997616E-3,-4.0624785E-1,7.163553E-2,-9.8339814E-1,6.848385E-2,-5.5320628E-2,1.6004889E-3,-2.6409125E-2,4.191251E-2],"categories":[],"categories_nodes":[],"categories_segments":[],"categories_sizes":[],"default_left":[0,1,0,1,1,0,0,0,0],"id":13,"left_children":[1,3,-1,5,7,-1,-1,-1,-1],"loss_changes":[1.780932E3,6.630145E2,0E0,1.3644519E2,6.106254E2,0E0,0E0,0E0,0E0],"parents":[2147483647,0,0,1,1,3,3,4,4],"right_children":[2,4,-1,6,8,-1,-1,-1,-1],"split_conditions":[1.3E1,5E0,7.163553E-2,-9.973E-1,4.36969E1,-5.5320628E-2,1.6004889E-3,-2.6409125E-2,4.191251E-2],"split_indices":[17,6,0,23,4,0,0,0,0],"split_type":[0,0,0,0,0,0,0,0,0],"sum_hessian":[3.0907268E3,2.4185898E3,6.7213684E2,1.0910659E3,1.3275239E3,9.7308875E2,1.1797716E2,7.480243E2,5.794997E2],"tree_param":{"num_deleted":"0","num_feature":"31","num_nodes":"9","size_leaf_vector":"1"}},{"base_weights":[-7.5240247E-3,-4.102713E-1,7.00584E-2,3.8276795E-1,-7.630079E-1,-6.341409E-2,3.151801E-2,-5.362891E-2,-1.4357802E-2],"categories":[],"categories_nodes":[],"categories_segments":[],"categories_sizes":[],"default_left":[0,0,0,0,1,0,0,0,0],"id":14,"left_children":[1,3,-1,5,7,-1,-1,-1,-1],"loss_changes":[1.7540221E3,6.728369E2,0E0,3.0364044E2,2.4487445E2,0E0,0E0,0E0,0E0],"parents":[2147483647,0,0,1,1,3,3,4,4],"right_children":[2,4,-1,6,8,-1,-1,-1,-1],"split_conditions":[1.3E1,2E0,7.00584E-2,2.014E3,4.36969E1,-6.341409E-2,3.151801E-2,-5.362891E-2,-1.4357802E-2],"split_indices":[17,17,0,2,4,0,0,0,0],"split_type":[0,0,0,0,0,0,0,0,0],"sum_hessian":[3.0896086E3,2.4032302E3,6.8637854E2,7.398281E2,1.6634021E3,9.593963E1,6.438885E2,1.0070205E3,6.563816E2],"tree_param":{"num_deleted":"0","num_feature":"31","num_nodes":"9","size_leaf_vector":"1"}},{"base_weights":[9.402737E-3,1.2302593E-1,-1.1275535E0,-1.8580806E-1,5.681623E-1,1.750427E-1,-1.5099648E0,1.3298215E-2,-3.183912E-2,4.738131E-2,-5.6920125E-4,-4.661211E-2,3.258376E-2,-7.854261E-2,-3.1477574E-2],"categories":[],"categories_nodes":[],"categories_segments":[],"categories_sizes":[],"default_left":[0,0,0,0,0,0,1,0,0,0,0,0,0,0,0],"id":15,"left_children":[1,3,5,7,9,11,13,-1,-1,-1,-1,-1,-1,-1,-1],"loss_changes":[3.919054E2,3.7925415E2,1.375635E2,3.320657E2,2.4850452E2,3.409457E1,1.0438873E1,0E0,0E0,0E0,0E0,0E0,0E0,0E0,0E0],"parents":[2147483647,0,0,1,1,2,2,3,3,4,4,5,5,6,6],"right_children":[2,4,6,8,10,12,14,-1,-1,-1,-1,-1,-1,-1,-1],"split_conditions":[2.7921E2,4.36969E1,1.2E1,6E0,3.7E1,2E0,-9.163E-1,1.3298215E-2,-3.183912E-2,4.738131E-2,-5.6920125E-4,-4.661211E-2,3.258376E-2,-7.854261E-2,-3.1477574E-2],"split_indices":[25,4,28,1,20,30,23,0,0,0,0,0,0,0,0],"split_type":[0,0,0,0,0,0,0,0,0,0,0,0,0,0,0],"sum_hessian":[3.0316113E3,2.7569807E3,2.7463065E2,1.6280371E3,1.1289436E3,6.245033E1,2.1218033E2,8.135039E2,8.145332E2,6.8185614E2,4.470874E2,1.8504908E1,4.394542E1,1.9772208E2,1.4458245E1],"tree_param":{"num_deleted":"0","num_feature":"31","num_nodes":"15","size_leaf_vector":"1"}},{"base_weights":[1.8419205E-3,-3.712074E-1,6.861374E-2,2.3419656E-1,-7.7535635E-1,2.7022362E-2,-5.2944686E-2,-4.322133E-2,4.168923E-2],"categories":[],"categories_nodes":[],"categories_segments":[],"categories_sizes":[],"default_left":[0,0,0,0,1,0,0,0,0],"id":16,"left_children":[1,3,-1,5,7,-1,-1,-1,-1],"loss_changes":[1.5507365E3,5.835484E2,0E0,3.7886026E2,2.0568024E2,0E0,0E0,0E0,0E0],"parents":[2147483647,0,0,1,1,3,3,4,4],"right_children":[2,4,-1,6,8,-1,-1,-1,-1],"split_conditions":[1.3E1,3E0,6.861374E-2,2.021E3,1.167E3,2.7022362E-2,-5.2944686E-2,-4.322133E-2,4.168923E-2],"split_indices":[17,17,0,2,6,0,0,0,0],"split_type":[0,0,0,0,0,0,0,0,0],"sum_hessian":[3.031294E3,2.3832673E3,6.480266E2,9.5424915E2,1.4290182E3,7.719948E2,1.8225432E2,1.3545056E3,7.4512665E1],"tree_param":{"num_deleted":"0","num_feature":"31","num_nodes":"9","size_leaf_vector":"1"}},{"base_weights":[4.971138E-3,-4.6178508E-1,2.8010952E-1,-2.2967733E-1,-9.8674273E-1,-1.7182799E-1,5.4023457E-1,-5.4896194E-2,-1.269673E-4,-6.766343E-3,-6.620963E-2,1.6156469E-2,-4.5222487E-2,-1.6702594E-2,3.8884982E-2],"categories":[],"categories_nodes":[],"categories_segments":[],"categories_sizes":[],"default_left":[1,0,1,1,0,0,0,0,0,0,0,0,0,0,0],"id":17,"left_children":[1,3,5,7,9,11,13,-1,-1,-1,-1,-1,-1,-1,-1],"loss_changes":[3.8159976E2,1.3404715E2,2.1986496E2,1.5095004E2,9.680353E1,2.4820903E2,2.4664468E2,0E0,0E0,0E0,0E0,0E0,0E0,0E0,0E0],"parents":[2147483647,0,0,1,1,2,2,3,3,4,4,5,5,6,6],"right_children":[2,4,6,8,10,12,14,-1,-1,-1,-1,-1,-1,-1,-1],"split_conditions":[1E-3,2.019E3,3.6973556E7,-1.8504E0,2.3E1,1.67E-1,2.014E3,-5.4896194E-2,-1.269673E-4,-6.766343E-3,-6.620963E-2,1.6156469E-2,-4.5222487E-2,-1.6702594E-2,3.8884982E-2],"split_indices":[7,2,24,4,0,12,2,0,0,0,0,0,0,0,0],"split_type":[0,0,0,0,0,0,0,0,0,0,0,0,0,0,0],"sum_hessian":[2.9694316E3,1.1009891E3,1.8684424E3,7.6443506E2,3.3655414E2,6.826886E2,1.1857538E3,1.5771762E2,6.067174E2,9.592581E1,2.4062833E2,4.0776355E2,2.7492502E2,2.5318477E2,9.3256903E2],"tree_param":{"num_deleted":"0","num_feature":"31","num_nodes":"15","size_leaf_vector":"1"}},{"base_weights":[1.9934133E-2,-3.2218936E-1,6.728669E-2,1.875586E-1,-7.9387194E-1,-6.1844684E-2,2.1730375E-2,-4.353749E-2,3.291936E-2],"categories":[],"categories_nodes":[],"categories_segments":[],"categories_sizes":[],"default_left":[0,0,0,0,1,0,0,0,0],"id":18,"left_children":[1,3,-1,5,7,-1,-1,-1,-1],"loss_changes":[1.3647892E3,5.752186E2,0E0,4.0533868E2,1.3928827E2,0E0,0E0,0E0,0E0],"parents":[2147483647,0,0,1,1,3,3,4,4],"right_children":[2,4,-1,6,8,-1,-1,-1,-1],"split_conditions":[1.3E1,4E0,6.728669E-2,2.014E3,1.167E3,-6.1844684E-2,2.1730375E-2,-4.353749E-2,3.291936E-2],"split_indices":[17,17,0,2,20,0,0,0,0],"split_type":[0,0,0,0,0,0,0,0,0],"sum_hessian":[3.0069236E3,2.3907468E3,6.161768E2,1.1492997E3,1.2414473E3,1.69275E2,9.8002466E2,1.1794133E3,6.2033875E1],"tree_param":{"num_deleted":"0","num_feature":"31","num_nodes":"9","size_leaf_vector":"1"}},{"base_weights":[3.0895317E-2,1.3463867E-1,-1.0172688E0,-1.7786996E-1,4.4062573E-1,1.8058804E-1,-1.3829582E0,-1.8685957E-2,3.528673E-2,-5.1869478E-2,2.8292913E-2,2.1147506E-2,-6.934691E-2,-7.2849914E-2,-2.2880666E-2],"categories":[],"categories_nodes":[],"categories_segments":[],"categories_sizes":[],"default_left":[0,1,0,0,0,1,1,0,0,0,0,0,0,0,0],"id":19,"left_children":[1,3,5,7,9,11,13,-1,-1,-1,-1,-1,-1,-1,-1],"loss_changes":[3.2110474E2,2.569945E2,1.167489E2,2.304107E2,2.519143E2,2.455388E1,1.3300659E1,0E0,0E0,0E0,0E0,0E0,0E0,0E0,0E0],"parents":[2147483647,0,0,1,1,2,2,3,3,4,4,5,5,6,6],"right_children":[2,4,6,8,10,12,14,-1,-1,-1,-1,-1,-1,-1,-1],"split_conditions":[2.7921E2,3.18E2,1.2E1,1.406585E9,2.014E3,2.5E-1,-9.163E-1,-1.8685957E-2,3.528673E-2,-5.1869478E-2,2.8292913E-2,2.1147506E-2,-6.934691E-2,-7.2849914E-2,-2.2880666E-2],"split_indices":[25,5,28,24,2,7,23,0,0,0,0,0,0,0,0],"split_type":[0,0,0,0,0,0,0,0,0,0,0,0,0,0,0],"sum_hessian":[2.9506978E3,2.6857444E3,2.6495337E2,1.3289198E3,1.3568246E3,6.20869E1,2.0286646E2,1.0882814E3,2.4063838E2,1.0541501E2,1.2514095E3,5.4405247E1,7.6816525E0,1.87305E2,1.556147E1],"tree_param":{"num_deleted":"0","num_feature":"31","num_nodes":"15","size_leaf_vector":"1"}},{"base_weights":[8.574811E-3,-3.2513437E-1,6.6142716E-2,1.409702E-1,-7.6751244E-1,2.243647E-2,-5.1535774E-2,-1.7570375E-2,-5.43298E-2],"categories":[],"categories_nodes":[],"categories_segments":[],"categories_sizes":[],"default_left":[0,0,0,0,0,0,0,0,0],"id":20,"left_children":[1,3,-1,5,7,-1,-1,-1,-1],"loss_changes":[1.2675979E3,4.753777E2,0E0,4.054941E2,1.5665222E2,0E0,0E0,0E0,0E0],"parents":[2147483647,0,0,1,1,3,3,4,4],"right_children":[2,4,-1,6,8,-1,-1,-1,-1],"split_conditions":[1.3E1,4E0,6.6142716E-2,2.021E3,2E0,2.243647E-2,-5.1535774E-2,-1.7570375E-2,-5.43298E-2],"split_indices":[17,17,0,2,30,0,0,0,0],"split_type":[0,0,0,0,0,0,0,0,0],"sum_hessian":[2.8882039E3,2.3039575E3,5.842461E2,1.1222249E3,1.1817328E3,8.892644E2,2.3296039E2,5.13803E2,6.679299E2],"tree_param":{"num_deleted":"0","num_feature":"31","num_nodes":"9","size_leaf_vector":"1"}},{"base_weights":[-1.162146E-2,-3.3498988E-1,6.517788E-2,1.5190895E-1,-7.9035234E-1,-4.188661E-2,2.652443E-2,-2.0162843E-2,-5.5405874E-2],"categories":[],"categories_nodes":[],"categories_segments":[],"categories_sizes":[],"default_left":[0,0,0,1,0,0,0,0,0],"id":21,"left_children":[1,3,-1,5,7,-1,-1,-1,-1],"loss_changes":[1.2185981E3,5.100312E2,0E0,4.1716696E2,1.4575372E2,0E0,0E0,0E0,0E0],"parents":[2147483647,0,0,1,1,3,3,4,4],"right_children":[2,4,-1,6,8,-1,-1,-1,-1],"split_conditions":[1.3E1,4E0,6.517788E-2,2.30136E1,2E0,-4.188661E-2,2.652443E-2,-2.0162843E-2,-5.5405874E-2],"split_indices":[17,17,0,4,30,0,0,0,0],"split_type":[0,0,0,0,0,0,0,0,0],"sum_hessian":[2.8633254E3,2.2988445E3,5.6448096E2,1.1112745E3,1.18757E3,3.0714835E2,8.041262E2,5.3640295E2,6.51167E2],"tree_param":{"num_deleted":"0","num_feature":"31","num_nodes":"9","size_leaf_vector":"1"}},{"base_weights":[-1.8148145E-2,-3.3466023E-1,6.4143546E-2,-1.1017243E0,-7.549405E-2,-6.1950512E-2,-2.935387E-2,1.52364895E-2,-4.4043306E-2],"categories":[],"categories_nodes":[],"categories_segments":[],"categories_sizes":[],"default_left":[0,0,0,0,0,0,0,0,0],"id":22,"left_children":[1,3,-1,5,7,-1,-1,-1,-1],"loss_changes":[1.1566375E3,4.490297E2,0E0,3.9577637E1,5.1768976E2,0E0,0E0,0E0,0E0],"parents":[2147483647,0,0,1,1,3,3,4,4],"right_children":[2,4,-1,6,8,-1,-1,-1,-1],"split_conditions":[1.3E1,5.3E1,6.4143546E-2,1.22E2,1.19E2,-6.1950512E-2,-2.935387E-2,1.52364895E-2,-4.4043306E-2],"split_indices":[17,28,0,26,28,0,0,0,0],"split_type":[0,0,0,0,0,0,0,0,0],"sum_hessian":[2.8067737E3,2.2581528E3,5.486209E2,5.694573E2,1.6886954E3,4.4842816E2,1.2102912E2,1.1475485E3,5.41147E2],"tree_param":{"num_deleted":"0","num_feature":"31","num_nodes":"9","size_leaf_vector":"1"}},{"base_weights":[2.2180215E-2,1.21379256E-1,-1.0204866E0,-1.8815435E-1,4.263445E-1,1.6751184E-1,-1.3857398E0,-2.4418976E-2,1.5555589E-2,3.4391258E-2,-1.6319085E-2,-4.8128407E-2,2.8538553E-2,-6.536521E-2,-8.0956E-2],"categories":[],"categories_nodes":[],"categories_segments":[],"categories_sizes":[],"default_left":[0,1,0,0,0,0,0,0,0,0,0,0,0,0,0],"id":23,"left_children":[1,3,5,7,9,11,13,-1,-1,-1,-1,-1,-1,-1,-1],"loss_changes":[2.8981052E2,2.415795E2,1.058573E2,1.9056792E2,2.5392668E2,2.704172E1,1.2933655E0,0E0,0E0,0E0,0E0,0E0,0E0,0E0,0E0],"parents":[2147483647,0,0,1,1,2,2,3,3,4,4,5,5,6,6],"right_children":[2,4,6,8,10,12,14,-1,-1,-1,-1,-1,-1,-1,-1],"split_conditions":[2.7921E2,3.18E2,1.2E1,1.4352E2,4.6625E1,2E0,1E0,-2.4418976E-2,1.5555589E-2,3.4391258E-2,-1.6319085E-2,-4.8128407E-2,2.8538553E-2,-6.536521E-2,-8.0956E-2],"split_indices":[25,19,28,25,12,30,10,0,0,0,0,0,0,0,0],"split_type":[0,0,0,0,0,0,0,0,0,0,0,0,0,0,0],"sum_hessian":[2.7997573E3,2.5573367E3,2.4242073E2,1.2693524E3,1.2879843E3,5.713349E1,1.8528725E2,7.926985E2,4.7665393E2,9.5598285E2,3.320013E2,1.4661008E1,4.247248E1,1.4362022E2,4.166702E1],"tree_param":{"num_deleted":"0","num_feature":"31","num_nodes":"15","size_leaf_vector":"1"}},{"base_weights":[2.791952E-2,-2.7361465E-1,6.317645E-2,-8.495725E-1,5.0067738E-2,-5.3988494E-2,-1.2183587E-2,-4.1899186E-2,1.4944849E-2],"categories":[],"categories_nodes":[],"categories_segments":[],"categories_sizes":[],"default_left":[0,1,0,1,0,0,0,0,0],"id":24,"left_children":[1,3,-1,5,7,-1,-1,-1,-1],"loss_changes":[1.0527709E3,4.2349744E2,0E0,1.1373016E2,3.217947E2,0E0,0E0,0E0,0E0],"parents":[2147483647,0,0,1,1,3,3,4,4],"right_children":[2,4,-1,6,8,-1,-1,-1,-1],"split_conditions":[1.3E1,1E-3,6.317645E-2,1E0,5.3E1,-5.3988494E-2,-1.2183587E-2,-4.1899186E-2,1.4944849E-2],"split_indices":[17,7,0,22,28,0,0,0,0],"split_type":[0,0,0,0,0,0,0,0,0],"sum_hessian":[2.8237073E3,2.27042E3,5.5328735E2,8.1629193E2,1.4541279E3,5.909809E2,2.2531104E2,3.1774698E2,1.136381E3],"tree_param":{"num_deleted":"0","num_feature":"31","num_nodes":"9","size_leaf_vector":"1"}},{"base_weights":[-7.271547E-3,-7.064057E-1,1.2805186E-1,2.4782611E-2,-1.258641E0,5.7009196E-1,-2.471875E-1,3.1390544E-2,-5.7129283E-2,-5.7128467E-2,-7.356879E-2,8.477163E-3,5.370837E-2,-2.3309788E-2,4.2605724E-2],"categories":[],"categories_nodes":[],"categories_segments":[],"categories_sizes":[],"default_left":[0,0,0,0,0,1,1,0,0,0,0,0,0,0,0],"id":25,"left_children":[1,3,5,7,9,11,13,-1,-1,-1,-1,-1,-1,-1,-1],"loss_changes":[2.587904E2,1.7914754E2,3.8028625E2,1.3577124E2,4.5596313E0,2.1233453E2,2.9899908E2,0E0,0E0,0E0,0E0,0E0,0E0,0E0,0E0],"parents":[2147483647,0,0,1,1,2,2,3,3,4,4,5,5,6,6],"right_children":[2,4,6,8,10,12,14,-1,-1,-1,-1,-1,-1,-1,-1],"split_conditions":[2E0,2E0,3E0,2.6E1,1E0,5E0,2.8E2,3.1390544E-2,-5.7129283E-2,-5.7128467E-2,-7.356879E-2,8.477163E-3,5.370837E-2,-2.3309788E-2,4.2605724E-2],"split_indices":[29,30,29,28,18,6,6,0,0,0,0,0,0,0,0],"split_type":[0,0,0,0,0,0,0,0,0,0,0,0,0,0,0],"sum_hessian":[2.7334053E3,4.425901E2,2.2908152E3,1.9084993E2,2.5174014E2,1.0515487E3,1.2392664E3,1.2614785E2,6.470208E1,1.6699551E2,8.474464E1,5.866895E2,4.6485922E2,1.0338698E3,2.053966E2],"tree_param":{"num_deleted":"0","num_feature":"31","num_nodes":"15","size_leaf_vector":"1"}},{"base_weights":[-1.1489704E-2,-2.861359E-1,6.2460423E-2,1.4062467E-1,-6.947154E-1,2.0905223E-2,-4.8223972E-2,-1.3398985E-2,-5.3275812E-2],"categories":[],"categories_nodes":[],"categories_segments":[],"categories_sizes":[],"default_left":[0,0,0,0,0,0,0,0,0],"id":26,"left_children":[1,3,-1,5,7,-1,-1,-1,-1],"loss_changes":[9.3192E2,3.8544598E2,0E0,3.3212524E2,1.7839532E2,0E0,0E0,0E0,0E0],"parents":[2147483647,0,0,1,1,3,3,4,4],"right_children":[2,4,-1,6,8,-1,-1,-1,-1],"split_conditions":[1.3E1,4E0,6.2460423E-2,2.021E3,2E0,2.0905223E-2,-4.8223972E-2,-1.3398985E-2,-5.3275812E-2],"split_indices":[17,17,0,2,30,0,0,0,0],"split_type":[0,0,0,0,0,0,0,0,0],"sum_hessian":[2.6894646E3,2.2090012E3,4.8046335E2,1.080782E3,1.1282192E3,8.6436975E2,2.164123E2,5.25347E2,6.028722E2],"tree_param":{"num_deleted":"0","num_feature":"31","num_nodes":"9","size_leaf_vector":"1"}},{"base_weights":[-1.6379164E-3,-2.7741238E-1,6.161172E-2,5.1181287E-1,-4.7571528E-1,-1.7934676E-2,4.4083826E-2,-5.0541412E-2,-1.0861884E-2],"categories":[],"categories_nodes":[],"categories_segments":[],"categories_sizes":[],"default_left":[0,0,0,1,0,0,0,0,0],"id":27,"left_children":[1,3,-1,5,7,-1,-1,-1,-1],"loss_changes":[9.205745E2,3.4630933E2,0E0,1.4343372E2,2.4427872E2,0E0,0E0,0E0,0E0],"parents":[2147483647,0,0,1,1,3,3,4,4],"right_children":[2,4,-1,6,8,-1,-1,-1,-1],"split_conditions":[1.3E1,1E0,6.161172E-2,3.18E2,7.4E1,-1.7934676E-2,4.4083826E-2,-5.0541412E-2,-1.0861884E-2],"split_indices":[17,17,0,5,28,0,0,0,0],"split_type":[0,0,0,0,0,0,0,0,0],"sum_hessian":[2.7034155E3,2.2102031E3,4.9321243E2,4.4350754E2,1.7666956E3,1.3225769E2,3.1124985E2,5.744762E2,1.1922194E3],"tree_param":{"num_deleted":"0","num_feature":"31","num_nodes":"9","size_leaf_vector":"1"}},{"base_weights":[-1.1630147E-3,-3.9786488E-1,2.2933398E-1,-1.8508501E-1,-9.263352E-1,-5.7489026E-2,6.266127E-1,-2.678951E-2,9.569301E-3,-1.32611245E-2,-5.850741E-2,1.7311642E-2,-2.7500588E-2,-5.2420814E-2,3.682188E-2],"categories":[],"categories_nodes":[],"categories_segments":[],"categories_sizes":[],"default_left":[1,0,1,1,0,0,0,0,0,0,0,0,0,0,0],"id":28,"left_children":[1,3,5,7,9,11,13,-1,-1,-1,-1,-1,-1,-1,-1],"loss_changes":[2.4064795E2,1.0858708E2,1.8971616E2,9.130953E1,4.440117E1,1.9259126E2,1.2917682E2,0E0,0E0,0E0,0E0,0E0,0E0,0E0,0E0],"parents":[2147483647,0,0,1,1,2,2,3,3,4,4,5,5,6,6],"right_children":[2,4,6,8,10,12,14,-1,-1,-1,-1,-1,-1,-1,-1],"split_conditions":[1E-3,2.019E3,4.36969E1,5.11513E1,2E0,2.3E1,1.8E1,-2.678951E-2,9.569301E-3,-1.32611245E-2,-5.850741E-2,1.7311642E-2,-2.7500588E-2,-5.2420814E-2,3.682188E-2],"split_indices":[7,2,4,4,30,0,5,0,0,0,0,0,0,0,0],"split_type":[0,0,0,0,0,0,0,0,0,0,0,0,0,0,0],"sum_hessian":[2.6298008E3,9.6619086E2,1.66361E3,6.898032E2,2.7638766E2,9.666057E2,6.970042E2,3.5690332E2,3.3289987E2,7.502927E1,2.0135838E2,5.3135223E2,4.3525348E2,4.2361893E1,6.5464233E2],"tree_param":{"num_deleted":"0","num_feature":"31","num_nodes":"15","size_leaf_vector":"1"}},{"base_weights":[-9.0096975E-3,-2.7046785E-1,6.093135E-2,-7.210758E-1,9.2786185E-2,-2.7390098E-2,-5.647076E-2,-1.8945854E-2,3.6250215E-2],"categories":[],"categories_nodes":[],"categories_segments":[],"categories_sizes":[],"default_left":[0,1,0,0,1,0,0,0,0],"id":29,"left_children":[1,3,-1,5,7,-1,-1,-1,-1],"loss_changes":[8.324741E2,3.500522E2,0E0,6.691281E1,3.5357928E2,0E0,0E0,0E0,0E0],"parents":[2147483647,0,0,1,1,3,3,4,4],"right_children":[2,4,-1,6,8,-1,-1,-1,-1],"split_conditions":[1.3E1,5E0,6.093135E-2,2.018E3,2.3869E1,-2.7390098E-2,-5.647076E-2,-1.8945854E-2,3.6250215E-2],"split_indices":[17,6,0,2,3,0,0,0,0],"split_type":[0,0,0,0,0,0,0,0,0],"sum_hessian":[2.5915476E3,2.1371614E3,4.5438614E2,9.534475E2,1.1837139E3,6.71041E2,2.824065E2,6.781449E2,5.0556897E2],"tree_param":{"num_deleted":"0","num_feature":"31","num_nodes":"9","size_leaf_vector":"1"}},{"base_weights":[1.3003572E-2,-2.347903E-1,6.0270526E-2,-1.0062696E0,-3.4173362E-2,-1.773171E-2,-6.31025E-2,2.0389123E-2,-3.3594497E-2],"categories":[],"categories_nodes":[],"categories_segments":[],"categories_sizes":[],"default_left":[0,0,0,0,0,0,0,0,0],"id":30,"left_children":[1,3,-1,5,7,-1,-1,-1,-1],"loss_changes":[7.665801E2,3.324296E2,0E0,7.343616E1,4.810447E2,0E0,0E0,0E0,0E0],"parents":[2147483647,0,0,1,1,3,3,4,4],"right_children":[2,4,-1,6,8,-1,-1,-1,-1],"split_conditions":[1.3E1,2.014E3,6.0270526E-2,2.3E1,2.019E3,-1.773171E-2,-6.31025E-2,2.0389123E-2,-3.3594497E-2],"split_indices":[17,2,0,5,2,0,0,0,0],"split_type":[0,0,0,0,0,0,0,0,0],"sum_hessian":[2.592475E3,2.1470916E3,4.4538358E2,4.422785E2,1.704813E3,1.2534119E2,3.1693732E2,1.00717346E3,6.976395E2],"tree_param":{"num_deleted":"0","num_feature":"31","num_nodes":"9","size_leaf_vector":"1"}},{"base_weights":[2.9176377E-2,-6.5788966E-1,1.5836933E-1,-3.1607592E-1,-1.1288605E0,5.651192E-1,-1.9155128E-1,2.4758155E-2,-3.9510164E-2,-6.506207E-2,3.8948264E-2,3.2127637E-2,-5.366406E-2,-3.0148957E-2,1.9356174E-2],"categories":[],"categories_nodes":[],"categories_segments":[],"categories_sizes":[],"default_left":[0,0,0,0,0,0,1,0,0,0,0,0,0,0,0],"id":31,"left_children":[1,3,5,7,9,11,13,-1,-1,-1,-1,-1,-1,-1,-1],"loss_changes":[2.2948003E2,6.551669E1,3.0980646E2,9.212437E1,5.74796E1,1.2838132E2,2.7888904E2,0E0,0E0,0E0,0E0,0E0,0E0,0E0,0E0],"parents":[2147483647,0,0,1,1,2,2,3,3,4,4,5,5,6,6],"right_children":[2,4,6,8,10,12,14,-1,-1,-1,-1,-1,-1,-1,-1],"split_conditions":[2E0,2.6E1,3E0,2.3E1,4.8E1,4.00616E1,2.027E-1,2.4758155E-2,-3.9510164E-2,-6.506207E-2,3.8948264E-2,3.2127637E-2,-5.366406E-2,-3.0148957E-2,1.9356174E-2],"split_indices":[29,28,29,0,0,3,7,0,0,0,0,0,0,0,0],"split_type":[0,0,0,0,0,0,0,0,0,0,0,0,0,0,0],"sum_hessian":[2.5831062E3,4.0819202E2,2.174914E3,2.3749658E2,1.7069543E2,1.0054999E3,1.1694143E3,8.7587944E1,1.4990865E2,1.5684196E2,1.385346E1,9.607033E2,4.4796608E1,6.834506E2,4.8596365E2],"tree_param":{"num_deleted":"0","num_feature":"31","num_nodes":"15","size_leaf_vector":"1"}},{"base_weights":[-1.8548295E-2,-1.135165E0,5.418593E-2,9.710323E-2,-1.2617135E0,-5.803308E-1,1.6364545E-1,-6.3969575E-2,1.0371222E-1,-6.686975E-2,-1.0964182E-2,2.920955E-3,-5.212596E-2,2.3270218E-2,-4.8580132E-3],"categories":[],"categories_nodes":[],"categories_segments":[],"categories_sizes":[],"default_left":[1,0,0,1,0,0,0,0,0,0,0,0,0,0,0],"id":32,"left_children":[1,3,5,7,9,11,13,-1,-1,-1,-1,-1,-1,-1,-1],"loss_changes":[2.0385112E2,2.4058914E1,1.6377878E2,4.4085773E1,1.069426E1,1.0249131E2,1.5829343E2,0E0,0E0,0E0,0E0,0E0,0E0,0E0,0E0],"parents":[2147483647,0,0,1,1,2,2,3,3,4,4,5,5,6,6],"right_children":[2,4,6,8,10,12,14,-1,-1,-1,-1,-1,-1,-1,-1],"split_conditions":[-5.69471E1,6E0,2E0,4.50128E1,1.35E2,2E0,3E0,-6.3969575E-2,1.0371222E-1,-6.686975E-2,-1.0964182E-2,2.920955E-3,-5.212596E-2,2.3270218E-2,-4.8580132E-3],"split_indices":[4,0,29,3,26,30,29,0,0,0,0,0,0,0,0],"split_type":[0,0,0,0,0,0,0,0,0,0,0,0,0,0,0],"sum_hessian":[2.508222E3,1.5249591E2,2.355726E3,1.4223822E1,1.3827208E2,3.4595966E2,2.0097664E3,8.593734E0,5.630088E0,1.2864908E2,9.623009E0,1.4560518E2,2.0035448E2,9.313667E2,1.0783997E3],"tree_param":{"num_deleted":"0","num_feature":"31","num_nodes":"15","size_leaf_vector":"1"}},{"base_weights":[-1.1815581E-2,-2.5660253E-1,5.9590083E-2,5.3410834E-1,-4.5520964E-1,3.353646E-2,-6.6187404E-2,-4.7938164E-2,-1.0990477E-2],"categories":[],"categories_nodes":[],"categories_segments":[],"categories_sizes":[],"default_left":[0,0,0,0,0,0,0,0,0],"id":33,"left_children":[1,3,-1,5,7,-1,-1,-1,-1],"loss_changes":[7.426499E2,3.291784E2,0E0,1.07734566E2,1.9829453E2,0E0,0E0,0E0,0E0],"parents":[2147483647,0,0,1,1,3,3,4,4],"right_children":[2,4,-1,6,8,-1,-1,-1,-1],"split_conditions":[1.3E1,1E0,5.9590083E-2,1.98457E5,7.4E1,3.353646E-2,-6.6187404E-2,-4.7938164E-2,-1.0990477E-2],"split_indices":[17,17,0,22,28,0,0,0,0],"split_type":[0,0,0,0,0,0,0,0,0],"sum_hessian":[2.5185828E3,2.0935845E3,4.249982E2,4.1995123E2,1.6736333E3,3.9177997E2,2.8171288E1,5.3217145E2,1.1414618E3],"tree_param":{"num_deleted":"0","num_feature":"31","num_nodes":"9","size_leaf_vector":"1"}},{"base_weights":[1.0893022E-2,-2.1590416E-1,5.8984607E-2,3.3158207E-1,-4.6748134E-1,-5.0134104E-2,2.7350826E-2,-5.2659507E-3,-3.957604E-2],"categories":[],"categories_nodes":[],"categories_segments":[],"categories_sizes":[],"default_left":[0,0,0,0,0,0,0,0,0],"id":34,"left_children":[1,3,-1,5,7,-1,-1,-1,-1],"loss_changes":[6.637802E2,2.8900983E2,0E0,1.9051051E2,1.6859277E2,0E0,0E0,0E0,0E0],"parents":[2147483647,0,0,1,1,3,3,4,4],"right_children":[2,4,-1,6,8,-1,-1,-1,-1],"split_conditions":[1.3E1,2E0,5.8984607E-2,2.014E3,2E0,-5.0134104E-2,2.7350826E-2,-5.2659507E-3,-3.957604E-2],"split_indices":[17,17,0,2,30,0,0,0,0],"split_type":[0,0,0,0,0,0,0,0,0],"sum_hessian":[2.5021106E3,2.0961775E3,4.059331E2,6.598606E2,1.436317E3,9.122383E1,5.686368E2,6.7888586E2,7.574311E2],"tree_param":{"num_deleted":"0","num_feature":"31","num_nodes":"9","size_leaf_vector":"1"}},{"base_weights":[7.1766907E-3,-2.1753214E-1,5.8446836E-2,-6.510944E-1,1.2376821E-1,-3.7974626E-2,4.700429E-3,-3.370682E-2,2.1724781E-2],"categories":[],"categories_nodes":[],"categories_segments":[],"categories_sizes":[],"default_left":[0,1,0,1,0,0,0,0,0],"id":35,"left_children":[1,3,-1,5,7,-1,-1,-1,-1],"loss_changes":[6.4509686E2,3.0648035E2,0E0,7.374753E1,2.877496E2,0E0,0E0,0E0,0E0],"parents":[2147483647,0,0,1,1,3,3,4,4],"right_children":[2,4,-1,6,8,-1,-1,-1,-1],"split_conditions":[1.3E1,5E0,5.8446836E-2,-9.974E-1,3.6973556E7,-3.7974626E-2,4.700429E-3,-3.370682E-2,2.1724781E-2],"split_indices":[17,20,0,23,24,0,0,0,0],"split_type":[0,0,0,0,0,0,0,0,0],"sum_hessian":[2.4691147E3,2.0696194E3,3.9949518E2,9.111965E2,1.158423E3,7.954539E2,1.15742546E2,3.24355E2,8.3406793E2],"tree_param":{"num_deleted":"0","num_feature":"31","num_nodes":"9","size_leaf_vector":"1"}},{"base_weights":[-2.606147E-3,-2.1747258E-1,5.806675E-2,-7.241707E-1,6.1952125E-2,-4.902918E-2,-1.5116148E-2,-4.3768723E-2,1.5624279E-2],"categories":[],"categories_nodes":[],"categories_segments":[],"categories_sizes":[],"default_left":[0,1,0,1,0,0,0,0,0],"id":36,"left_children":[1,3,-1,5,7,-1,-1,-1,-1],"loss_changes":[6.0409406E2,2.8874323E2,0E0,7.810913E1,3.091252E2,0E0,0E0,0E0,0E0],"parents":[2147483647,0,0,1,1,3,3,4,4],"right_children":[2,4,-1,6,8,-1,-1,-1,-1],"split_conditions":[1.3E1,3.6973556E7,5.806675E-2,9.71E2,2.014E3,-4.902918E-2,-1.5116148E-2,-4.3768723E-2,1.5624279E-2],"split_indices":[17,24,0,5,2,0,0,0,0],"split_type":[0,0,0,0,0,0,0,0,0],"sum_hessian":[2.4134788E3,2.0380608E3,3.7541794E2,7.238561E2,1.3142047E3,4.4938235E2,2.7447372E2,2.76655E2,1.0375497E3],"tree_param":{"num_deleted":"0","num_feature":"31","num_nodes":"9","size_leaf_vector":"1"}},{"base_weights":[-3.2111425E-2,-2.4147646E-1,5.7559814E-2,4.7979698E-1,-4.1826966E-1,-4.023915E-2,3.45244E-2,-4.4467416E-2,-1.0014225E-2],"categories":[],"categories_nodes":[],"categories_segments":[],"categories_sizes":[],"default_left":[0,0,0,0,0,0,0,0,0],"id":37,"left_children":[1,3,-1,5,7,-1,-1,-1,-1],"loss_changes":[5.814358E2,2.5446555E2,0E0,1.06921005E2,1.6432623E2,0E0,0E0,0E0,0E0],"parents":[2147483647,0,0,1,1,3,3,4,4],"right_children":[2,4,-1,6,8,-1,-1,-1,-1],"split_conditions":[1.3E1,1E0,5.7559814E-2,2.015E3,7.4E1,-4.023915E-2,3.45244E-2,-4.4467416E-2,-1.0014225E-2],"split_indices":[17,17,0,2,28,0,0,0,0],"split_type":[0,0,0,0,0,0,0,0,0],"sum_hessian":[2.344807E3,1.9929806E3,3.518262E2,3.920003E2,1.6009803E3,5.4837452E1,3.3716284E2,5.0549542E2,1.0954849E3],"tree_param":{"num_deleted":"0","num_feature":"31","num_nodes":"9","size_leaf_vector":"1"}},{"base_weights":[-1.1658783E-2,-1.1084256E0,5.583974E-2,7.02199E-1,-1.2012607E0,2.0953155E-1,-3.4162512E-1,-4.481967E-2,8.416378E-2,-2.033235E-2,-6.2300008E-2,-1.3936761E-2,2.485722E-2,3.0675326E-2,-5.481131E-2],"categories":[],"categories_nodes":[],"categories_segments":[],"categories_sizes":[],"default_left":[1,0,0,1,0,0,0,0,0,0,0,0,0,0,0],"id":38,"left_children":[1,3,5,7,9,11,13,-1,-1,-1,-1,-1,-1,-1,-1],"loss_changes":[1.7480865E2,2.3854553E1,1.3596494E2,1.2970035E1,4.135849E0,2.2551355E2,4.4804694E2,0E0,0E0,0E0,0E0,0E0,0E0,0E0,0E0],"parents":[2147483647,0,0,1,1,2,2,3,3,4,4,5,5,6,6],"right_children":[2,4,6,8,10,12,14,-1,-1,-1,-1,-1,-1,-1,-1],"split_conditions":[-5.69471E1,3E0,2.021E3,4.50128E1,6E0,2.015E3,2.3E1,-4.481967E-2,8.416378E-2,-2.033235E-2,-6.2300008E-2,-1.3936761E-2,2.485722E-2,3.0675326E-2,-5.481131E-2],"split_indices":[4,0,2,3,0,2,0,0,0,0,0,0,0,0,0],"split_type":[0,0,0,0,0,0,0,0,0,0,0,0,0,0,0],"sum_hessian":[2.3594812E3,1.3589735E2,2.223584E3,6.3078213E0,1.2958952E2,1.6038715E3,6.197125E2,2.431761E0,3.8760605E0,7.445204E0,1.22144325E2,5.9455475E2,1.00931665E3,2.7359647E2,3.4611606E2],"tree_param":{"num_deleted":"0","num_feature":"31","num_nodes":"15","size_leaf_vector":"1"}},{"base_weights":[-2.0910013E-2,-2.2149408E-1,5.701337E-2,-6.014875E-1,7.38123E-2,-3.5722528E-2,6.4403364E-3,-3.3845652E-2,1.8078517E-2],"categories":[],"categories_nodes":[],"categories_segments":[],"categories_sizes":[],"default_left":[0,1,0,1,0,0,0,0,0],"id":39,"left_children":[1,3,-1,5,7,-1,-1,-1,-1],"loss_changes":[5.433856E2,2.2326822E2,0E0,7.186429E1,2.4225018E2,0E0,0E0,0E0,0E0],"parents":[2147483647,0,0,1,1,3,3,4,4],"right_children":[2,4,-1,6,8,-1,-1,-1,-1],"split_conditions":[1.3E1,5E0,5.701337E-2,-9.974E-1,3.6973556E7,-3.5722528E-2,6.4403364E-3,-3.3845652E-2,1.8078517E-2],"split_indices":[17,6,0,23,24,0,0,0,0],"split_type":[0,0,0,0,0,0,0,0,0],"sum_hessian":[2.3309072E3,1.9882605E3,3.426468E2,8.6900635E2,1.1192542E3,7.526128E2,1.1639357E2,3.0976443E2,8.0948975E2],"tree_param":{"num_deleted":"0","num_feature":"31","num_nodes":"9","size_leaf_vector":"1"}},{"base_weights":[2.009981E-2,-2.2505426E-1,3.1962842E-1,-4.8978844E-1,2.913495E-1,5.432889E-1,-7.5542086E-1,-4.967572E-2,-1.8126752E-2,3.7691996E-2,-2.0791827E-2,-1.2007537E-2,4.155513E-2,-6.350617E-2,1.9021595E-3],"categories":[],"categories_nodes":[],"categories_segments":[],"categories_sizes":[],"default_left":[1,1,0,0,0,0,1,0,0,0,0,0,0,0,0],"id":40,"left_children":[1,3,5,7,9,11,13,-1,-1,-1,-1,-1,-1,-1,-1],"loss_changes":[1.7143544E2,1.7566553E2,2.5306364E2,5.4071365E1,1.4283427E2,1.964591E2,7.412317E1,0E0,0E0,0E0,0E0,0E0,0E0,0E0,0E0],"parents":[2147483647,0,0,1,1,2,2,3,3,4,4,5,5,6,6],"right_children":[2,4,6,8,10,12,14,-1,-1,-1,-1,-1,-1,-1,-1],"split_conditions":[4.36969E1,2.027E-1,2.018E3,1.1520684E7,5.3E1,2.014E3,2.081E3,-4.967572E-2,-1.8126752E-2,3.7691996E-2,-2.0791827E-2,-1.2007537E-2,4.155513E-2,-6.350617E-2,1.9021595E-3],"split_indices":[4,7,2,24,26,2,19,0,0,0,0,0,0,0,0],"split_type":[0,0,0,0,0,0,0,0,0,0,0,0,0,0,0],"sum_hessian":[2.3326777E3,1.2829088E3,1.0497689E3,8.4815436E2,4.3475446E2,8.693899E2,1.8037909E2,1.6967953E2,6.784748E2,2.6281253E2,1.7194193E2,2.3362349E2,6.357664E2,1.0904395E2,7.133513E1],"tree_param":{"num_deleted":"0","num_feature":"31","num_nodes":"15","size_leaf_vector":"1"}},{"base_weights":[1.2498318E-2,-1.7843066E-1,5.6724157E-2,-5.159908E-1,2.1593167E-1,-3.7803393E-2,2.6751105E-2,2.2111155E-2,-4.284704E-2],"categories":[],"categories_nodes":[],"categories_segments":[],"categories_sizes":[],"default_left":[0,1,0,1,0,0,0,0,0],"id":41,"left_children":[1,3,-1,5,7,-1,-1,-1,-1],"loss_changes":[4.9195248E2,2.6137222E2,0E0,2.6729788E2,2.2030066E2,0E0,0E0,0E0,0E0],"parents":[2147483647,0,0,1,1,3,3,4,4],"right_children":[2,4,-1,6,8,-1,-1,-1,-1],"split_conditions":[1.3E1,4.36969E1,5.6724157E-2,2.8E2,2.018E3,-3.7803393E-2,2.6751105E-2,2.2111155E-2,-4.284704E-2],"split_indices":[17,4,0,6,2,0,0,0,0],"split_type":[0,0,0,0,0,0,0,0,0],"sum_hessian":[2.294544E3,1.9615813E3,3.3296277E2,1.0567405E3,9.0484076E2,8.60469E2,1.962715E2,7.477189E2,1.5712187E2],"tree_param":{"num_deleted":"0","num_feature":"31","num_nodes":"9","size_leaf_vector":"1"}},{"base_weights":[8.727971E-3,-1.719002E-1,5.6377377E-2,-8.21503E-1,-5.9773733E-6,-9.269228E-3,-5.443702E-2,1.7631948E-2,-2.7215978E-2],"categories":[],"categories_nodes":[],"categories_segments":[],"categories_sizes":[],"default_left":[0,0,0,0,0,0,0,0,0],"id":42,"left_children":[1,3,-1,5,7,-1,-1,-1,-1],"loss_changes":[4.6030844E2,2.1898943E2,0E0,6.955783E1,2.9805914E2,0E0,0E0,0E0,0E0],"parents":[2147483647,0,0,1,1,3,3,4,4],"right_children":[2,4,-1,6,8,-1,-1,-1,-1],"split_conditions":[1.3E1,2.014E3,5.6377377E-2,2.3E1,2.019E3,-9.269228E-3,-5.443702E-2,1.7631948E-2,-2.7215978E-2],"split_indices":[17,2,0,5,2,0,0,0,0],"split_type":[0,0,0,0,0,0,0,0,0],"sum_hessian":[2.2757773E3,1.9601643E3,3.1561298E2,4.0936398E2,1.5508003E3,1.2160211E2,2.8776187E2,9.41307E2,6.094933E2],"tree_param":{"num_deleted":"0","num_feature":"31","num_nodes":"9","size_leaf_vector":"1"}},{"base_weights":[2.726831E-3,-1.7728621E-1,5.5915553E-2,-9.0453285E-1,2.3050953E-3,-2.2201901E-2,-5.700198E-2,1.7996697E-2,-2.8835291E-2],"categories":[],"categories_nodes":[],"categories_segments":[],"categories_sizes":[],"default_left":[0,0,0,0,0,0,0,0,0],"id":43,"left_children":[1,3,-1,5,7,-1,-1,-1,-1],"loss_changes":[4.521571E2,2.532147E2,0E0,4.113324E1,3.2236496E2,0E0,0E0,0E0,0E0],"parents":[2147483647,0,0,1,1,3,3,4,4],"right_children":[2,4,-1,6,8,-1,-1,-1,-1],"split_conditions":[1.3E1,2.014E3,5.5915553E-2,2.006E3,2.019E3,-2.2201901E-2,-5.700198E-2,1.7996697E-2,-2.8835291E-2],"split_indices":[17,2,0,2,2,0,0,0,0],"split_type":[0,0,0,0,0,0,0,0,0],"sum_hessian":[2.24957E3,1.9377343E3,3.1183585E2,3.8295187E2,1.5547823E3,1.3055615E2,2.523957E2,9.613675E2,5.9341486E2],"tree_param":{"num_deleted":"0","num_feature":"31","num_nodes":"9","size_leaf_vector":"1"}},{"base_weights":[3.942708E-2,1.2034958E-1,-8.623889E-1,-2.2965834E-1,3.196246E-1,3.915044E-1,-1.231624E0,-3.3158198E-2,2.8870539E-3,-6.7875595E-3,2.675775E-2,7.129839E-2,-2.2121815E-2,-6.424032E-2,-1.0204177E-2],"categories":[],"categories_nodes":[],"categories_segments":[],"categories_sizes":[],"default_left":[0,0,0,0,1,0,0,0,0,0,0,0,0,0,0],"id":44,"left_children":[1,3,5,7,9,11,13,-1,-1,-1,-1,-1,-1,-1,-1],"loss_changes":[1.6356781E2,1.4350047E2,8.593341E1,9.30583E1,1.2871948E2,3.750605E1,7.5425873E0,0E0,0E0,0E0,0E0,0E0,0E0,0E0,0E0],"parents":[2147483647,0,0,1,1,2,2,3,3,4,4,5,5,6,6],"right_children":[2,4,6,8,10,12,14,-1,-1,-1,-1,-1,-1,-1,-1],"split_conditions":[2.7921E2,3.6973556E7,1.2E1,1.03488E1,4.1E-3,2.005E3,2.927731E9,-3.3158198E-2,2.8870539E-3,-6.7875595E-3,2.675775E-2,7.129839E-2,-2.2121815E-2,-6.424032E-2,-1.0204177E-2],"split_indices":[25,24,28,3,7,2,24,0,0,0,0,0,0,0,0],"split_type":[0,0,0,0,0,0,0,0,0,0,0,0,0,0,0],"sum_hessian":[2.2389329E3,2.0553657E3,1.8356723E2,7.4561334E2,1.3097524E3,4.174482E1,1.418224E2,2.967285E2,4.4888486E2,4.208803E2,8.888721E2,1.8315458E1,2.3429363E1,1.3460529E2,7.2171254E0],"tree_param":{"num_deleted":"0","num_feature":"31","num_nodes":"15","size_leaf_vector":"1"}},{"base_weights":[1.6134577E-2,-1.5892878E-1,5.560083E-2,-6.4787275E-1,9.7444385E-2,-4.105337E-2,5.678028E-5,-3.3940274E-2,1.3600375E-2],"categories":[],"categories_nodes":[],"categories_segments":[],"categories_sizes":[],"default_left":[0,1,0,0,0,0,0,0,0],"id":45,"left_children":[1,3,-1,5,7,-1,-1,-1,-1],"loss_changes":[4.2632812E2,2.4026247E2,0E0,7.410507E1,1.7064067E2,0E0,0E0,0E0,0E0],"parents":[2147483647,0,0,1,1,3,3,4,4],"right_children":[2,4,-1,6,8,-1,-1,-1,-1],"split_conditions":[1.3E1,1E-3,5.560083E-2,3.4178486E8,2.014E3,-4.105337E-2,5.678028E-5,-3.3940274E-2,1.3600375E-2],"split_indices":[17,7,0,24,2,0,0,0,0],"split_type":[0,0,0,0,0,0,0,0,0],"sum_hessian":[2.2202878E3,1.9151968E3,3.0509106E2,6.582615E2,1.2569353E3,5.1939136E2,1.3887007E2,2.3023488E2,1.0267004E3],"tree_param":{"num_deleted":"0","num_feature":"31","num_nodes":"9","size_leaf_vector":"1"}},{"base_weights":[1.829869E-2,-1.4294322E-1,5.5298883E-2,-4.5937616E-1,2.357224E-1,-3.422804E-2,2.6071457E-2,-3.7158933E-2,2.4835084E-2],"categories":[],"categories_nodes":[],"categories_segments":[],"categories_sizes":[],"default_left":[0,1,0,1,0,0,0,0,0],"id":46,"left_children":[1,3,-1,5,7,-1,-1,-1,-1],"loss_changes":[3.8164395E2,2.2720255E2,0E0,2.284659E2,2.2095677E2,0E0,0E0,0E0,0E0],"parents":[2147483647,0,0,1,1,3,3,4,4],"right_children":[2,4,-1,6,8,-1,-1,-1,-1],"split_conditions":[1.3E1,2.3869E1,5.5298883E-2,2.8E2,3.66507E1,-3.422804E-2,2.6071457E-2,-3.7158933E-2,2.4835084E-2],"split_indices":[17,3,0,6,4,0,0,0,0],"split_type":[0,0,0,0,0,0,0,0,0],"sum_hessian":[2.1742031E3,1.894259E3,2.79944E2,1.0318105E3,8.624485E2,8.3939465E2,1.9241595E2,1.8114569E2,6.813028E2],"tree_param":{"num_deleted":"0","num_feature":"31","num_nodes":"9","size_leaf_vector":"1"}},{"base_weights":[-1.2530108E-2,-1.6908967E-1,5.4995544E-2,-5.1359767E-1,1.00140475E-1,-1.2448418E-2,-3.7875634E-2,-6.053815E-2,1.1245715E-2],"categories":[],"categories_nodes":[],"categories_segments":[],"categories_sizes":[],"default_left":[0,1,0,0,0,0,0,0,0],"id":47,"left_children":[1,3,-1,5,7,-1,-1,-1,-1],"loss_changes":[3.671219E2,1.7143752E2,0E0,5.2142166E1,1.7006277E2,0E0,0E0,0E0,0E0],"parents":[2147483647,0,0,1,1,3,3,4,4],"right_children":[2,4,-1,6,8,-1,-1,-1,-1],"split_conditions":[1.3E1,5E0,5.4995544E-2,2E0,1.5099727E7,-1.2448418E-2,-3.7875634E-2,-6.053815E-2,1.1245715E-2],"split_indices":[17,6,0,30,24,0,0,0,0],"split_type":[0,0,0,0,0,0,0,0,0],"sum_hessian":[2.10585E3,1.8467897E3,2.5906027E2,8.09738E2,1.0370518E3,3.8934677E2,4.203912E2,8.937311E1,9.476786E2],"tree_param":{"num_deleted":"0","num_feature":"31","num_nodes":"9","size_leaf_vector":"1"}},{"base_weights":[9.827027E-3,-1.4407423E-1,5.4719973E-2,4.459983E-1,-2.9217494E-1,2.7991707E-2,-6.2290795E-2,6.8056555E-3,-2.6376182E-2],"categories":[],"categories_nodes":[],"categories_segments":[],"categories_sizes":[],"default_left":[0,0,0,0,0,0,0,0,0],"id":48,"left_children":[1,3,-1,5,7,-1,-1,-1,-1],"loss_changes":[3.5245764E2,1.6173494E2,0E0,7.222686E1,1.4913268E2,0E0,0E0,0E0,0E0],"parents":[2147483647,0,0,1,1,3,3,4,4],"right_children":[2,4,-1,6,8,-1,-1,-1,-1],"split_conditions":[1.3E1,1E0,5.4719973E-2,1.98457E5,1.5E1,2.7991707E-2,-6.2290795E-2,6.8056555E-3,-2.6376182E-2],"split_indices":[17,17,0,22,6,0,0,0,0],"split_type":[0,0,0,0,0,0,0,0,0],"sum_hessian":[2.1096292E3,1.8482314E3,2.613976E2,3.704096E2,1.4778219E3,3.4768436E2,2.2725277E1,5.2423663E2,9.535852E2],"tree_param":{"num_deleted":"0","num_feature":"31","num_nodes":"9","size_leaf_vector":"1"}},{"base_weights":[5.423117E-3,-1.406452E-1,5.4455794E-2,-6.801061E-1,1.9572167E-2,-4.7193583E-2,9.373798E-3,1.426993E-2,-2.914255E-2],"categories":[],"categories_nodes":[],"categories_segments":[],"categories_sizes":[],"default_left":[0,0,0,0,0,0,0,0,0],"id":49,"left_children":[1,3,-1,5,7,-1,-1,-1,-1],"loss_changes":[3.3236362E2,1.5993744E2,0E0,9.714154E1,2.2877977E2,0E0,0E0,0E0,0E0],"parents":[2147483647,0,0,1,1,3,3,4,4],"right_children":[2,4,-1,6,8,-1,-1,-1,-1],"split_conditions":[1.3E1,5.1E1,5.4455794E-2,1.22E2,1.19E2,-4.7193583E-2,9.373798E-3,1.426993E-2,-2.914255E-2],"split_indices":[17,28,0,26,28,0,0,0,0],"split_type":[0,0,0,0,0,0,0,0,0],"sum_hessian":[2.0977036E3,1.8493099E3,2.483938E2,4.2272528E2,1.4265846E3,3.2410248E2,9.8622795E1,9.9018146E2,4.364032E2],"tree_param":{"num_deleted":"0","num_feature":"31","num_nodes":"9","size_leaf_vector":"1"}},{"base_weights":[-1.9828524E-2,-1.6044866E-1,5.4144938E-2,-6.058327E-1,7.728205E-2,-1.3798567E-2,-4.4306558E-2,1.4746556E-2,-3.6187388E-2],"categories":[],"categories_nodes":[],"categories_segments":[],"categories_sizes":[],"default_left":[0,1,0,0,0,0,0,0,0],"id":50,"left_children":[1,3,-1,5,7,-1,-1,-1,-1],"loss_changes":[3.172917E2,1.9218304E2,0E0,5.8155197E1,2.0663795E2,0E0,0E0,0E0,0E0],"parents":[2147483647,0,0,1,1,3,3,4,4],"right_children":[2,4,-1,6,8,-1,-1,-1,-1],"split_conditions":[1.3E1,3.6973556E7,5.4144938E-2,2E0,1.5637E2,-1.3798567E-2,-4.4306558E-2,1.4746556E-2,-3.6187388E-2],"split_indices":[17,24,0,30,25,0,0,0,0],"split_type":[0,0,0,0,0,0,0,0,0],"sum_hessian":[2.044056E3,1.8136353E3,2.3042085E2,6.3062415E2,1.183011E3,2.9061115E2,3.4001303E2,9.3074786E2,2.5226315E2],"tree_param":{"num_deleted":"0","num_feature":"31","num_nodes":"9","size_leaf_vector":"1"}},{"base_weights":[-3.4791902E-3,-1.4132105E-1,5.395878E-2,2.1325825E-1,-4.063182E-1,-4.1842364E-2,2.022363E-2,1.930238E-3,-3.2106515E-2],"categories":[],"categories_nodes":[],"categories_segments":[],"categories_sizes":[],"default_left":[0,0,0,0,0,0,0,0,0],"id":51,"left_children":[1,3,-1,5,7,-1,-1,-1,-1],"loss_changes":[3.0130298E2,1.6836752E2,0E0,1.5427852E2,1.0759587E2,0E0,0E0,0E0,0E0],"parents":[2147483647,0,0,1,1,3,3,4,4],"right_children":[2,4,-1,6,8,-1,-1,-1,-1],"split_conditions":[1.3E1,3E0,5.395878E-2,2.014E3,1.5E1,-4.1842364E-2,2.022363E-2,1.930238E-3,-3.2106515E-2],"split_indices":[17,17,0,2,20,0,0,0,0],"split_type":[0,0,0,0,0,0,0,0,0],"sum_hessian":[2.0169591E3,1.7899368E3,2.2702238E2,7.6565186E2,1.0242849E3,1.1742178E2,6.4823004E2,3.5511017E2,6.691747E2],"tree_param":{"num_deleted":"0","num_feature":"31","num_nodes":"9","size_leaf_vector":"1"}},{"base_weights":[4.4645328E-2,-7.119414E-2,5.373309E-2,-7.176561E-1,8.7627694E-2,-9.099503E-3,-5.1112007E-2,1.989266E-2,-2.1548145E-2],"categories":[],"categories_nodes":[],"categories_segments":[],"categories_sizes":[],"default_left":[0,0,0,0,0,0,0,0,0],"id":52,"left_children":[1,3,-1,5,7,-1,-1,-1,-1],"loss_changes":[2.4425385E2,1.8903308E2,0E0,5.905641E1,2.3801874E2,0E0,0E0,0E0,0E0],"parents":[2147483647,0,0,1,1,3,3,4,4],"right_children":[2,4,-1,6,8,-1,-1,-1,-1],"split_conditions":[1.3E1,2.014E3,5.373309E-2,2.006E3,2.019E3,-9.099503E-3,-5.1112007E-2,1.989266E-2,-2.1548145E-2],"split_indices":[17,2,0,2,2,0,0,0,0],"split_type":[0,0,0,0,0,0,0,0,0],"sum_hessian":[2.0454664E3,1.8395183E3,2.0594817E2,3.6210446E2,1.4774138E3,1.3183914E2,2.3026532E2,9.2456415E2,5.5284973E2],"tree_param":{"num_deleted":"0","num_feature":"31","num_nodes":"9","size_leaf_vector":"1"}},{"base_weights":[5.763471E-3,-1.1327062E-1,5.3494282E-2,1.6417244E-1,-4.9827087E-1,1.2780659E-2,-5.0808765E-2,-2.8598363E-2,8.577359E-2],"categories":[],"categories_nodes":[],"categories_segments":[],"categories_sizes":[],"default_left":[0,0,0,0,1,0,0,0,0],"id":53,"left_children":[1,3,-1,5,7,-1,-1,-1,-1],"loss_changes":[2.5533884E2,1.9374576E2,0E0,1.1407115E2,1.24904724E2,0E0,0E0,0E0,0E0],"parents":[2147483647,0,0,1,1,3,3,4,4],"right_children":[2,4,-1,6,8,-1,-1,-1,-1],"split_conditions":[1.3E1,5E0,5.3494282E-2,7.672E2,2E4,1.2780659E-2,-5.0808765E-2,-2.8598363E-2,8.577359E-2],"split_indices":[17,17,0,12,6,0,0,0,0],"split_type":[0,0,0,0,0,0,0,0,0],"sum_hessian":[2.0138738E3,1.8120671E3,2.0180663E2,1.0534745E3,7.585926E2,9.784575E2,7.5017006E1,7.348701E2,2.372248E1],"tree_param":{"num_deleted":"0","num_feature":"31","num_nodes":"9","size_leaf_vector":"1"}},{"base_weights":[-2.372495E-2,-4.0308747E-1,1.8872257E-1,-6.498404E-1,-1.8681045E-1,-7.97833E-2,5.5138254E-1,1.0137749E-2,-3.7452675E-2,3.5690104E-3,-4.171863E-2,1.6780723E-2,-2.6441364E-2,-4.938717E-2,3.382003E-2],"categories":[],"categories_nodes":[],"categories_segments":[],"categories_sizes":[],"default_left":[1,1,1,0,0,0,0,0,0,0,0,0,0,0,0],"id":54,"left_children":[1,3,5,7,9,11,13,-1,-1,-1,-1,-1,-1,-1,-1],"loss_changes":[1.5622998E2,3.7013985E1,1.21050964E2,2.761113E1,6.2294006E1,1.3352873E2,1.02414246E2,0E0,0E0,0E0,0E0,0E0,0E0,0E0,0E0],"parents":[2147483647,0,0,1,1,2,2,3,3,4,4,5,5,6,6],"right_children":[2,4,6,8,10,12,14,-1,-1,-1,-1,-1,-1,-1,-1],"split_conditions":[1.2E-3,1.2923E2,4.36969E1,6E0,2.3849E2,2E0,2.5E1,1.0137749E-2,-3.7452675E-2,3.5690104E-3,-4.171863E-2,1.6780723E-2,-2.6441364E-2,-4.938717E-2,3.382003E-2],"split_indices":[7,25,4,0,25,30,5,0,0,0,0,0,0,0,0],"split_type":[0,0,0,0,0,0,0,0,0,0,0,0,0,0,0],"sum_hessian":[1.9365225E3,6.9484924E2,1.2416732E3,3.236213E2,3.7122794E2,7.138981E2,5.2777515E2,3.3624332E1,2.8999698E2,2.6604315E2,1.05184784E2,3.709736E2,3.4292447E2,3.9130447E1,4.886447E2],"tree_param":{"num_deleted":"0","num_feature":"31","num_nodes":"15","size_leaf_vector":"1"}},{"base_weights":[2.5606303E-2,-8.6728156E-2,5.334083E-2,-4.6769488E-1,1.2083959E-1,-4.4387076E-2,-7.606922E-3,-2.7408822E-2,1.4336471E-2],"categories":[],"categories_nodes":[],"categories_segments":[],"categories_sizes":[],"default_left":[0,1,0,1,0,0,0,0,0],"id":55,"left_children":[1,3,-1,5,7,-1,-1,-1,-1],"loss_changes":[2.315068E2,1.413475E2,0E0,8.341977E1,1.2860811E2,0E0,0E0,0E0,0E0],"parents":[2147483647,0,0,1,1,3,3,4,4],"right_children":[2,4,-1,6,8,-1,-1,-1,-1],"split_conditions":[1.3E1,1.2E-3,5.334083E-2,1.2311E2,2.015E3,-4.4387076E-2,-7.606922E-3,-2.7408822E-2,1.4336471E-2],"split_indices":[17,7,0,25,2,0,0,0,0],"split_type":[0,0,0,0,0,0,0,0,0],"sum_hessian":[1.9775121E3,1.7857655E3,1.917466E2,6.2937213E2,1.1563934E3,2.69208E2,3.6016412E2,2.2930923E2,9.2708417E2],"tree_param":{"num_deleted":"0","num_feature":"31","num_nodes":"9","size_leaf_vector":"1"}},{"base_weights":[1.1297108E-2,-9.926968E-2,5.3147256E-2,-6.261299E-1,4.8149038E-2,-4.053661E-2,6.346963E-4,1.4202324E-2,-2.4313165E-2],"categories":[],"categories_nodes":[],"categories_segments":[],"categories_sizes":[],"default_left":[0,0,0,0,0,0,0,0,0],"id":56,"left_children":[1,3,-1,5,7,-1,-1,-1,-1],"loss_changes":[2.2686974E2,1.371614E2,0E0,4.5540512E1,1.7417293E2,0E0,0E0,0E0,0E0],"parents":[2147483647,0,0,1,1,3,3,4,4],"right_children":[2,4,-1,6,8,-1,-1,-1,-1],"split_conditions":[1.3E1,5.1E1,5.3147256E-2,1.22E2,1.19E2,-4.053661E-2,6.346963E-4,1.4202324E-2,-2.4313165E-2],"split_indices":[17,28,0,26,28,0,0,0,0],"split_type":[0,0,0,0,0,0,0,0,0],"sum_hessian":[1.949201E3,1.7645841E3,1.8461693E2,3.8508398E2,1.3795001E3,2.98544E2,8.653998E1,9.5737103E2,4.2212912E2],"tree_param":{"num_deleted":"0","num_feature":"31","num_nodes":"9","size_leaf_vector":"1"}},{"base_weights":[-4.4022114E-3,-1.0588703E-1,5.292346E-2,-3.978597E-1,1.6426289E-1,-3.4345906E-2,7.6554567E-3,-6.580064E-2,1.4386653E-2],"categories":[],"categories_nodes":[],"categories_segments":[],"categories_sizes":[],"default_left":[0,1,0,1,0,0,0,0,0],"id":57,"left_children":[1,3,-1,5,7,-1,-1,-1,-1],"loss_changes":[2.0672629E2,1.3805484E2,0E0,1.340532E2,1.6658698E2,0E0,0E0,0E0,0E0],"parents":[2147483647,0,0,1,1,3,3,4,4],"right_children":[2,4,-1,6,8,-1,-1,-1,-1],"split_conditions":[1.3E1,3.18E2,5.292346E-2,2.128124E8,2.014E3,-3.4345906E-2,7.6554567E-3,-6.580064E-2,1.4386653E-2],"split_indices":[17,5,0,24,2,0,0,0,0],"split_type":[0,0,0,0,0,0,0,0,0],"sum_hessian":[1.9144833E3,1.7484396E3,1.6604369E2,8.4005365E2,9.08386E2,5.5082434E2,2.8922934E2,6.919177E1,8.391942E2],"tree_param":{"num_deleted":"0","num_feature":"31","num_nodes":"9","size_leaf_vector":"1"}},{"base_weights":[-3.051329E-3,2.4859835E-1,-2.5518128E-1,-1.9875078E-1,4.8647198E-1,-5.736166E-1,1.9604596E-1,1.4423932E-2,-4.1237317E-2,-1.3551729E-2,3.335161E-2,-4.4450436E-2,-7.896017E-3,-3.1578768E-4,4.734939E-2],"categories":[],"categories_nodes":[],"categories_segments":[],"categories_sizes":[],"default_left":[0,0,0,0,1,1,1,0,0,0,0,0,0,0,0],"id":58,"left_children":[1,3,5,7,9,11,13,-1,-1,-1,-1,-1,-1,-1,-1],"loss_changes":[1.1946129E2,1.0037012E2,1.3525E2,1.0022728E2,8.436313E1,7.218349E1,5.92502E1,0E0,0E0,0E0,0E0,0E0,0E0,0E0,0E0],"parents":[2147483647,0,0,1,1,2,2,3,3,4,4,5,5,6,6],"right_children":[2,4,6,8,10,12,14,-1,-1,-1,-1,-1,-1,-1,-1],"split_conditions":[2E0,1.8E1,3E0,6E1,7E0,4.36969E1,3.4178486E8,1.4423932E-2,-4.1237317E-2,-1.3551729E-2,3.335161E-2,-4.4450436E-2,-7.896017E-3,-3.1578768E-4,4.734939E-2],"split_indices":[30,0,30,26,19,4,24,0,0,0,0,0,0,0,0],"split_type":[0,0,0,0,0,0,0,0,0,0,0,0,0,0,0],"sum_hessian":[1.8808096E3,9.413083E2,9.395013E2,3.2683026E2,6.14478E2,5.506389E2,3.8886237E2,1.8408841E2,1.4274187E2,1.1817902E2,4.96299E2,3.1244547E2,2.3819344E2,3.0709802E2,8.1764336E1],"tree_param":{"num_deleted":"0","num_feature":"31","num_nodes":"15","size_leaf_vector":"1"}},{"base_weights":[-1.2842722E-2,6.0429506E-2,-8.54E-1,-5.08356E-1,1.555629E-1,2.1858883E-1,-1.1744968E0,-3.8366225E-2,2.5430545E-2,2.3257973E-2,-6.2083392E-3,5.997723E-2,-2.5392994E-2,-6.193775E-2,-1.0254015E-2],"categories":[],"categories_nodes":[],"categories_segments":[],"categories_sizes":[],"default_left":[0,0,0,0,0,0,0,0,0,0,0,0,0,0,0],"id":59,"left_children":[1,3,5,7,9,11,13,-1,-1,-1,-1,-1,-1,-1,-1],"loss_changes":[1.1525174E2,9.316428E1,5.1764664E1,6.537085E1,1.2775836E2,2.5775034E1,6.9421387E0,0E0,0E0,0E0,0E0,0E0,0E0,0E0,0E0],"parents":[2147483647,0,0,1,1,2,2,3,3,4,4,5,5,6,6],"right_children":[2,4,6,8,10,12,14,-1,-1,-1,-1,-1,-1,-1,-1],"split_conditions":[2.7921E2,2E0,1.2E1,4.2E1,3E0,2.005E3,2.927731E9,-3.8366225E-2,2.5430545E-2,2.3257973E-2,-6.2083392E-3,5.997723E-2,-2.5392994E-2,-6.193775E-2,-1.0254015E-2],"split_indices":[25,29,28,0,29,2,24,0,0,0,0,0,0,0,0],"split_type":[0,0,0,0,0,0,0,0,0,0,0,0,0,0,0],"sum_hessian":[1.8681166E3,1.7192802E3,1.4883633E2,2.4573444E2,1.4735458E3,3.4314816E1,1.14521515E2,1.9605493E2,4.9679512E1,6.991188E2,7.7442694E2,1.4322827E1,1.999199E1,1.0714175E2,7.379764E0],"tree_param":{"num_deleted":"0","num_feature":"31","num_nodes":"15","size_leaf_vector":"1"}},{"base_weights":[-2.4706253E-3,-1.07580446E-1,5.2803587E-2,2.8527308E-1,-3.0400288E-1,-2.585738E-2,2.3355186E-2,1.6933521E-3,-3.260148E-2],"categories":[],"categories_nodes":[],"categories_segments":[],"categories_sizes":[],"default_left":[0,0,0,1,0,0,0,0,0],"id":60,"left_children":[1,3,-1,5,7,-1,-1,-1,-1],"loss_changes":[2.1168222E2,1.3363374E2,0E0,8.4486206E1,1.3574985E2,0E0,0E0,0E0,0E0],"parents":[2147483647,0,0,1,1,3,3,4,4],"right_children":[2,4,-1,6,8,-1,-1,-1,-1],"split_conditions":[1.3E1,2E0,5.2803587E-2,2.6571036E7,2E0,-2.585738E-2,2.3355186E-2,1.6933521E-3,-3.260148E-2],"split_indices":[17,17,0,24,30,0,0,0,0],"split_type":[0,0,0,0,0,0,0,0,0],"sum_hessian":[1.9005145E3,1.729663E3,1.7085155E2,5.7639514E2,1.153268E3,1.061426E2,4.7025253E2,5.856308E2,5.6763715E2],"tree_param":{"num_deleted":"0","num_feature":"31","num_nodes":"9","size_leaf_vector":"1"}},{"base_weights":[3.5650037E-2,-5.261174E-1,1.4839196E-1,-9.4051087E-1,-8.925153E-2,-2.2660454E-1,3.3185858E-1,6.346648E-2,-5.116399E-2,6.802207E-2,-1.8211825E-2,2.1541111E-4,-4.3979626E-2,2.3561336E-2,-2.2766097E-2],"categories":[],"categories_nodes":[],"categories_segments":[],"categories_sizes":[],"default_left":[0,1,1,0,0,0,0,0,0,0,0,0,0,0,0],"id":61,"left_children":[1,3,5,7,9,11,13,-1,-1,-1,-1,-1,-1,-1,-1],"loss_changes":[1.1994687E2,5.722531E1,1.0857573E2,3.0994873E1,6.236867E1,7.821358E1,1.1643555E2,0E0,0E0,0E0,0E0,0E0,0E0,0E0,0E0],"parents":[2147483647,0,0,1,1,2,2,3,3,4,4,5,5,6,6],"right_children":[2,4,6,8,10,12,14,-1,-1,-1,-1,-1,-1,-1,-1],"split_conditions":[1.5099727E7,9.71E2,4.5E-3,-2.95848E1,1.148E3,2.018E3,1.7015E2,6.346648E-2,-5.116399E-2,6.802207E-2,-1.8211825E-2,2.1541111E-4,-4.3979626E-2,2.3561336E-2,-2.2766097E-2],"split_indices":[24,19,7,3,19,2,25,0,0,0,0,0,0,0,0],"split_type":[0,0,0,0,0,0,0,0,0,0,0,0,0,0,0],"sum_hessian":[1.8916233E3,3.1556552E2,1.5760579E3,1.613564E2,1.5420912E2,5.176901E2,1.0583677E3,5.307812E0,1.5604858E2,2.3957941E1,1.3025117E2,3.8318115E2,1.3450897E2,8.9951276E2,1.5885489E2],"tree_param":{"num_deleted":"0","num_feature":"31","num_nodes":"15","size_leaf_vector":"1"}},{"base_weights":[2.8223302E-2,-6.687079E-2,5.2641477E-2,1.6419871E-1,-3.8017672E-1,-2.5208622E-2,2.1185536E-2,-2.5053045E-2,5.328353E-2],"categories":[],"categories_nodes":[],"categories_segments":[],"categories_sizes":[],"default_left":[0,0,0,0,1,0,0,0,0],"id":62,"left_children":[1,3,-1,5,7,-1,-1,-1,-1],"loss_changes":[1.8221991E2,1.2397706E2,0E0,1.712011E2,1.2757018E2,0E0,0E0,0E0,0E0],"parents":[2147483647,0,0,1,1,3,3,4,4],"right_children":[2,4,-1,6,8,-1,-1,-1,-1],"split_conditions":[1.3E1,5E0,5.2641477E-2,3.6973556E7,1.167E3,-2.5208622E-2,2.1185536E-2,-2.5053045E-2,5.328353E-2],"split_indices":[17,17,0,24,6,0,0,0,0],"split_type":[0,0,0,0,0,0,0,0,0],"sum_hessian":[1.8684656E3,1.7106355E3,1.5783002E2,9.848008E2,7.258347E2,2.7516714E2,7.0963367E2,6.704346E2,5.5400143E1],"tree_param":{"num_deleted":"0","num_feature":"31","num_nodes":"9","size_leaf_vector":"1"}},{"base_weights":[1.281767E-2,-8.029053E-2,5.2451488E-2,1.7598973E-1,-3.5448748E-1,2.2649183E-3,5.6102544E-2,-4.1015547E-2,1.4254178E-3],"categories":[],"categories_nodes":[],"categories_segments":[],"categories_sizes":[],"default_left":[0,0,0,1,1,0,0,0,0],"id":63,"left_children":[1,3,-1,5,7,-1,-1,-1,-1],"loss_changes":[1.776161E2,1.1877255E2,0E0,1.07994095E2,1.4568677E2,0E0,0E0,0E0,0E0],"parents":[2147483647,0,0,1,1,3,3,4,4],"right_children":[2,4,-1,6,8,-1,-1,-1,-1],"split_conditions":[1.3E1,2E0,5.2451488E-2,2.8E2,1.52899E1,2.2649183E-3,5.6102544E-2,-4.1015547E-2,1.4254178E-3],"split_indices":[17,30,0,6,3,0,0,0,0],"split_type":[0,0,0,0,0,0,0,0,0],"sum_hessian":[1.8390929E3,1.688313E3,1.5077982E2,8.728528E2,8.1546027E2,7.678305E2,1.0502225E2,3.6742874E2,4.4803152E2],"tree_param":{"num_deleted":"0","num_feature":"31","num_nodes":"9","size_leaf_vector":"1"}},{"base_weights":[9.155493E-3,6.285032E-2,-1.1082903E0,-5.166662E-1,1.5768029E-1,-4.8958126E-1,-5.9223354E-2,2.2182146E-3,-4.6194643E-2,2.1103596E-2,-4.362195E-3,2.4897931E-2,-4.697894E-2],"categories":[],"categories_nodes":[],"categories_segments":[],"categories_sizes":[],"default_left":[0,0,0,0,0,0,0,0,0,0,0,0,0],"id":64,"left_children":[1,3,5,7,9,11,-1,-1,-1,-1,-1,-1,-1],"loss_changes":[1.10775055E2,9.688074E1,3.409607E0,5.668522E1,9.810827E1,5.349018E0,0E0,0E0,0E0,0E0,0E0,0E0,0E0],"parents":[2147483647,0,0,1,1,2,2,3,3,4,4,5,5],"right_children":[2,4,6,8,10,12,-1,-1,-1,-1,-1,-1,-1],"split_conditions":[3.0352E2,2E0,1.1E1,1.91E-2,3E0,3E0,-5.9223354E-2,2.2182146E-3,-4.6194643E-2,2.1103596E-2,-4.362195E-3,2.4897931E-2,-4.697894E-2],"split_indices":[25,29,28,7,29,1,0,0,0,0,0,0,0],"split_type":[0,0,0,0,0,0,0,0,0,0,0,0,0],"sum_hessian":[1.8440575E3,1.760411E3,8.364645E1,2.4693224E2,1.5134788E3,9.983914E0,7.366253E1,1.0422877E2,1.4270346E2,7.2746686E2,7.860119E2,3.0919373E0,6.8919773E0],"tree_param":{"num_deleted":"0","num_feature":"31","num_nodes":"13","size_leaf_vector":"1"}},{"base_weights":[1.3035674E-2,-7.7354774E-2,5.2289486E-2,-7.5221956E-1,3.131929E-2,-5.137646E-2,1.1226531E-2,1.7136194E-2,-1.332845E-2],"categories":[],"categories_nodes":[],"categories_segments":[],"categories_sizes":[],"default_left":[0,0,0,0,0,0,0,0,0],"id":65,"left_children":[1,3,-1,5,7,-1,-1,-1,-1],"loss_changes":[1.688562E2,1.2201701E2,0E0,6.2280365E1,1.3308151E2,0E0,0E0,0E0,0E0],"parents":[2147483647,0,0,1,1,3,3,4,4],"right_children":[2,4,-1,6,8,-1,-1,-1,-1],"split_conditions":[1.3E1,2E0,5.2289486E-2,1E1,3E0,-5.137646E-2,1.1226531E-2,1.7136194E-2,-1.332845E-2],"split_indices":[17,29,0,1,29,0,0,0,0],"split_type":[0,0,0,0,0,0,0,0,0],"sum_hessian":[1.8069625E3,1.6623892E3,1.4457335E2,2.2974617E2,1.4326431E3,1.791878E2,5.0558365E1,7.0035736E2,7.3228564E2],"tree_param":{"num_deleted":"0","num_feature":"31","num_nodes":"9","size_leaf_vector":"1"}},{"base_weights":[5.8859233E-3,-8.3081365E-2,5.2179623E-2,-5.907651E-1,4.0585425E-2,1.1252355E-2,-4.6713863E-2,1.553012E-2,-2.2462059E-2],"categories":[],"categories_nodes":[],"categories_segments":[],"categories_sizes":[],"default_left":[0,0,0,0,0,0,0,0,0],"id":66,"left_children":[1,3,-1,5,7,-1,-1,-1,-1],"loss_changes":[1.6660788E2,1.04382835E2,0E0,9.1470924E1,1.7704575E2,0E0,0E0,0E0,0E0],"parents":[2147483647,0,0,1,1,3,3,4,4],"right_children":[2,4,-1,6,8,-1,-1,-1,-1],"split_conditions":[1.3E1,2.014E3,5.2179623E-2,2.3E1,2.019E3,1.1252355E-2,-4.6713863E-2,1.553012E-2,-2.2462059E-2],"split_indices":[17,2,0,5,2,0,0,0,0],"split_type":[0,0,0,0,0,0,0,0,0],"sum_hessian":[1.8027013E3,1.6611991E3,1.415022E2,3.2465018E2,1.3365488E3,9.629725E1,2.2835292E2,8.6183057E2,4.7471832E2],"tree_param":{"num_deleted":"0","num_feature":"31","num_nodes":"9","size_leaf_vector":"1"}},{"base_weights":[3.4991931E-3,5.2351948E-2,-1.0060303E0,-5.3119206E-1,1.4204659E-1,-1.0876163E0,-2.4422698E-2,6.776897E-3,-4.0924825E-2,2.042767E-2,-5.6019737E-3,-2.9889574E-2,-5.7464182E-2,-4.2763416E-2,3.315368E-2],"categories":[],"categories_nodes":[],"categories_segments":[],"categories_sizes":[],"default_left":[0,0,0,0,0,0,0,0,0,0,0,0,0,0,0],"id":67,"left_children":[1,3,5,7,9,11,13,-1,-1,-1,-1,-1,-1,-1,-1],"loss_changes":[8.784873E1,8.900102E1,6.558029E0,4.3510044E1,9.981873E1,1.6052399E0,4.755299E0,0E0,0E0,0E0,0E0,0E0,0E0,0E0,0E0],"parents":[2147483647,0,0,1,1,2,2,3,3,4,4,5,5,6,6],"right_children":[2,4,6,8,10,12,14,-1,-1,-1,-1,-1,-1,-1,-1],"split_conditions":[3.0352E2,2E0,2.927731E9,-3.3943E0,3E0,1.1E1,1E0,6.776897E-3,-4.0924825E-2,2.042767E-2,-5.6019737E-3,-2.9889574E-2,-5.7464182E-2,-4.2763416E-2,3.315368E-2],"split_indices":[25,29,24,3,29,28,18,0,0,0,0,0,0,0,0],"split_type":[0,0,0,0,0,0,0,0,0,0,0,0,0,0,0],"sum_hessian":[1.7791926E3,1.6979731E3,8.1219505E1,2.2556279E2,1.4724103E3,7.4887276E1,6.33223E0,6.808659E1,1.5747621E2,7.1834344E2,7.5406683E2,9.569583E0,6.531769E1,2.7566996E0,3.5755303E0],"tree_param":{"num_deleted":"0","num_feature":"31","num_nodes":"15","size_leaf_vector":"1"}},{"base_weights":[1.746973E-2,-6.8194255E-2,5.2040994E-2,-5.999933E-1,5.7899248E-2,-1.337012E-3,-4.1843202E-2,1.4884799E-2,-1.8537855E-2],"categories":[],"categories_nodes":[],"categories_segments":[],"categories_sizes":[],"default_left":[0,0,0,0,0,0,0,0,0],"id":68,"left_children":[1,3,-1,5,7,-1,-1,-1,-1],"loss_changes":[1.573947E2,1.111427E2,0E0,4.3111717E1,1.3787749E2,0E0,0E0,0E0,0E0],"parents":[2147483647,0,0,1,1,3,3,4,4],"right_children":[2,4,-1,6,8,-1,-1,-1,-1],"split_conditions":[1.3E1,2.014E3,5.2040994E-2,2.3E1,2.019E3,-1.337012E-3,-4.1843202E-2,1.4884799E-2,-1.8537855E-2],"split_indices":[17,2,0,5,2,0,0,0,0],"split_type":[0,0,0,0,0,0,0,0,0],"sum_hessian":[1.7936166E3,1.6559329E3,1.3768372E2,3.1666034E2,1.3392726E3,9.291318E1,2.2374716E2,8.590261E2,4.8024646E2],"tree_param":{"num_deleted":"0","num_feature":"31","num_nodes":"9","size_leaf_vector":"1"}},{"base_weights":[-1.1537023E-3,-8.4022045E-2,5.1868528E-2,-4.2497307E-1,1.3221355E-1,-4.2908657E-2,-1.1353334E-2,-6.190542E-2,1.183336E-2],"categories":[],"categories_nodes":[],"categories_segments":[],"categories_sizes":[],"default_left":[0,1,0,0,1,0,0,0,0],"id":69,"left_children":[1,3,-1,5,7,-1,-1,-1,-1],"loss_changes":[1.5090251E2,1.1977596E2,0E0,5.3853798E1,1.4262991E2,0E0,0E0,0E0,0E0],"parents":[2147483647,0,0,1,1,3,3,4,4],"right_children":[2,4,-1,6,8,-1,-1,-1,-1],"split_conditions":[1.3E1,4.5E-3,5.1868528E-2,7.4E1,1.5099727E7,-4.2908657E-2,-1.1353334E-2,-6.190542E-2,1.183336E-2],"split_indices":[17,7,0,28,24,0,0,0,0],"split_type":[0,0,0,0,0,0,0,0,0],"sum_hessian":[1.7514283E3,1.622853E3,1.2857536E2,6.2942975E2,9.934232E2,1.963344E2,4.3309537E2,6.959229E1,9.2383093E2],"tree_param":{"num_deleted":"0","num_feature":"31","num_nodes":"9","size_leaf_vector":"1"}},{"base_weights":[-1.3973149E-2,-2.4296983E-1,2.4286729E-1,9.364807E-3,-5.009444E-1,-1.1524948E0,3.20967E-1,-1.2436315E-2,1.5051149E-2,-4.2601638E-2,-6.478832E-3,-6.163022E-2,-2.838122E-2,4.023186E-2,6.3093132E-3],"categories":[],"categories_nodes":[],"categories_segments":[],"categories_sizes":[],"default_left":[1,0,0,1,0,0,0,0,0,0,0,0,0,0,0],"id":70,"left_children":[1,3,5,7,9,11,13,-1,-1,-1,-1,-1,-1,-1,-1],"loss_changes":[1.01556175E2,5.9423737E1,8.906572E1,3.488339E1,5.8740578E1,1.3318062E0,7.258446E1,0E0,0E0,0E0,0E0,0E0,0E0,0E0,0E0],"parents":[2147483647,0,0,1,1,2,2,3,3,4,4,5,5,6,6],"right_children":[2,4,6,8,10,12,14,-1,-1,-1,-1,-1,-1,-1,-1],"split_conditions":[1.1E1,6E0,1.5099727E7,2.3869E1,3.5E1,1.68E2,1.5E1,-1.2436315E-2,1.5051149E-2,-4.2601638E-2,-6.478832E-3,-6.163022E-2,-2.838122E-2,4.023186E-2,6.3093132E-3],"split_indices":[6,1,24,3,0,6,6,0,0,0,0,0,0,0,0],"split_type":[0,0,0,0,0,0,0,0,0,0,0,0,0,0,0],"sum_hessian":[1.7246842E3,9.1179224E2,8.1289197E2,4.6142184E2,4.5037042E2,4.2357544E1,7.705344E2,2.4487595E2,2.1654588E2,2.3084084E2,2.1952959E2,3.62807E1,6.076844E0,2.2031865E2,5.5021576E2],"tree_param":{"num_deleted":"0","num_feature":"31","num_nodes":"15","size_leaf_vector":"1"}},{"base_weights":[-3.250588E-2,-3.9829722E-1,1.871245E-1,-6.559483E-1,-1.9535501E-1,4.5153108E-1,-1.2513705E-1,-4.0190868E-2,-6.4817504E-3,-5.179144E-3,-4.8975267E-2,-4.236071E-2,2.6508177E-2,1.4700455E-2,-3.9136592E-2],"categories":[],"categories_nodes":[],"categories_segments":[],"categories_sizes":[],"default_left":[1,1,0,0,0,0,0,0,0,0,0,0,0,0,0],"id":71,"left_children":[1,3,5,7,9,11,13,-1,-1,-1,-1,-1,-1,-1,-1],"loss_changes":[1.3760161E2,3.3469307E1,8.842427E1,2.1896027E1,2.5866856E1,5.965764E1,1.3570714E2,0E0,0E0,0E0,0E0,0E0,0E0,0E0,0E0],"parents":[2147483647,0,0,1,1,2,2,3,3,4,4,5,5,6,6],"right_children":[2,4,6,8,10,12,14,-1,-1,-1,-1,-1,-1,-1,-1],"split_conditions":[4.1E-3,1.2311E2,7.821E1,3E0,3.0352E2,1.6E1,2.86E-1,-4.0190868E-2,-6.4817504E-3,-5.179144E-3,-4.8975267E-2,-4.236071E-2,2.6508177E-2,1.4700455E-2,-3.9136592E-2],"split_indices":[7,25,25,30,25,26,12,0,0,0,0,0,0,0,0],"split_type":[0,0,0,0,0,0,0,0,0,0,0,0,0,0,0],"sum_hessian":[1.7108367E3,6.415427E2,1.069294E3,2.8168692E2,3.598558E2,5.787733E2,4.9052066E2,2.1949265E2,6.219428E1,3.2316647E2,3.6689327E1,3.2483307E1,5.4629004E2,2.999119E2,1.9060876E2],"tree_param":{"num_deleted":"0","num_feature":"31","num_nodes":"15","size_leaf_vector":"1"}},{"base_weights":[1.1851026E-2,-6.8108395E-2,5.1778633E-2,-4.1906682E-1,1.13741346E-1,-1.0996963E-2,-4.6826467E-2,-3.055912E-2,1.1750526E-2],"categories":[],"categories_nodes":[],"categories_segments":[],"categories_sizes":[],"default_left":[0,1,0,0,0,0,0,0,0],"id":72,"left_children":[1,3,-1,5,7,-1,-1,-1,-1],"loss_changes":[1.395368E2,1.0096879E2,0E0,5.5427673E1,9.178025E1,0E0,0E0,0E0,0E0],"parents":[2147483647,0,0,1,1,3,3,4,4],"right_children":[2,4,-1,6,8,-1,-1,-1,-1],"split_conditions":[1.3E1,1.2E-3,5.1778633E-2,8E0,2E0,-1.0996963E-2,-4.6826467E-2,-3.055912E-2,1.1750526E-2],"split_indices":[17,7,0,17,29,0,0,0,0],"split_type":[0,0,0,0,0,0,0,0,0],"sum_hessian":[1.7027961E3,1.580298E3,1.2249824E2,5.3891736E2,1.0413806E3,3.9019092E2,1.4872644E2,1.4866284E2,8.927178E2],"tree_param":{"num_deleted":"0","num_feature":"31","num_nodes":"9","size_leaf_vector":"1"}},{"base_weights":[-1.7936278E-2,-9.521504E-2,5.1651187E-2,4.3128967E-1,-2.320598E-1,-1.4505279E-2,3.2009203E-2,1.4315088E-3,-2.5518006E-2],"categories":[],"categories_nodes":[],"categories_segments":[],"categories_sizes":[],"default_left":[0,0,0,0,0,0,0,0,0],"id":73,"left_children":[1,3,-1,5,7,-1,-1,-1,-1],"loss_changes":[1.3701218E2,1.1330616E2,0E0,4.9083996E1,9.053859E1,0E0,0E0,0E0,0E0],"parents":[2147483647,0,0,1,1,3,3,4,4],"right_children":[2,4,-1,6,8,-1,-1,-1,-1],"split_conditions":[1.3E1,1E0,5.1651187E-2,2.30136E1,2E0,-1.4505279E-2,3.2009203E-2,1.4315088E-3,-2.5518006E-2],"split_indices":[17,17,0,4,30,0,0,0,0],"split_type":[0,0,0,0,0,0,0,0,0],"sum_hessian":[1.6847803E3,1.5702283E3,1.1455198E2,3.234842E2,1.246744E3,7.255032E1,2.5093387E2,6.4420264E2,6.0254144E2],"tree_param":{"num_deleted":"0","num_feature":"31","num_nodes":"9","size_leaf_vector":"1"}},{"base_weights":[2.7963298E-3,-6.460623E-2,5.1458146E-2,2.2293295E-1,-2.8953424E-1,3.358065E-3,5.613718E-2,-2.9807076E-2,1.4153309E-2],"categories":[],"categories_nodes":[],"categories_segments":[],"categories_sizes":[],"default_left":[0,0,0,1,1,0,0,0,0],"id":74,"left_children":[1,3,-1,5,7,-1,-1,-1,-1],"loss_changes":[1.16702515E2,1.0244793E2,0E0,9.739189E1,1.5618384E2,0E0,0E0,0E0,0E0],"parents":[2147483647,0,0,1,1,3,3,4,4],"right_children":[2,4,-1,6,8,-1,-1,-1,-1],"split_conditions":[1.3E1,6.496E1,5.1458146E-2,8.571E-1,1.060232E2,3.358065E-3,5.613718E-2,-2.9807076E-2,1.4153309E-2],"split_indices":[17,25,0,7,4,0,0,0,0],"split_type":[0,0,0,0,0,0,0,0,0],"sum_hessian":[1.6849855E3,1.582029E3,1.02956436E2,6.943755E2,8.8765356E2,5.9282294E2,1.0155252E2,5.7807416E2,3.0957938E2],"tree_param":{"num_deleted":"0","num_feature":"31","num_nodes":"9","size_leaf_vector":"1"}},{"base_weights":[1.4805876E-2,-5.684963E-2,5.142663E-2,-3.8425103E-1,1.1481104E-1,-9.285107E-3,-4.7626883E-2,1.895776E-2,-1.09472275E-2],"categories":[],"categories_nodes":[],"categories_segments":[],"categories_sizes":[],"default_left":[0,1,0,0,0,0,0,0,0],"id":75,"left_children":[1,3,-1,5,7,-1,-1,-1,-1],"loss_changes":[1.2332181E2,8.917179E1,0E0,6.139685E1,9.193885E1,0E0,0E0,0E0,0E0],"parents":[2147483647,0,0,1,1,3,3,4,4],"right_children":[2,4,-1,6,8,-1,-1,-1,-1],"split_conditions":[1.3E1,1.2E-3,5.142663E-2,8E0,7.821E1,-9.285107E-3,-4.7626883E-2,1.895776E-2,-1.09472275E-2],"split_indices":[17,7,0,17,25,0,0,0,0],"split_type":[0,0,0,0,0,0,0,0,0],"sum_hessian":[1.6959282E3,1.5848469E3,1.1108134E2,5.447084E2,1.0401384E3,4.0465585E2,1.4005252E2,5.8034906E2,4.597894E2],"tree_param":{"num_deleted":"0","num_feature":"31","num_nodes":"9","size_leaf_vector":"1"}},{"base_weights":[-8.96693E-3,-7.4672736E-2,5.1267534E-2,-5.907212E-1,4.8194714E-2,-1.537852E-3,-4.6709243E-2,1.3230271E-2,-1.725564E-2],"categories":[],"categories_nodes":[],"categories_segments":[],"categories_sizes":[],"default_left":[0,0,0,0,0,0,0,0,0],"id":76,"left_children":[1,3,-1,5,7,-1,-1,-1,-1],"loss_changes":[1.1378105E2,9.983444E1,0E0,5.8204597E1,1.0838489E2,0E0,0E0,0E0,0E0],"parents":[2147483647,0,0,1,1,3,3,4,4],"right_children":[2,4,-1,6,8,-1,-1,-1,-1],"split_conditions":[1.3E1,2.014E3,5.1267534E-2,2.006E3,2.019E3,-1.537852E-3,-4.6709243E-2,1.3230271E-2,-1.725564E-2],"split_indices":[17,2,0,2,2,0,0,0,0],"split_type":[0,0,0,0,0,0,0,0,0],"sum_hessian":[1.6720925E3,1.5730886E3,9.900384E1,3.0178232E2,1.2713064E3,1.1514532E2,1.8663701E2,8.202855E2,4.510208E2],"tree_param":{"num_deleted":"0","num_feature":"31","num_nodes":"9","size_leaf_vector":"1"}},{"base_weights":[1.2467174E-2,-5.2199256E-2,5.1195513E-2,-3.8431808E-1,1.1183897E-1,-4.5323078E-2,-3.9954055E-3,1.8619813E-2,-2.3066802E-2],"categories":[],"categories_nodes":[],"categories_segments":[],"categories_sizes":[],"default_left":[0,0,0,1,0,0,0,0,0],"id":77,"left_children":[1,3,-1,5,7,-1,-1,-1,-1],"loss_changes":[1.0950248E2,8.5781845E1,0E0,8.2664986E1,1.5761475E2,0E0,0E0,0E0,0E0],"parents":[2147483647,0,0,1,1,3,3,4,4],"right_children":[2,4,-1,6,8,-1,-1,-1,-1],"split_conditions":[1.3E1,3.6973556E7,5.1195513E-2,1.03488E1,6E0,-4.5323078E-2,-3.9954055E-3,1.8619813E-2,-2.3066802E-2],"split_indices":[17,24,0,3,17,0,0,0,0],"split_type":[0,0,0,0,0,0,0,0,0],"sum_hessian":[1.6723685E3,1.5727626E3,9.9605896E1,5.1953894E2,1.0532236E3,1.9061172E2,3.2892722E2,7.2431195E2,3.2891174E2],"tree_param":{"num_deleted":"0","num_feature":"31","num_nodes":"9","size_leaf_vector":"1"}},{"base_weights":[-3.0100841E-2,3.6480974E-2,-9.091436E-1,2.672664E-1,-2.114148E-1,-1.4496447E-1,-1.1172472E0,4.3683383E-3,4.7612797E-2,1.677899E-3,-4.2418815E-2,3.5868093E-2,-3.7107047E-2,-5.9972256E-2,-2.2684676E-3],"categories":[],"categories_nodes":[],"categories_segments":[],"categories_sizes":[],"default_left":[0,0,0,1,0,0,0,0,0,0,0,0,0,0,0],"id":78,"left_children":[1,3,5,7,9,11,13,-1,-1,-1,-1,-1,-1,-1,-1],"loss_changes":[9.5968414E1,8.7284355E1,1.8197891E1,9.727164E1,1.1481751E2,1.3849063E1,7.927162E0,0E0,0E0,0E0,0E0,0E0,0E0,0E0,0E0],"parents":[2147483647,0,0,1,1,2,2,3,3,4,4,5,5,6,6],"right_children":[2,4,6,8,10,12,14,-1,-1,-1,-1,-1,-1,-1,-1],"split_conditions":[2.7921E2,2E0,1.2E1,3.385E-1,2.021E3,2.005E3,2.927731E9,4.3683383E-3,4.7612797E-2,1.677899E-3,-4.2418815E-2,3.5868093E-2,-3.7107047E-2,-5.9972256E-2,-2.2684676E-3],"split_indices":[25,30,28,7,2,2,24,0,0,0,0,0,0,0,0],"split_type":[0,0,0,0,0,0,0,0,0,0,0,0,0,0,0],"sum_hessian":[1.6381267E3,1.5236765E3,1.1445016E2,7.8902954E2,7.34647E2,2.4859592E1,8.959057E1,6.2580194E2,1.6322758E2,5.3127E2,2.0337697E2,1.0089311E1,1.4770282E1,8.309903E1,6.4915376E0],"tree_param":{"num_deleted":"0","num_feature":"31","num_nodes":"15","size_leaf_vector":"1"}},{"base_weights":[-2.0179E-2,-5.0104487E-1,5.4218065E-2,-8.0596447E-1,3.7991336E-1,2.788948E-1,-1.5844607E-1,-4.945357E-2,3.8923707E-2,-5.914211E-2,6.1192542E-2,1.6829884E-2,-5.6610573E-2,1.0128984E-2,-2.9302409E-2],"categories":[],"categories_nodes":[],"categories_segments":[],"categories_sizes":[],"default_left":[0,0,0,0,0,0,0,0,0,0,0,0,0,0,0],"id":79,"left_children":[1,3,5,7,9,11,13,-1,-1,-1,-1,-1,-1,-1,-1],"loss_changes":[5.8115402E1,5.8771908E1,6.7274445E1,4.7771896E1,7.615261E1,5.6121902E1,1.1180796E2,0E0,0E0,0E0,0E0,0E0,0E0,0E0,0E0],"parents":[2147483647,0,0,1,1,2,2,3,3,4,4,5,5,6,6],"right_children":[2,4,6,8,10,12,14,-1,-1,-1,-1,-1,-1,-1,-1],"split_conditions":[2E0,3.9E1,3E0,1.41851E5,2.015E3,4.00616E1,2.3E1,-4.945357E-2,3.8923707E-2,-5.914211E-2,6.1192542E-2,1.6829884E-2,-5.6610573E-2,1.0128984E-2,-2.9302409E-2],"split_indices":[29,0,29,22,2,3,0,0,0,0,0,0,0,0,0],"split_type":[0,0,0,0,0,0,0,0,0,0,0,0,0,0,0],"sum_hessian":[1.62271E3,2.1665091E2,1.4060591E3,1.6100763E2,5.5643272E1,6.835677E2,7.2249133E2,1.4466505E2,1.6342573E1,1.9371202E1,3.6272068E1,6.57445E2,2.6122711E1,3.9202756E2,3.304638E2],"tree_param":{"num_deleted":"0","num_feature":"31","num_nodes":"15","size_leaf_vector":"1"}},{"base_weights":[-3.2937618E-3,2.2276457E-1,-2.5584385E-1,-4.8841837E-1,3.5330296E-1,3.1002015E-3,-9.088885E-1,-3.296288E-2,5.5148162E-2,-5.7234537E-2,2.099116E-2,-1.9848084E-2,1.1762331E-2,-4.7903072E-2,1.4765866E-2],"categories":[],"categories_nodes":[],"categories_segments":[],"categories_sizes":[],"default_left":[0,0,0,1,0,1,0,0,0,0,0,0,0,0,0],"id":80,"left_children":[1,3,5,7,9,11,13,-1,-1,-1,-1,-1,-1,-1,-1],"loss_changes":[9.169107E1,7.884991E1,1.2827856E2,3.657363E1,7.189054E1,5.0633286E1,1.3036896E1,0E0,0E0,0E0,0E0,0E0,0E0,0E0,0E0],"parents":[2147483647,0,0,1,1,2,2,3,3,4,4,5,5,6,6],"right_children":[2,4,6,8,10,12,14,-1,-1,-1,-1,-1,-1,-1,-1],"split_conditions":[2E0,2.01E3,2.021E3,8.571E-1,-5.69471E1,1.29338E1,3E0,-3.296288E-2,5.5148162E-2,-5.7234537E-2,2.099116E-2,-1.9848084E-2,1.1762331E-2,-4.7903072E-2,1.4765866E-2],"split_indices":[30,2,2,7,4,3,30,0,0,0,0,0,0,0,0],"split_type":[0,0,0,0,0,0,0,0,0,0,0,0,0,0,0],"sum_hessian":[1.6040514E3,8.464814E2,7.5757007E2,1.3085141E2,7.1562994E2,5.431833E2,2.1438676E2,1.1869492E2,1.2156494E1,2.9738127E1,6.8589185E2,1.9919582E2,3.439875E2,2.0617227E2,8.214492E0],"tree_param":{"num_deleted":"0","num_feature":"31","num_nodes":"15","size_leaf_vector":"1"}},{"base_weights":[1.445587E-2,-4.8057176E-2,5.1054608E-2,1.774549E-1,-2.985005E-1,-2.3248935E-2,1.8268334E-2,-2.7691983E-3,-4.549353E-2],"categories":[],"categories_nodes":[],"categories_segments":[],"categories_sizes":[],"default_left":[0,0,0,0,0,0,0,0,0],"id":81,"left_children":[1,3,-1,5,7,-1,-1,-1,-1],"loss_changes":[9.998139E1,8.455237E1,0E0,9.528413E1,1.0537004E2,0E0,0E0,0E0,0E0],"parents":[2147483647,0,0,1,1,3,3,4,4],"right_children":[2,4,-1,6,8,-1,-1,-1,-1],"split_conditions":[1.3E1,2E0,5.1054608E-2,2.014E3,2.021E3,-2.3248935E-2,1.8268334E-2,-2.7691983E-3,-4.549353E-2],"split_indices":[17,30,0,2,2,0,0,0,0],"split_type":[0,0,0,0,0,0,0,0,0],"sum_hessian":[1.5870448E3,1.495147E3,9.189776E1,7.868859E2,7.082611E2,1.7774297E2,6.0914294E2,5.075286E2,2.0073253E2],"tree_param":{"num_deleted":"0","num_feature":"31","num_nodes":"9","size_leaf_vector":"1"}},{"base_weights":[-2.3762886E-3,4.38385E-2,-1.0787865E0,-2.6694426E-2,5.733341E-1,-5.2484787E-1,-5.7076197E-2,-1.6239729E-2,1.2525012E-2,5.340394E-2,-6.107762E-4,2.4666568E-2,-4.4266935E-2],"categories":[],"categories_nodes":[],"categories_segments":[],"categories_sizes":[],"default_left":[0,1,0,0,0,0,0,0,0,0,0,0,0],"id":82,"left_children":[1,3,5,7,9,11,-1,-1,-1,-1,-1,-1,-1],"loss_changes":[7.976059E1,5.7432354E1,1.6947174E0,1.1226509E2,5.2380123E1,3.5808976E0,0E0,0E0,0E0,0E0,0E0,0E0,0E0],"parents":[2147483647,0,0,1,1,2,2,3,3,4,4,5,5],"right_children":[2,4,6,8,10,12,-1,-1,-1,-1,-1,-1,-1],"split_conditions":[3.0352E2,2.8E2,1.1E1,4.36969E1,6E0,3E0,-5.7076197E-2,-1.6239729E-2,1.2525012E-2,5.340394E-2,-6.107762E-4,2.4666568E-2,-4.4266935E-2],"split_indices":[25,6,28,4,1,1,0,0,0,0,0,0,0],"split_type":[0,0,0,0,0,0,0,0,0,0,0,0,0],"sum_hessian":[1.6014038E3,1.536399E3,6.500476E1,1.3566344E3,1.7976466E2,7.5660834E0,5.743868E1,6.5358527E2,7.0304913E2,9.69908E1,8.277387E1,1.8820047E0,5.6840787E0],"tree_param":{"num_deleted":"0","num_feature":"31","num_nodes":"13","size_leaf_vector":"1"}},{"base_weights":[3.3194749E-3,3.9427966E-1,-1.11524954E-1,5.248347E-1,-1.0948976E0,1.1037465E-1,-3.3298624E-1,-9.709152E-3,3.808099E-2,-6.6473685E-2,3.3497807E-2,-3.4855377E-2,1.4027606E-2,-1.9496724E-2,5.0805934E-2],"categories":[],"categories_nodes":[],"categories_segments":[],"categories_sizes":[],"default_left":[0,0,0,0,0,0,1,0,0,0,0,0,0,0,0],"id":83,"left_children":[1,3,5,7,9,11,13,-1,-1,-1,-1,-1,-1,-1,-1],"loss_changes":[7.057251E1,6.9958435E1,5.9741005E1,5.61248E1,1.2933434E1,8.369116E1,4.713246E1,0E0,0E0,0E0,0E0,0E0,0E0,0E0,0E0],"parents":[2147483647,0,0,1,1,2,2,3,3,4,4,5,5,6,6],"right_children":[2,4,6,8,10,12,14,-1,-1,-1,-1,-1,-1,-1,-1],"split_conditions":[1.63E-2,8.8325E2,5.3E1,2.9879336E7,1.35E-2,5.3E1,3.4223E0,-9.709152E-3,3.808099E-2,-6.6473685E-2,3.3497807E-2,-3.4855377E-2,1.4027606E-2,-1.9496724E-2,5.0805934E-2],"split_indices":[7,12,26,24,7,28,7,0,0,0,0,0,0,0,0],"split_type":[0,0,0,0,0,0,0,0,0,0,0,0,0,0,0],"sum_hessian":[1.5698054E3,3.558765E2,1.213929E3,3.277872E2,2.8089289E1,6.066149E2,6.0731396E2,8.124869E1,2.4653851E2,2.5011562E1,3.0777254E0,1.0505217E2,5.0156277E2,5.833986E2,2.391538E1],"tree_param":{"num_deleted":"0","num_feature":"31","num_nodes":"15","size_leaf_vector":"1"}},{"base_weights":[5.9878486E-3,-5.4323196E-2,5.099788E-2,-5.4497224E-1,4.3088775E-2,-5.3443648E-2,-3.1453304E-3,9.1526486E-2,-3.5222695E-4],"categories":[],"categories_nodes":[],"categories_segments":[],"categories_sizes":[],"default_left":[0,0,0,1,0,0,0,0,0],"id":84,"left_children":[1,3,-1,5,7,-1,-1,-1,-1],"loss_changes":[9.675512E1,7.1402405E1,0E0,6.2429924E1,1.1175484E2,0E0,0E0,0E0,0E0],"parents":[2147483647,0,0,1,1,3,3,4,4],"right_children":[2,4,-1,6,8,-1,-1,-1,-1],"split_conditions":[1.3E1,1.5099727E7,5.099788E-2,3.66507E1,1.6950796E7,-5.3443648E-2,-3.1453304E-3,9.1526486E-2,-3.5222695E-4],"split_indices":[17,24,0,4,24,0,0,0,0],"split_type":[0,0,0,0,0,0,0,0,0],"sum_hessian":[1.5802601E3,1.4924362E3,8.782387E1,2.4646013E2,1.2459761E3,1.1752199E2,1.2893814E2,3.3024254E1,1.2129518E3],"tree_param":{"num_deleted":"0","num_feature":"31","num_nodes":"9","size_leaf_vector":"1"}},{"base_weights":[-2.963334E-2,-8.8990755E-2,5.084858E-2,-3.2655802E-1,1.2312074E-1,-5.246712E-2,-1.2684296E-2,1.0123144E-2,-5.489545E-2],"categories":[],"categories_nodes":[],"categories_segments":[],"categories_sizes":[],"default_left":[0,1,0,0,0,0,0,0,0],"id":85,"left_children":[1,3,-1,5,7,-1,-1,-1,-1],"loss_changes":[9.5748924E1,7.351404E1,0E0,3.5973663E1,7.491966E1,0E0,0E0,0E0,0E0],"parents":[2147483647,0,0,1,1,3,3,4,4],"right_children":[2,4,-1,6,8,-1,-1,-1,-1],"split_conditions":[1.3E1,3.18E2,5.084858E-2,2E0,9.76E2,-5.246712E-2,-1.2684296E-2,1.0123144E-2,-5.489545E-2],"split_indices":[17,19,0,29,11,0,0,0,0],"split_type":[0,0,0,0,0,0,0,0,0],"sum_hessian":[1.538804E3,1.4570817E3,8.172232E1,6.870445E2,7.700372E2,6.169736E1,6.2534717E2,7.238367E2,4.620049E1],"tree_param":{"num_deleted":"0","num_feature":"31","num_nodes":"9","size_leaf_vector":"1"}},{"base_weights":[5.5226884E-3,-5.0734088E-2,5.0797768E-2,-1.3386585E-1,5.5094904E-1,-2.115379E-2,7.243646E-3,5.3035934E-2,-2.187165E-3],"categories":[],"categories_nodes":[],"categories_segments":[],"categories_sizes":[],"default_left":[0,1,0,1,0,0,0,0,0],"id":86,"left_children":[1,3,-1,5,7,-1,-1,-1,-1],"loss_changes":[8.905454E1,7.430818E1,0E0,1.05243866E2,5.4723007E1,0E0,0E0,0E0,0E0],"parents":[2147483647,0,0,1,1,3,3,4,4],"right_children":[2,4,-1,6,8,-1,-1,-1,-1],"split_conditions":[1.3E1,2.8E2,5.0797768E-2,2.3869E1,6E0,-2.115379E-2,7.243646E-3,5.3035934E-2,-2.187165E-3],"split_indices":[17,6,0,3,1,0,0,0,0],"split_type":[0,0,0,0,0,0,0,0,0],"sum_hessian":[1.56475E3,1.4831254E3,8.1624596E1,1.3037675E3,1.7935796E2,6.3961084E2,6.6415656E2,9.61525E1,8.320547E1],"tree_param":{"num_deleted":"0","num_feature":"31","num_nodes":"9","size_leaf_vector":"1"}},{"base_weights":[1.3624315E-2,-4.0417887E-2,5.069516E-2,4.300652E-3,-5.8276303E-2,-2.7300207E-2,4.0926817E-3],"categories":[],"categories_nodes":[],"categories_segments":[],"categories_sizes":[],"default_left":[0,0,0,0,0,0,0],"id":87,"left_children":[1,3,-1,5,-1,-1,-1],"loss_changes":[8.39933E1,7.418589E1,0E0,6.0605217E1,0E0,0E0,0E0],"parents":[2147483647,0,0,1,1,3,3],"right_children":[2,4,-1,6,-1,-1,-1],"split_conditions":[1.3E1,3.0352E2,5.069516E-2,2E0,-5.8276303E-2,-2.7300207E-2,4.0926817E-3],"split_indices":[17,25,0,29,0,0,0],"split_type":[0,0,0,0,0,0,0],"sum_hessian":[1.5520253E3,1.4733822E3,7.864303E1,1.418018E3,5.5364353E1,1.7440746E2,1.2436105E3],"tree_param":{"num_deleted":"0","num_feature":"31","num_nodes":"7","size_leaf_vector":"1"}},{"base_weights":[-1.5860884E-3,-5.2202232E-2,5.057872E-2,6.91489E-2,-4.4284633E-1,-2.1959513E-2,1.3000498E-2,-4.9336087E-2,2.1810553E-3],"categories":[],"categories_nodes":[],"categories_segments":[],"categories_sizes":[],"default_left":[0,0,0,0,0,0,0,0,0],"id":88,"left_children":[1,3,-1,5,7,-1,-1,-1,-1],"loss_changes":[7.884137E1,6.944204E1,0E0,1.0858883E2,9.1898674E1,0E0,0E0,0E0,0E0],"parents":[2147483647,0,0,1,1,3,3,4,4],"right_children":[2,4,-1,6,8,-1,-1,-1,-1],"split_conditions":[1.3E1,1.19E2,5.057872E-2,5.1E1,1.78E2,-2.1959513E-2,1.3000498E-2,-4.9336087E-2,2.1810553E-3],"split_indices":[17,28,0,28,28,0,0,0,0],"split_type":[0,0,0,0,0,0,0,0,0],"sum_hessian":[1.5353702E3,1.4632183E3,7.2151955E1,1.1170399E3,3.4617844E2,3.0456378E2,8.124761E2,1.6295963E2,1.832188E2],"tree_param":{"num_deleted":"0","num_feature":"31","num_nodes":"9","size_leaf_vector":"1"}},{"base_weights":[2.8438563E-2,-1.7686263E-2,5.0493844E-2,1.6668606E-1,-2.6938608E-1,-2.0363573E-2,1.9035695E-2,-1.9352155E-2,4.8542436E-2],"categories":[],"categories_nodes":[],"categories_segments":[],"categories_sizes":[],"default_left":[0,0,0,0,1,0,0,0,0],"id":89,"left_children":[1,3,-1,5,7,-1,-1,-1,-1],"loss_changes":[6.983117E1,6.844603E1,0E0,1.0474126E2,9.1369156E1,0E0,0E0,0E0,0E0],"parents":[2147483647,0,0,1,1,3,3,4,4],"right_children":[2,4,-1,6,8,-1,-1,-1,-1],"split_conditions":[1.3E1,5E0,5.0493844E-2,3.6973556E7,1.167E3,-2.0363573E-2,1.9035695E-2,-1.9352155E-2,4.8542436E-2],"split_indices":[17,17,0,24,6,0,0,0,0],"split_type":[0,0,0,0,0,0,0,0,0],"sum_hessian":[1.5411991E3,1.4729563E3,6.82428E1,8.503819E2,6.225744E2,2.3073036E2,6.196515E2,5.6925867E2,5.3315765E1],"tree_param":{"num_deleted":"0","num_feature":"31","num_nodes":"9","size_leaf_vector":"1"}},{"base_weights":[-4.103556E-3,-4.978228E-2,5.0377894E-2,-1.3355824E-1,5.299142E-1,2.8868028E-4,-3.0988097E-2,5.077116E-2,-4.91986E-3],"categories":[],"categories_nodes":[],"categories_segments":[],"categories_sizes":[],"default_left":[0,1,0,0,0,0,0,0,0],"id":90,"left_children":[1,3,-1,5,7,-1,-1,-1,-1],"loss_changes":[7.037028E1,7.082546E1,0E0,8.629227E1,5.627955E1,0E0,0E0,0E0,0E0],"parents":[2147483647,0,0,1,1,3,3,4,4],"right_children":[2,4,-1,6,8,-1,-1,-1,-1],"split_conditions":[1.3E1,2.8E2,5.0377894E-2,1.19E2,2.3E1,2.8868028E-4,-3.0988097E-2,5.077116E-2,-4.91986E-3],"split_indices":[17,6,0,28,0,0,0,0,0],"split_type":[0,0,0,0,0,0,0,0,0],"sum_hessian":[1.5207051E3,1.455918E3,6.478708E1,1.2727532E3,1.8316481E2,9.90028E2,2.8272516E2,1.02976585E2,8.018822E1],"tree_param":{"num_deleted":"0","num_feature":"31","num_nodes":"9","size_leaf_vector":"1"}},{"base_weights":[-1.4013327E-3,-4.6899874E-2,5.031767E-2,-4.9154618E-1,6.6847764E-2,-3.9242968E-2,1.3687729E-2,6.261799E-3,-6.1074954E-2],"categories":[],"categories_nodes":[],"categories_segments":[],"categories_sizes":[],"default_left":[0,0,0,0,1,0,0,0,0],"id":91,"left_children":[1,3,-1,5,7,-1,-1,-1,-1],"loss_changes":[6.886896E1,7.2717285E1,0E0,6.595449E1,8.6301956E1,0E0,0E0,0E0,0E0],"parents":[2147483647,0,0,1,1,3,3,4,4],"right_children":[2,4,-1,6,8,-1,-1,-1,-1],"split_conditions":[1.3E1,5.1E1,5.031767E-2,1.22E2,2.7921E2,-3.9242968E-2,1.3687729E-2,6.261799E-3,-6.1074954E-2],"split_indices":[17,28,0,26,25,0,0,0,0],"split_type":[0,0,0,0,0,0,0,0,0],"sum_hessian":[1.4999749E3,1.4360911E3,6.3883793E1,2.9186234E2,1.1442288E3,2.1097675E2,8.08856E1,1.0954839E3,4.8744816E1],"tree_param":{"num_deleted":"0","num_feature":"31","num_nodes":"9","size_leaf_vector":"1"}},{"base_weights":[2.965371E-2,2.2772005E-1,-1.8849762E-1,-1.6928878E-1,4.6199876E-1,-9.758379E-1,-6.864638E-2,1.5698323E-2,-4.3675136E-2,3.0407606E-2,-3.3940572E-2,-5.503577E-2,4.6079042E-3,-2.7865965E-2,7.662388E-3],"categories":[],"categories_nodes":[],"categories_segments":[],"categories_sizes":[],"default_left":[0,0,0,0,0,0,1,0,0,0,0,0,0,0,0],"id":92,"left_children":[1,3,5,7,9,11,13,-1,-1,-1,-1,-1,-1,-1,-1],"loss_changes":[6.654432E1,7.514992E1,6.909725E1,1.0245988E2,8.5090256E1,1.3005753E1,6.917904E1,0E0,0E0,0E0,0E0,0E0,0E0,0E0,0E0],"parents":[2147483647,0,0,1,1,2,2,3,3,4,4,5,5,6,6],"right_children":[2,4,6,8,10,12,14,-1,-1,-1,-1,-1,-1,-1,-1],"split_conditions":[2E0,1.8E1,2E0,6E1,2E0,5.1E1,3.6973556E7,1.5698323E-2,-4.3675136E-2,3.0407606E-2,-3.3940572E-2,-5.503577E-2,4.6079042E-3,-2.7865965E-2,7.662388E-3],"split_indices":[30,0,29,26,27,0,24,0,0,0,0,0,0,0,0],"split_type":[0,0,0,0,0,0,0,0,0,0,0,0,0,0,0],"sum_hessian":[1.5380835E3,8.0612964E2,7.319539E2,2.9926773E2,5.0686188E2,9.575663E1,6.3619727E2,1.7780566E2,1.21462074E2,4.497143E2,5.714761E1,8.570479E1,1.005184E1,1.9819807E2,4.3799918E2],"tree_param":{"num_deleted":"0","num_feature":"31","num_nodes":"15","size_leaf_vector":"1"}},{"base_weights":[3.7802192E-3,-3.755772E-2,5.020038E-2,-6.348234E-1,3.9501097E-2,-6.116234E-2,1.6691629E-3,1.3271746E-2,-1.1176772E-2],"categories":[],"categories_nodes":[],"categories_segments":[],"categories_sizes":[],"default_left":[0,0,0,0,0,0,0,0,0],"id":93,"left_children":[1,3,-1,5,7,-1,-1,-1,-1],"loss_changes":[6.2058365E1,6.636598E1,0E0,6.482964E1,7.598832E1,0E0,0E0,0E0,0E0],"parents":[2147483647,0,0,1,1,3,3,4,4],"right_children":[2,4,-1,6,8,-1,-1,-1,-1],"split_conditions":[1.3E1,1.1513149E7,5.020038E-2,1E0,2E0,-6.116234E-2,1.6691629E-3,1.3271746E-2,-1.1176772E-2],"split_indices":[17,24,0,21,30,0,0,0,0],"split_type":[0,0,0,0,0,0,0,0,0],"sum_hessian":[1.4989913E3,1.4404232E3,5.8568142E1,1.6377805E2,1.2766451E3,8.6646454E1,7.713159E1,6.867531E2,5.89892E2],"tree_param":{"num_deleted":"0","num_feature":"31","num_nodes":"9","size_leaf_vector":"1"}},{"base_weights":[-6.19214E-3,-4.88899E-2,5.013091E-2,3.5024443E-1,-1.5006001E-1,3.4192096E-2,-3.3231382E-3,1.2059363E-2,-1.2786346E-2],"categories":[],"categories_nodes":[],"categories_segments":[],"categories_sizes":[],"default_left":[0,0,0,0,0,0,0,0,0],"id":94,"left_children":[1,3,-1,5,7,-1,-1,-1,-1],"loss_changes":[6.3212E1,5.6899933E1,0E0,3.966122E1,4.6522278E1,0E0,0E0,0E0,0E0],"parents":[2147483647,0,0,1,1,3,3,4,4],"right_children":[2,4,-1,6,8,-1,-1,-1,-1],"split_conditions":[1.3E1,1E0,5.013091E-2,1E0,1.42E-2,3.4192096E-2,-3.3231382E-3,1.2059363E-2,-1.2786346E-2],"split_indices":[17,17,0,14,7,0,0,0,0],"split_type":[0,0,0,0,0,0,0,0,0],"sum_hessian":[1.465385E3,1.4067942E3,5.8590836E1,2.8397998E2,1.1228142E3,1.573619E2,1.2661807E2,2.3848944E2,8.843247E2],"tree_param":{"num_deleted":"0","num_feature":"31","num_nodes":"9","size_leaf_vector":"1"}},{"base_weights":[-2.1963077E-2,3.218333E-2,-7.909312E-1,-5.1838E-1,1.0686117E-1,2.2387221E-1,-5.845659E-2,-4.4577543E-2,9.495021E-3,1.6271232E-2,-5.2639353E-3,-1.04391305E-2,6.769165E-2],"categories":[],"categories_nodes":[],"categories_segments":[],"categories_sizes":[],"default_left":[0,0,0,0,0,0,0,0,0,0,0,0,0],"id":95,"left_children":[1,3,5,7,9,11,-1,-1,-1,-1,-1,-1,-1],"loss_changes":[6.133077E1,5.6649403E1,3.7450256E1,4.3668373E1,5.6272026E1,1.3554112E1,0E0,0E0,0E0,0E0,0E0,0E0,0E0],"parents":[2147483647,0,0,1,1,2,2,3,3,4,4,5,5],"right_children":[2,4,6,8,10,12,-1,-1,-1,-1,-1,-1,-1],"split_conditions":[2.7921E2,2E0,1.2E1,1E0,3E0,1E0,-5.845659E-2,-4.4577543E-2,9.495021E-3,1.6271232E-2,-5.2639353E-3,-1.04391305E-2,6.769165E-2],"split_indices":[25,29,28,21,29,8,0,0,0,0,0,0,0],"split_type":[0,0,0,0,0,0,0,0,0,0,0,0,0],"sum_hessian":[1.4713809E3,1.3754851E3,9.589577E1,1.6357616E2,1.2119089E3,2.6146486E1,6.974928E1,1.06962296E2,5.6613857E1,5.966541E2,6.152548E2,1.9496593E1,6.649892E0],"tree_param":{"num_deleted":"0","num_feature":"31","num_nodes":"13","size_leaf_vector":"1"}},{"base_weights":[5.1837494E-3,5.837518E-2,-7.713079E-1,8.677641E-2,-1.1910712E0,-1.1164196E0,1.7412761E-1,2.214045E-2,-9.430923E-4,5.35199E-2,-7.0550196E-2,-5.8677692E-2,3.2861874E-2,6.1851498E-2,-5.0651133E-2],"categories":[],"categories_nodes":[],"categories_segments":[],"categories_sizes":[],"default_left":[0,0,0,0,0,0,1,0,0,0,0,0,0,0,0],"id":96,"left_children":[1,3,5,7,9,11,13,-1,-1,-1,-1,-1,-1,-1,-1],"loss_changes":[5.992801E1,4.828724E1,3.054551E1,4.9977432E1,1.655428E1,7.690666E0,3.3733013E1,0E0,0E0,0E0,0E0,0E0,0E0,0E0,0E0],"parents":[2147483647,0,0,1,1,2,2,3,3,4,4,5,5,6,6],"right_children":[2,4,6,8,10,12,14,-1,-1,-1,-1,-1,-1,-1,-1],"split_conditions":[2.7921E2,1.659E3,1.34E2,1.42E-2,1.154333E3,1.3E1,2.2E1,2.214045E-2,-9.430923E-4,5.35199E-2,-7.0550196E-2,-5.8677692E-2,3.2861874E-2,6.1851498E-2,-5.0651133E-2],"split_indices":[25,11,26,7,12,17,5,0,0,0,0,0,0,0,0],"split_type":[0,0,0,0,0,0,0,0,0,0,0,0,0,0,0],"sum_hessian":[1.4488563E3,1.356835E3,9.202143E1,1.327588E3,2.9246925E1,6.728103E1,2.4740402E1,3.030447E2,1.0245433E3,2.2494907E0,2.6997435E1,6.550915E1,1.7718828E0,1.30311165E1,1.1709287E1],"tree_param":{"num_deleted":"0","num_feature":"31","num_nodes":"15","size_leaf_vector":"1"}},{"base_weights":[-3.4140795E-3,-2.00061E-1,2.0538619E-1,-2.558388E-1,4.9540576E-2,-7.3876065E-1,3.109289E-1,-4.787954E-2,-9.256447E-3,1.1881277E-3,-6.1354548E-2,-5.6946356E-2,1.918558E-2],"categories":[],"categories_nodes":[],"categories_segments":[],"categories_sizes":[],"default_left":[1,0,0,0,0,0,0,0,0,0,0,0,0],"id":97,"left_children":[1,3,5,7,-1,9,11,-1,-1,-1,-1,-1,-1],"loss_changes":[6.0384525E1,5.0560196E1,7.130735E1,3.576126E1,0E0,2.6844872E1,6.821257E1,0E0,0E0,0E0,0E0,0E0,0E0],"parents":[2147483647,0,0,1,1,2,2,3,3,5,5,6,6],"right_children":[2,4,6,8,-1,10,12,-1,-1,-1,-1,-1,-1],"split_conditions":[1.1E1,1.3E1,2.012E3,2E0,4.9540576E-2,4E0,1.5099727E7,-4.787954E-2,-9.256447E-3,1.1881277E-3,-6.1354548E-2,-5.6946356E-2,1.918558E-2],"split_indices":[6,17,2,29,0,1,24,0,0,0,0,0,0],"split_type":[0,0,0,0,0,0,0,0,0,0,0,0,0],"sum_hessian":[1.468643E3,7.563545E2,7.122885E2,7.232636E2,3.309089E1,7.1014946E1,6.4127356E2,6.505823E1,6.582054E2,2.809547E1,4.2919476E1,2.9952917E1,6.113206E2],"tree_param":{"num_deleted":"0","num_feature":"31","num_nodes":"13","size_leaf_vector":"1"}},{"base_weights":[1.2870797E-2,-2.4730243E-2,4.9964182E-2,-6.014931E-1,4.5771588E-2,-6.0328513E-2,8.0779515E-4,1.628024E-2,-8.268136E-3],"categories":[],"categories_nodes":[],"categories_segments":[],"categories_sizes":[],"default_left":[0,0,0,0,1,0,0,0,0],"id":98,"left_children":[1,3,-1,5,7,-1,-1,-1,-1],"loss_changes":[5.3811653E1,5.6869896E1,0E0,5.6950275E1,7.370367E1,0E0,0E0,0E0,0E0],"parents":[2147483647,0,0,1,1,3,3,4,4],"right_children":[2,4,-1,6,8,-1,-1,-1,-1],"split_conditions":[1.3E1,1.1513149E7,4.9964182E-2,1E0,6.496E1,-6.0328513E-2,8.0779515E-4,1.628024E-2,-8.268136E-3],"split_indices":[17,24,0,21,25,0,0,0,0],"split_type":[0,0,0,0,0,0,0,0,0],"sum_hessian":[1.449168E3,1.3968947E3,5.227326E1,1.513332E2,1.2455615E3,7.5962944E1,7.537026E1,5.3540466E2,7.101568E2],"tree_param":{"num_deleted":"0","num_feature":"31","num_nodes":"9","size_leaf_vector":"1"}},{"base_weights":[-1.00644715E-2,1.0952445E-1,-3.9880654E-1,-2.904247E-1,2.6505983E-1,-8.572248E-1,2.2737829E-3,-1.9268734E-2,4.858378E-2,1.6674116E-2,-3.8563427E-2,-4.899199E-2,4.9993575E-2,-1.9414453E-2,2.921809E-2],"categories":[],"categories_nodes":[],"categories_segments":[],"categories_sizes":[],"default_left":[0,0,0,0,1,1,1,0,0,0,0,0,0,0,0],"id":99,"left_children":[1,3,5,7,9,11,13,-1,-1,-1,-1,-1,-1,-1,-1],